# autogen test
# 
# LAMMPS SNAP coefficients for W

1 1596
W 0.5 1
-5.306037628809857409e+00
2.607555490723818467e-02
2.221831353785450741e-02
5.198654262131439246e-02
-1.544139173007925969e-02
2.782748791233414787e-01
6.575285164086434875e-02
2.909685523767516083e-04
-6.294783366422834758e-03
1.271075627970608968e-01
1.002880974340849968e-01
5.173287940310742489e-02
9.896958599360360098e-02
2.712567819295473841e-03
-2.043855778565344117e-02
2.981983542051140287e-02
-6.857711921058285906e-03
6.774351806912468077e-02
8.997565382919639476e-02
9.488137141259438828e-03
3.628971400334731617e-02
8.940208549158613384e-04
9.914707471417146672e-03
-1.766419870293022085e-03
6.764963116055180969e-02
1.077654015579164737e-01
7.028153897503562619e-02
6.137650230154763353e-02
-2.759959363052394074e-02
3.606713500876739670e-02
5.049354145914831254e-02
6.785752868736757808e-03
-1.030594151057255721e-02
-2.025159217385445048e-02
2.395701774714642518e-02
1.011157284586946120e-01
2.901247564739078445e-03
1.153150185621708117e-02
5.588022657444765423e-02
6.704338945595271146e-03
3.031424805163521197e-02
2.075695524825090302e-02
1.267333324208017552e-02
5.776964988756983941e-04
7.391347812880341532e-03
4.044556366318070167e-02
-6.443157495783694184e-03
1.260020484387833813e-03
-1.652272382050359325e-04
-2.323753281060104894e-03
-2.569413139037826383e-03
9.203236278222742481e-05
9.360186641982980171e-03
1.732198541252153237e-02
-5.588878211322958513e-03
7.746312943317260231e-03
-2.672895630887443959e-04
5.213177777067175842e-04
-8.164491119570011944e-04
9.845896306997781178e-04
2.332961728255021568e-05
1.020862369776419322e-03
3.363070877793497516e-04
6.764515125709458709e-04
5.594751263239258537e-04
-1.265009018428871592e-03
7.945735393250103211e-05
4.589485227237295739e-04
-5.201902614597823373e-04
7.483401511664358220e-04
2.785853307822565967e-04
-6.587808083025973585e-04
-1.325212283523790528e-04
-2.958051237289433281e-04
-5.211336006598332998e-04
-1.841276618437854456e-04
-9.895666088026841740e-05
-2.081450096206259310e-04
2.146485755077493483e-04
-5.331559119225260995e-04
-1.579010062783434100e-04
6.228491065490591528e-04
-2.273527695225425853e-04
-5.509872136371215178e-04
-4.875708399848015457e-04
-6.883967858061200169e-04
-2.394369621086163706e-04
-3.781611629967216565e-04
4.917718680838724767e-06
-7.843013976291729125e-04
6.784794129091901906e-04
-3.016769441203966112e-05
-3.156850698088555385e-04
-5.482925242277483704e-04
-4.017441090611991936e-04
-2.203191781629421114e-05
-5.257762659706922363e-04
-5.901647190378962369e-06
-3.509915400239714913e-05
4.975966236180415355e-04
6.594567023441785802e-04
3.293938726855038667e-04
2.755261918576574240e-04
1.753262041235295024e-04
1.149325555002051374e-04
-1.612247762781826989e-04
-2.310322738324812735e-05
4.208061550953617067e-04
4.399115815558223756e-05
-1.123933306673705122e-04
1.368161436048653031e-04
-6.807293117122516397e-04
3.690122923165478088e-04
3.227863268761267885e-04
1.038473205655499049e-05
4.118105214594793050e-04
-6.607315103346571154e-05
-1.003837636538452418e-03
1.658107360394361733e-04
-8.350801069754140759e-04
-1.766951511173845985e-04
-2.019557123897027569e-04
-3.557227467688886904e-04
1.229073354828582167e-04
-5.663772513378368024e-05
6.898956231550113644e-04
3.547603760791788376e-04
6.515280773002677089e-04
-4.682137667821847688e-04
-9.015178207645331695e-04
-2.855165903755084987e-04
-3.450563944588575026e-04
-6.486416575444843959e-04
-9.704082156568864153e-04
5.426126882526701757e-04
8.313039421630736929e-05
-2.376845258452179243e-04
6.208832202261556962e-04
7.390856809678978496e-04
4.244419478746988810e-04
-2.868574158462047015e-04
-3.356377594035884191e-04
8.533335006265631642e-05
-3.844391983655837076e-04
-1.338451140483738029e-04
4.766270986456663583e-05
7.030365437895250017e-04
2.766332402189850361e-04
3.042661662501646531e-04
-4.853346965413321795e-04
-6.759225199496265643e-04
-1.439974321033292296e-03
-1.701409553902727477e-04
-7.786184206422388327e-04
4.403814145097291639e-04
-5.683019989087755800e-04
-6.559747344597189863e-04
5.255869843857519270e-04
1.273881150489857049e-03
-7.003258672290542082e-04
3.085090463544738586e-04
-4.736576878497905218e-04
9.738818513077650675e-04
-3.383182519144577139e-04
-1.045794021225146487e-03
-1.371558757386796227e-04
1.326144941507248053e-03
-4.528290642869756155e-04
1.867818236301754407e-04
3.542021830749660701e-04
2.924792279008321606e-04
2.052654790187655789e-05
1.844394793304140654e-04
3.053338527564277262e-04
-1.751887905394168099e-04
-1.830730034882262962e-04
4.915155899070963556e-04
-6.677252752774515306e-04
2.758503128177413927e-04
5.238309609049484423e-05
-1.862280229712863042e-05
-9.298475736379899429e-06
-1.505661917187222319e-04
1.323818535709770207e-04
4.809410383431933413e-05
5.515598531412695127e-04
-4.646003312200008254e-04
-7.655903935921539049e-06
5.882821708767303846e-04
1.521630413149246529e-04
-3.316434766551760592e-04
-1.215866209397645155e-04
-2.373313412690077312e-04
-1.127219964701085830e-04
-4.855086623186495918e-05
1.231520978330408926e-03
8.755960565629468146e-05
-3.666949981732524778e-05
3.733336171512457958e-04
-4.656315890921842548e-04
-4.961919638815471487e-05
1.831439193908391541e-04
3.378051210158278337e-04
4.565474753630330263e-04
-1.142660505526616729e-04
-3.844411014287417764e-04
-6.753374927336515442e-04
6.091919635064296182e-04
5.209841882293068677e-04
-2.199216327799305697e-06
1.777091469180014756e-05
-1.202211946605214393e-04
1.067515657146803093e-04
1.817988734038948043e-04
4.653538199337556584e-04
1.156964904496401270e-04
1.000121573006276733e-04
-6.898264027125359989e-04
7.976662198958048148e-05
6.671803215314611431e-04
5.610166814647921584e-04
-7.675358414640279757e-04
-5.556984520172003400e-04
5.419506990927571268e-04
2.742243320432184370e-05
-5.314480535485044009e-04
-3.318675865235860053e-04
1.364764868072000431e-03
8.759755651667410175e-05
-8.394410822222814076e-04
9.619420690843376700e-04
-1.023168827839291990e-03
5.329605270173326265e-04
-4.141063918704683891e-04
1.247692342141388687e-03
-8.512032944158083852e-05
-1.136623336309305508e-03
-5.763067986799503628e-04
2.642663962407189272e-04
-8.678179142008856772e-04
-1.915643044713034662e-06
7.900679188487790558e-04
1.803057174665452728e-03
-5.003759419282347975e-04
-8.685921867036462847e-05
8.269408772991690415e-04
1.005305282941886674e-03
-5.548094927773386488e-04
5.554561663112750434e-04
-6.145548015708572273e-04
9.531561188908110752e-04
-7.639508390171501919e-05
-2.725212119510241299e-04
-1.287943503187119194e-04
-3.884317857299959408e-04
5.750412724960487143e-04
2.120525732604096911e-04
-5.427256440718299189e-04
1.762525987137191787e-04
4.989494321792654072e-04
-8.834818060392312170e-04
-1.806206514083322657e-04
-7.907421811313648840e-04
1.577992431996358457e-03
1.088040998046798822e-03
-8.801824579698878394e-05
-1.092440033416173769e-03
2.428258937319995199e-04
3.298047777679875489e-04
4.106258160089240258e-04
5.649329327016705814e-05
-1.801245095413322084e-04
-1.210354596563444971e-05
1.710229000948069870e-04
-2.227561187781707636e-04
2.034580419927383636e-04
6.714985233312740142e-04
-1.134259464953463924e-04
-3.620330312175974036e-04
-4.479147105810607835e-04
2.552452101842815190e-04
-4.312709564907810382e-04
-1.365308174820297914e-04
-5.656738501495829369e-04
-2.736206550605622029e-05
1.623192329706919074e-04
4.669904436096072452e-04
3.938267543132083106e-04
-6.047603218454926160e-04
2.248569334404424032e-04
1.941617392842397963e-04
-1.402550114495142608e-04
-6.174770008731329026e-04
-1.590076775325811095e-04
-1.409284993322154308e-04
-2.303716321311753874e-04
3.019698732898689893e-04
-1.633764260098936373e-04
3.349772959311023515e-04
-2.406659238859074621e-04
7.269226660544981936e-04
4.442251912780077386e-05
-6.849906515820222100e-05
-6.473716945763604766e-05
-2.788471517039237645e-04
-1.246610957633374772e-04
-1.169042649446256369e-04
-1.503937954218297358e-05
-4.523261530956959706e-04
1.087620447411976579e-04
-7.924447777605240660e-05
1.276472930996064271e-04
1.812793739795091007e-04
1.865511369610150898e-04
7.339945612618721223e-04
-1.714362590661832090e-04
7.401425039287800548e-04
3.566313104570512289e-04
-2.664013468466221017e-04
2.000733688939910853e-04
8.135372771076531491e-04
4.053736993826904565e-05
8.073965585484853963e-05
-7.029555317890947555e-05
3.668186460907422509e-04
-1.050482486264036187e-04
4.573797323588380697e-04
-9.278514860561458974e-04
-1.440060895435915525e-04
-7.593320902068671904e-04
-3.980651861860081981e-04
7.100799933039053441e-04
-1.871053477295433391e-04
-4.141071128956364000e-04
-3.459148862349024217e-04
-1.827963083968453225e-04
-4.211197410468079196e-04
-6.808480366118206282e-04
-2.297894876916197187e-04
-2.852107934585103094e-04
5.865788076992498566e-04
8.818167633975127406e-04
4.064146630000884395e-04
6.086995100323803511e-04
2.600976498631534027e-04
-2.471385431609810136e-05
1.872316138115789471e-05
9.156484270694984981e-04
9.001500868320796728e-04
1.135509998497894650e-03
-1.019013020138400316e-03
6.361118353879473709e-04
-1.005915029183957572e-03
-2.438459677483674113e-04
1.532514431915312175e-04
-5.410753350149671761e-04
5.212129731627427286e-04
3.948586178561296956e-05
-8.920957845610071740e-04
-9.101858999074858647e-04
9.844433312739921723e-04
-1.162184173049859813e-04
-2.752268254895333345e-04
9.680508290563255742e-04
-4.448356880440961365e-05
-9.925423748954670042e-04
-6.592271619696597664e-04
4.165361203374880325e-04
1.114744728130815168e-03
3.463671970397975497e-04
5.114500052587493727e-04
-1.090753838414180906e-04
1.074932563600413315e-03
3.354937965442580917e-04
-3.128191680260164823e-04
-4.509916644588789832e-05
4.948296081214044581e-05
3.886985248256373602e-04
8.001485144828047579e-04
1.138617115554377670e-04
1.425396896803672717e-04
-1.771716427511880500e-04
-6.058140336899596869e-05
3.740962863239137744e-04
6.258816853141544985e-04
-1.278189353354791712e-03
-8.735633359844615503e-04
-1.178512237883675264e-03
-5.366458652263541955e-04
3.593657120193177994e-04
5.484609108362037324e-04
5.678889439475279797e-05
2.351512444912256714e-04
-4.322168152836184177e-04
-9.927860783462885545e-05
5.793457771248078407e-05
1.087826315251355907e-03
-1.122360971531217869e-03
5.182177105511677788e-04
-3.011891433736164653e-04
-1.007894638190630452e-04
7.233532810113507835e-05
-2.264691372660057752e-04
5.681661203472706092e-04
-2.750500950090046148e-04
3.468866816800952505e-05
5.541955257888042620e-04
2.299048565616428899e-04
-3.249658742358311103e-04
1.019147363618687249e-04
-3.674386468705813933e-04
3.007344501026810221e-04
-3.955820243692534767e-04
-8.412716945880093855e-04
2.022282356461394990e-04
2.839497886592705681e-04
-2.124503390346062844e-04
1.575275163002932879e-03
-5.254875259722174320e-04
1.649868748025916680e-03
4.918409930887276602e-05
-1.208731430328791398e-04
-6.139489794577123209e-04
-9.302184826726736565e-04
2.046247443726377860e-04
1.845348392436607643e-04
-1.889306547931831302e-04
2.891739949388786712e-04
2.321427163400051504e-04
5.218877168016723385e-04
7.879599530790648565e-04
3.834497826156048030e-05
5.058209007810037888e-05
2.412552701799810964e-04
-5.231451359489330664e-05
-1.805563248081414399e-04
1.126335384562084579e-04
-1.117152701192276280e-03
-5.262624481019254627e-04
4.451852092494630402e-04
5.973268870972195952e-04
1.043947240162835730e-03
2.655424111311728477e-04
-5.899187606446107054e-04
-1.595475842647797412e-04
-3.335777369468681075e-04
4.803158504930527049e-04
3.748755250935528315e-04
-4.232201371811027167e-06
-2.393327450605222079e-04
4.617511972089530432e-04
-3.969546504712826124e-04
-4.787690526005336798e-05
1.627226434498113279e-04
8.396949154733099937e-04
-2.297179773472653435e-04
-9.649583638684852281e-05
1.407860448029459163e-04
-2.628468331960015698e-04
-2.476626263134412156e-04
5.029595622185159377e-06
6.397918708823894379e-04
2.873808054632758869e-04
-6.216393933184295858e-04
-2.597934257225475307e-05
3.010619953924675439e-04
6.953031023860120835e-04
1.790543538763182197e-04
-2.587020113264822639e-04
-2.241882130538988527e-04
-1.413335363505708633e-05
9.069780749805398052e-04
2.524810283151096807e-04
1.858169364601877671e-04
-1.810276421578216007e-04
2.795266145913514167e-05
4.732161135901003153e-04
-3.544725973415737102e-04
7.226575282426831327e-04
-8.276111980735514722e-05
-4.459705559436316397e-04
-2.733466959423764761e-04
3.316509990291550134e-05
-1.625473345616490289e-04
-4.494209266125388314e-04
-8.424641864220658435e-04
-1.512502447963253447e-04
-4.425198366921813007e-04
1.138420459830386645e-04
-1.305563116605751837e-04
-9.589229798696436140e-04
-9.127333072417743304e-04
-5.794607294849434377e-04
-5.985675315311422785e-04
4.318796062684598903e-04
2.613838739743458710e-04
-4.628109034053927255e-04
7.600787703670237221e-04
-7.479089712067571428e-05
8.317336527231366898e-05
-5.214437669565983972e-04
-4.770560593989962004e-04
-2.524533270345001514e-04
-7.461202537387655320e-05
2.624008240555743558e-04
7.442034396230714837e-04
5.713751504084683920e-04
5.361965516950952752e-04
-8.215698409996132325e-04
2.848803424788653185e-06
1.889448553897558794e-04
-1.514281470896701161e-04
-4.141449547482859892e-04
-1.761792228614389335e-04
-1.060267882241377330e-03
-8.381179253379851762e-05
-7.051950354610197948e-04
1.009258180030338367e-03
-1.399251796234051251e-04
-2.334179862923145077e-04
5.631044563131764886e-05
-1.907407041498828315e-04
4.631524034629351397e-04
6.816419345421822215e-04
1.137818241168103576e-04
-9.477677156215730345e-04
7.323368718689158663e-05
2.567337555199401583e-04
1.033954183886705248e-03
-2.441549292744762105e-05
-3.229437051028580057e-04
-2.007068048734743327e-04
6.376652745097341046e-04
-3.074093875593098235e-05
-5.930044478224725889e-05
1.119254327377873726e-05
4.335395600239907337e-05
-1.446322250257490831e-03
5.496759377339052949e-04
-1.061454975054055162e-03
-3.705144000420122085e-05
-5.691698010117833897e-04
1.170712017720115274e-03
-5.200806001509767880e-04
2.277526810291208574e-04
-4.686221919069040237e-04
7.569525601739087502e-04
9.510404420879229660e-05
3.752943897909186605e-05
4.898699370041600075e-04
-1.400271224298240975e-04
6.345792702995302868e-04
-1.006489090573169792e-03
-3.643694895617238089e-04
1.573446988381305015e-04
-5.578802116403352128e-04
8.136664207580491691e-04
-8.806684130532511402e-04
-6.930564602788506778e-04
-4.687317312045635948e-04
-2.034624913871664012e-04
-2.727257388345122086e-04
3.147713057129164472e-04
3.789318518904927669e-04
-1.284540588746947655e-04
1.869022579749934931e-04
-1.737390428720294244e-04
-2.314880558804228376e-04
6.624451149269155634e-05
-5.704692748630440981e-04
5.524582226862391606e-04
2.289223175568164017e-04
6.264126189865976743e-04
2.363778383319179810e-04
6.279831905901003776e-04
-6.676541909372571632e-04
-4.330039555171683193e-04
3.145846829694450182e-04
5.677559571160629200e-04
1.766260589140439307e-04
-7.621983719025163609e-05
-2.616952697433465227e-04
-1.625341497314751428e-04
-9.010570554625643399e-05
-1.745295788132696752e-04
-2.576347764998134708e-04
3.126165294909576337e-04
3.142949014164054503e-04
2.223698596737223301e-04
-4.795561811543144911e-04
3.711134994486062883e-04
1.483956473830707126e-04
3.311860584571883325e-04
2.836371926801226117e-04
1.208647559313679549e-03
-5.059710371259123953e-04
-5.319985647861452584e-04
-1.812603578017639211e-04
1.365181966418073801e-04
1.390421670578577287e-04
-3.117364437268631532e-04
3.597059048156796149e-04
2.148809710017818308e-04
-8.025144736092198160e-04
1.003363274527632244e-04
3.169614878372647689e-04
-1.349923874100283742e-03
6.717022603952567221e-04
-1.991046754002544108e-04
-6.921353330279115352e-04
1.080401664187258292e-03
-4.922822758639108440e-04
-5.631638067367835792e-05
-1.146298281939628350e-04
9.302171104142389511e-04
2.489157098310875154e-04
-2.719967325814694886e-04
1.145038076055677323e-04
4.073278575930204949e-04
3.667985953116136380e-04
9.099588953347121766e-04
4.160854320905981764e-05
2.810471799096211579e-05
-3.497040227663066330e-04
1.970972349636236447e-04
3.991566617053885738e-04
2.258325487639097496e-04
-7.244913884876558489e-04
9.702627468667201095e-04
1.741366894547232401e-04
-2.467396965610180637e-04
1.313167627873390174e-04
6.806524095919448993e-06
2.984355155235573261e-04
6.787199751332328871e-04
1.129598535144305194e-04
-4.501546577222374865e-04
-3.180092978793042958e-04
-6.176399189719594153e-04
-3.432549296423648014e-04
-1.115137459561895469e-03
1.731992783551442386e-04
-5.620905048089551697e-04
1.487021459372798744e-03
3.388724395058901142e-04
6.089733606130898029e-04
2.816516494744320843e-04
-7.471336373724436460e-04
3.328117926044701978e-04
1.993594637075753759e-04
5.177836016511236285e-04
-3.495676048711156064e-04
-3.647414008682689415e-04
-5.391778766501826269e-04
-2.083989304394559430e-04
1.642691506855182713e-04
-2.859271662457729007e-04
3.962561454166550583e-04
7.126556828901660454e-04
-4.202286763963230414e-04
5.652935182758056509e-04
-6.794996127626292326e-04
2.504069979734598397e-04
-1.601886621762466881e-05
-2.355058891602427240e-04
-9.759846575316762952e-04
2.568240398997264869e-04
1.368730681986496649e-03
-3.477810500276505025e-04
6.914166346952979820e-04
2.499173669143858365e-05
-3.399806528048385408e-04
1.085028495223261088e-03
1.111536977288388444e-03
-2.793697381206190029e-04
1.324648383736831692e-03
5.329077310301925420e-04
-7.836727334239815008e-04
1.796884022075857909e-04
-1.803545531099743000e-04
3.364273261649162929e-04
-4.741855661151154664e-04
5.742185599592364330e-05
-2.547675916212187395e-04
7.041370171169617897e-04
5.075294593942229109e-04
-4.538736339416868338e-04
3.964378355503299063e-04
1.538157473224428242e-04
3.701709458729544118e-04
4.857915811732978120e-04
-6.227267572499982622e-04
-9.125830882320324256e-05
-6.532420762449794643e-04
-4.991889430740189615e-04
-8.716205221377218188e-05
-7.903452853875194122e-04
1.904134290099561162e-03
-2.659759764231079500e-04
3.135926731438877057e-04
1.019413140239403904e-03
-2.333383088532974372e-04
-2.103129396676756352e-04
3.506595111829775304e-04
-4.857063985066771214e-04
2.598246830828837388e-04
6.532943442551137920e-04
8.920854436544131552e-04
2.613474427786362285e-04
6.906611204647200878e-04
-2.434073420147524658e-04
4.235101625836285559e-05
-6.270851090485828712e-04
-3.721818536533594464e-04
2.044139326358916881e-04
2.238912690737309764e-05
1.766266437870565821e-04
6.260413757101288392e-04
2.759995497516019598e-04
-8.745669743078953373e-04
1.141429038359325764e-04
9.314246729421757571e-04
-2.584133165010970667e-04
-3.202266317326853216e-04
1.781335852368225690e-04
2.393617851590656130e-04
-1.406712363717338269e-04
1.943682173263604597e-05
1.041149110014604742e-03
-1.690905195797199560e-04
-2.504248629817107906e-04
-3.007197090658838808e-04
-4.576110837357041548e-04
7.425861031716567053e-04
-5.035988742346149969e-04
1.862704891907535965e-04
1.288643178630819027e-04
2.359751686757980229e-04
1.825125258481262631e-04
-6.555908721511315368e-04
-2.286049651247051660e-05
-6.071846025679863312e-05
6.408506878043783309e-04
-2.716165421134200957e-04
4.311677848391231487e-04
-1.385090713499994609e-04
7.245085116485460775e-05
-5.308991673159951926e-04
5.298483596052468657e-05
-4.153281383054187857e-04
-2.233932970423104677e-05
3.877178430053560476e-04
6.836412313558963777e-04
-2.255815136447783021e-04
3.678594378033164976e-04
-8.943147747160103947e-05
-9.302269111358519140e-04
-1.755809471744095116e-04
-2.572138516397509136e-04
2.623025813242617420e-04
5.877424135239002739e-04
2.181845640753469074e-04
8.680696069523137796e-04
4.295155392422771705e-05
-1.744697108037332955e-04
-5.271288468243757845e-04
1.780328809921752679e-04
9.986874911732555795e-05
-4.782178563912997996e-04
-3.424323269608054257e-04
4.604658220502420222e-04
1.641109078937717173e-04
3.614863096270617298e-04
1.765458072252942151e-04
-1.838153805971466138e-04
-7.665805950661597548e-04
9.796215965906511123e-05
-2.354589491809275627e-04
-7.732062525246251490e-05
6.374402663551201114e-04
-3.518519978840161169e-04
-9.516994875626538482e-04
1.193854901016958768e-04
4.109810534145749965e-04
-1.830962238659621143e-04
-6.011423908832426964e-04
7.045753071355734124e-04
6.374247840127761832e-05
-1.482956117321569461e-03
-2.302169712645799591e-04
9.745404600633786460e-04
-8.551571303239011374e-04
1.976971734717269610e-04
8.240429770114327847e-04
-8.865329757296008372e-04
1.497152953401421471e-03
-4.865150000944930167e-04
-1.402385986518124268e-03
1.460376177886226926e-05
-9.978832624019122379e-04
1.585085485281687630e-05
-2.291948398712833344e-04
1.429685041036118497e-03
1.726343588735951349e-04
-8.811481682105470003e-05
5.310672452163865600e-04
9.001560313792151364e-04
-2.765594132863113757e-04
3.546855862108952385e-04
-6.945281663125236777e-04
7.229549189805255108e-04
-2.278646784337802771e-04
-4.479227299343599834e-04
-9.944846457050576338e-05
-3.907688061486005613e-04
5.279090632520263551e-04
-3.052065269745557127e-04
5.492909502879031848e-04
-1.107929589680542361e-04
7.911923967216935789e-05
7.339463555947898024e-04
5.738477887302228945e-04
1.716841677535622262e-04
4.815001328681798860e-04
4.450768694574085550e-04
2.414309493972574766e-04
-2.903403982710255765e-04
7.806482832053873071e-04
-5.699161844882615372e-04
-1.866664943843839269e-04
4.946009057645743339e-04
-1.264048311267935998e-04
2.096439511276624679e-04
2.044078857058833471e-04
-6.057438684345444954e-04
-5.404690927121088423e-04
6.300679893087651143e-04
-1.052621941409507319e-03
-1.568344539933660769e-04
-2.421109754523810033e-04
-2.703860412509973108e-04
-3.634995860218070735e-05
-2.763288166353125423e-04
3.999545989691533554e-04
-1.113188091941895945e-04
1.466500270464156852e-04
-5.681565145589435222e-04
-6.167607818488846495e-05
8.197266174254191733e-04
9.518313414147583232e-04
1.459796042794927562e-04
-5.791998905165016533e-04
8.762334846097114341e-04
-1.324367789357474635e-04
-1.602102609382184467e-04
-4.150169365311673808e-05
5.856200820486010070e-04
5.154316172677987293e-04
-7.612384679287654155e-04
3.030647783498912370e-05
1.563262110328964602e-04
-6.024139409600838243e-04
2.830988437097683020e-04
8.359932777156415433e-04
-4.533851458284508199e-04
-2.922747360420825083e-04
1.025686422960426982e-04
-2.734371314907522240e-04
3.426935431581429000e-04
8.623886777279198565e-04
-8.478718843275088318e-04
3.454979887768309227e-04
3.951269745842014380e-05
-5.176146786986697557e-04
1.926083186484472921e-04
-5.789300736911290064e-04
3.303653728651408886e-04
-3.251924628135009830e-04
-2.256672867759667290e-05
2.939813194490130486e-04
-2.282483793271548655e-05
-9.232227396463485274e-04
4.686098714346049088e-04
1.591793996695750439e-03
5.847055728080936344e-04
-6.053062750509252948e-04
-7.526909355485254544e-04
-9.557825454588633708e-04
2.512756856266564376e-04
-8.689405675799740259e-04
2.802935539882823665e-04
-4.835890051906762657e-04
-5.911907016136476152e-04
2.394584756741342877e-04
-2.006331798081156640e-04
-5.592503468371279475e-05
-1.139344496767662413e-03
6.035645437254933505e-04
1.476350572397558143e-04
-4.373863124297478746e-04
2.593268146094559708e-05
5.858944999527127993e-04
2.520471762556514392e-04
4.230445725583264447e-05
2.892576110799218109e-04
-6.083201371428125312e-05
-6.137338847157337114e-04
3.720993317106415150e-04
7.282869263722751944e-04
-7.620915583460132826e-05
2.350322786046031554e-04
-6.771998873575589247e-04
8.906971475685126398e-05
8.779594781229078980e-04
2.819275683105119446e-04
4.848139255434109635e-04
3.134856150199549513e-04
2.301045634333004136e-04
-2.063871421192027056e-04
7.025426058346969814e-04
-3.838648623491794061e-04
-5.986365826450207100e-04
3.316632674466992803e-04
1.081746433040888487e-03
5.980218131732336229e-04
-7.075182500407919972e-05
-1.666174057566829805e-04
6.441996918956958236e-04
-9.047567432950732189e-04
1.231830692213962367e-04
3.859421231593489427e-04
4.276998641456863492e-04
-1.009252426088502134e-03
-1.438016660752987450e-04
-1.090139986982281662e-03
8.785806802582188488e-05
-5.783768895824279235e-04
-9.488820786092477593e-04
5.129448449398030067e-04
-5.720715010372898418e-04
9.236274972541694793e-04
5.949600473375652463e-04
-1.160621814976013242e-03
5.764274989109727178e-05
-1.449251984177791488e-03
4.380430178389114397e-04
1.376425812563846201e-03
6.971214069490322884e-04
7.546343893740011530e-04
5.969525314564894797e-04
4.834057666153194674e-04
4.999880758865243163e-04
-1.206982927418022693e-03
-6.282512779675098759e-05
1.162899147018668080e-03
7.665179396361851373e-04
-3.828550987675986795e-04
1.298533797316323360e-03
1.428765285703264567e-04
-4.303956131407525002e-04
-4.653247018401445194e-05
3.232922397984121324e-05
1.521822527143901053e-04
8.465135426396278029e-04
7.025398143436505810e-05
-6.033257772826062680e-04
-4.139703968850377423e-04
-1.420111246484324213e-03
2.475732797490977572e-04
-8.235981429407040707e-05
2.608674579256276688e-04
-9.557583221147296576e-04
-1.468229270834030861e-04
-9.705196212701519510e-04
5.638850898416921092e-04
1.230745844261186184e-04
-5.106410401243577672e-04
-8.424678212028623939e-05
-2.941229814037058204e-04
6.379589473594799191e-04
5.643464672592884111e-04
5.961317793324365992e-05
2.048607248825437066e-04
7.316136027918723967e-04
8.473615901279758170e-05
1.521565571439902021e-04
-3.229017405118054704e-04
2.503601592545911039e-04
1.305532454435728639e-05
-4.366033781891829127e-04
-6.644702098810501134e-06
2.603774398082068391e-04
6.431546226727155287e-04
1.087497482458095623e-04
-5.445630262681764059e-04
4.866770214091713811e-05
-4.289479993024988749e-04
-7.598724554715914105e-04
7.459475930029801135e-04
8.330792828010176541e-04
9.439906370635016896e-04
-7.693367238669909737e-05
8.417950277360208367e-05
-1.245070460258125697e-03
1.691998722570898573e-04
-1.166040475713582374e-03
8.546156335745042510e-04
4.230581041923389343e-05
6.235942153840573704e-04
5.068089035021974050e-04
7.668826246901296832e-04
-1.053306537373277117e-03
4.134844416418980068e-04
5.281754909292933967e-04
-6.913286993497024489e-04
1.114739882302257073e-05
4.601893849295981328e-04
-2.774726434527390777e-04
1.659399048008287653e-03
7.271074906098742895e-04
3.468507155775615619e-04
-6.957900231278390038e-04
-1.343665046314074555e-05
5.389846785824494021e-04
-5.655176646763302920e-05
-7.378750314763933560e-04
3.655662605733488711e-04
6.558206322465860510e-06
6.560206845613299285e-04
5.225641290147522164e-04
2.779616754051938401e-06
-7.449042057346017811e-04
4.164893462254465632e-04
-3.515958882891735107e-04
-5.283239954666336474e-05
-1.822870576067795335e-04
5.534085734176501931e-04
-1.564014463959051263e-04
-1.076711682593459347e-03
-2.610375248541492790e-04
1.396828449420360380e-04
1.706238508933978243e-04
1.043012439653224046e-03
1.327382214068129973e-04
9.891046171998085226e-05
-2.066758028353613105e-04
3.689835923600845143e-04
-2.209074796907782600e-04
7.195415529266485600e-04
8.651489639918318530e-05
4.503323265177070346e-04
7.351243678540956856e-04
5.090452750306276829e-04
1.945719507529112592e-04
4.573609468841405117e-04
-1.425956639750564406e-04
-2.750232315115791124e-04
-6.471110833574248225e-04
-8.526570477996694877e-05
-2.038918115848603412e-04
-3.021312854067876924e-04
1.507524647568997227e-04
-2.430716755642119164e-04
-8.850871626164638921e-05
-2.515266608762448054e-04
2.886028601938436984e-05
1.478161466375470441e-04
-3.043071744746738295e-04
-2.061014905807478567e-04
2.945117107898522824e-04
-8.480207977190748264e-04
-1.961262562060064147e-04
-1.324037638676816859e-04
1.381341850440249595e-04
5.819263601521651149e-04
3.300689357767622699e-04
-9.184722876996141705e-04
5.096432372920162764e-04
-9.740921158672117370e-04
1.080481897066074958e-03
8.551315186039058812e-05
-3.647198677818079483e-04
2.702019535541584009e-04
-2.165103400750562762e-04
1.114617070046781456e-04
5.472945305476698517e-04
-6.194185940266957232e-04
4.879895056216115889e-05
2.413158294060924474e-04
1.319853127328505116e-04
-3.047459476531812791e-04
9.463728770492404823e-05
1.637142385229739126e-04
1.451782223076603934e-05
9.212870022798613215e-05
1.370756920666078835e-06
6.988975874234191251e-04
-2.987012599794503604e-04
-3.167764492020607521e-04
-4.970941849339640924e-04
-5.183359109555876320e-04
-1.246276277389611435e-03
2.395062238804981859e-04
3.645749167636634603e-04
-4.935101436245943238e-05
-8.439303448618250833e-04
-1.598401709593558553e-03
-9.317531327340672354e-04
-8.193485997694708125e-05
3.772839303619825624e-04
-6.628540299785382539e-04
8.615471872366782524e-04
-3.786409447912519812e-04
8.147264435295517278e-04
-6.764228383219368082e-04
9.407456548154205208e-04
-4.442849221809708042e-05
-7.474380666462215634e-05
3.991205571012795914e-04
7.260170125101508181e-04
-5.239029329938774951e-04
3.861296058680428311e-04
-3.664830327075618865e-04
5.149336206123079343e-04
6.426822726511394017e-04
6.594948638545089200e-04
5.139574531010323872e-04
-1.171714721160044059e-04
-3.650895010807501083e-04
3.757968437768082620e-04
6.051254627996754314e-05
-4.639213108652013706e-04
2.039765076157807353e-04
4.658179967942312379e-04
-3.588503372481424117e-05
6.205139723840449742e-04
-5.018558900112182058e-04
6.623864755082842747e-04
5.650107795612370010e-06
-3.384916427752729037e-04
-9.781511767017387650e-04
1.002284961567135148e-03
-1.362772837483959510e-03
4.639092158691591702e-04
-1.061060264330282660e-03
5.443445858326189518e-04
-2.931140979468040142e-04
2.748551918634074961e-04
-3.574160503761248834e-06
-6.982793433272969311e-04
8.640177675089612437e-04
-3.079480376072529237e-04
5.787312273757188246e-05
9.089930726864545955e-04
-9.050154508980253051e-04
-3.801441803746737048e-04
-1.705042367107889969e-04
4.774127711497617521e-04
-2.451515846176717485e-04
2.889725950275385776e-05
1.366067952607671779e-04
3.870959651367763860e-04
3.368027030757565006e-04
4.624785470680623997e-04
-7.673969370929636068e-04
3.753115390462017980e-04
-2.791431282640439515e-04
-3.935466335195152653e-04
-5.889787053354237321e-04
2.841422145478419265e-04
5.742471835824965957e-04
3.539886668250394265e-04
9.702360185724146283e-05
-5.659566721588813430e-04
-5.456035411180543094e-04
-6.924658874235581048e-04
-6.409606195986160011e-04
3.872870436748385875e-04
9.763336094955631420e-05
-4.528003081382007614e-05
-1.154119619596155524e-03
-2.279963981447359069e-04
-9.563479376938629291e-05
-1.010185206740370949e-03
4.152497175376376726e-04
2.989991913962783713e-04
3.593324864502624714e-04
-3.044703901532202139e-04
1.411911537556910729e-03
-1.648368840711506288e-05
9.422291887273366633e-07
-4.604383003105929880e-04
-6.117853160565199294e-04
7.077492032900944237e-04
-9.518919995041234122e-04
1.980705132002860388e-04
6.238258303258523976e-04
7.392371902955481014e-04
-3.374304612111262021e-04
5.131611849177240522e-05
-2.656599769531115744e-04
-6.572327093202705956e-04
-3.664867220427313376e-04
3.416264907772470060e-04
-1.024402442291768526e-03
6.349083164983019591e-05
2.245691660312104383e-04
7.596899149932708720e-05
6.546756653258528581e-04
4.744154968113310105e-04
-5.320296358708326030e-04
-4.569168320529348802e-04
-3.007253626465183427e-04
3.143918284606771413e-04
3.255768643665870959e-04
-1.187855862295305069e-03
-1.054496211159717351e-03
5.989859773059140512e-04
2.747092756225991139e-04
-1.580678428179274920e-05
-4.039610697491403187e-05
-3.827272035044385848e-04
-1.270549707614162735e-04
-4.342751341120031582e-04
-1.001294710832835504e-04
-5.965480402398788337e-04
-3.321308189042253343e-04
1.648994540664012131e-04
2.988957206614129003e-04
2.214439568058809314e-04
1.299588668501571983e-03
-1.674251340553589316e-03
4.660558086182158525e-05
5.612580324869289716e-04
-1.693274635445234718e-04
-8.046036208915638378e-04
8.955246977901018231e-04
-5.517922603512486488e-04
-3.922621144939783641e-04
9.748479235194115917e-04
3.091238724384194289e-04
8.426740305303733304e-04
-4.675117561723072553e-05
-5.888562764837524657e-04
9.348791536099649224e-04
7.759468753825540018e-04
-9.547970344720592807e-04
4.302423949965237756e-04
1.213186000161702190e-04
-1.498884740343292717e-04
1.781822077161333384e-04
-4.838072508627971132e-04
-3.810750789248970876e-04
7.831753128064577064e-04
-5.648643778833655404e-04
-1.359946890507657583e-04
-3.680672806118382616e-04
4.032940138602574156e-05
-9.872564859837733200e-05
-1.003340213850137386e-03
1.771367279884132509e-04
-1.348807738607213900e-04
5.827116101684217276e-04
1.164456097016953627e-03
8.973881983041150394e-04
-7.375114527968500838e-04
-1.181214170791603554e-04
1.366969678430767724e-03
-5.950426648627609285e-04
3.070863293996965184e-04
1.828364068351867304e-05
-2.265401019105630330e-04
8.989975895341053560e-04
3.508716728114730612e-05
3.901767777046620620e-04
-2.419083671786427037e-04
2.622318248640011901e-04
1.401635242969096590e-04
-6.656592594155611668e-04
6.590430853785861440e-04
6.959257217867540605e-07
-3.935972124134164791e-04
8.454715509066430953e-04
4.374614633070037016e-04
-6.964372474601599481e-04
2.102534883289200874e-04
7.088554950336074106e-04
-4.474070654138449484e-04
5.253313925356111955e-04
-2.774550446169214506e-04
-7.131224064844725536e-04
-1.567909276036228144e-04
-6.410344053183139211e-04
3.207795520887798978e-04
-7.294891958211977391e-04
-1.211132435804359767e-04
4.241151927727303695e-04
4.647468307578500840e-04
-3.854215878358584896e-04
3.625114873667313760e-04
3.604771445880322459e-05
-1.357124088146185147e-03
6.986466088157169485e-04
-3.457871486839075945e-04
-2.274621004443422003e-05
-4.569758264464221834e-04
-4.199972472591976787e-04
1.588759537741379825e-04
-6.326784518451990767e-04
3.171682155856646052e-04
5.245459710830036818e-04
-4.050001561350821803e-06
3.536325353522883162e-04
4.855672694104398745e-04
4.935671805612245949e-04
-8.339953968330443980e-05
-4.542142302140892861e-05
1.194257219692560369e-03
-3.112544090045106645e-04
4.234312760378671978e-06
3.095201067992744796e-04
5.679912856170249349e-04
-9.095112936281361284e-04
-9.902873432682025867e-05
-1.396535238295906111e-05
6.898864486307337872e-05
-4.493259894739906287e-04
2.003935277665833559e-04
6.180376330653229201e-04
-5.605629930532356892e-04
1.715336813000195191e-04
-9.652397482892774167e-05
-1.723820212474975805e-05
-5.613472553789393676e-04
-4.365262400595656110e-05
-9.160831303177539473e-05
-7.403759122317412483e-04
1.614539625123764019e-04
3.346263515359128239e-04
1.157094135402565629e-04
-1.299875951925052813e-04
-3.949456761212089407e-04
-1.310274238726322291e-04
-6.745938490022076453e-04
1.150581510796428938e-03
-2.849372169186592768e-04
1.113483122886086687e-03
-8.171697011130572277e-04
-6.863066206672180586e-04
-1.243764397956675656e-04
2.287995355761943855e-04
-5.081583611335324571e-04
-2.837592592756888821e-04
-2.605475760320742780e-05
-5.825554006197903884e-04
-3.296615393439623681e-04
5.497338934227796086e-04
-1.386870881912542893e-04
-3.709871245613475415e-04
5.357764343346456837e-04
1.950271689807098110e-04
1.398472029678784979e-04
6.898807822334894913e-04
-1.468158994842395698e-04
-1.943123372409798308e-04
-1.421817960683201634e-04
2.753169608026304407e-04
-5.214989443680798434e-04
1.074765381694879141e-03
9.930093304964646064e-04
-5.199691198807506257e-04
7.858443285085116867e-04
-6.908705615242995016e-04
-2.850286241551910145e-04
-5.323356431110192908e-04
-8.692364722268333850e-04
7.309301765883811485e-04
6.211143486790061084e-04
-2.652875463530293969e-04
7.435259380460823055e-04
-2.189752327106156394e-04
-3.859184344175904018e-04
-1.037918953041252991e-03
9.224316692423281455e-04
9.340634848762479356e-04
-9.711635615041293648e-04
5.330060859822590043e-04
-3.947748396762144896e-04
7.693028753595503900e-04
1.266743595389321041e-03
-6.038964880495926351e-04
-3.271514133290220222e-04
4.975724456418178737e-06
2.422295219614575639e-04
-6.397773870196694695e-04
5.808923600347919587e-05
3.604384660583104683e-04
7.086847886279217619e-04
6.701982020940261886e-04
-1.552661258990187363e-04
-2.545825871873848116e-04
-6.818273082127777581e-04
5.381997967494823098e-04
-5.361577722963956679e-04
6.977143167176703140e-04
-2.749626446752307480e-04
2.925789211493552418e-04
-1.561363226233279796e-04
3.853725834932387887e-04
6.321699911756401783e-05
-5.451621348283527697e-04
-1.034536695239786060e-03
-4.418748702397697634e-05
7.580120443809397522e-04
-4.345288448552296103e-04
1.041433231335293398e-03
1.484524554485854020e-04
-6.729909767260434071e-04
3.708850894483594154e-04
-7.554593259440896356e-04
5.031224739236331376e-04
-1.264956312877512984e-03
6.307712601390630641e-05
-5.147005172664407147e-04
-7.297704992066276694e-04
-1.115784004997612758e-05
5.138209561674408074e-04
-2.736670511854539405e-04
-7.394406723609931158e-04
-3.128854492823437473e-05
1.212434592180338565e-04
-8.151190368863422877e-04
-3.175245631790700744e-04
-4.762872076017178689e-04
-1.576164760503751081e-04
-8.046450606976186890e-04
4.549477372167603823e-05
3.704938836987338772e-04
-1.622101899505500608e-04
1.383284144302409464e-03
3.144836050544881786e-04
1.428458224251031498e-04
8.102268128311893372e-04
-6.303285661665116628e-04
-9.472829775123582229e-05
3.273634214296909520e-04
9.727762656776392427e-04
2.104376560529663516e-04
1.166252661107905399e-03
-6.542995451469793208e-04
-2.835959155581327103e-04
1.365734526997754747e-04
-5.794651287581646486e-04
7.472434019406491408e-04
-1.254533311081889365e-03
2.619879767688280221e-04
-1.045698432346886444e-03
-1.992877727244029559e-05
-1.410823173677062817e-04
-5.732880429222855486e-04
-3.359134485678220679e-04
3.642724169734033539e-04
-1.162982678508363548e-03
2.880790505909936925e-04
1.074490775759696926e-03
6.554272194514717360e-04
-1.195235766263272130e-04
9.287170753573368177e-05
-3.700752546001066052e-05
8.279845672013404537e-05
-3.408443025092992179e-04
4.286552204092977550e-05
3.449303364846098346e-04
6.355100703034764114e-04
-6.662563814134186968e-04
5.492968138557431136e-04
-8.399008198682485736e-04
-3.724484165273309597e-04
-1.781157790069457268e-05
-1.981502066142904877e-05
-6.121259741852844551e-04
3.338863799228560685e-04
-2.274923169522540304e-04
5.254308492838865056e-05
5.020230717434359408e-04
-5.966119283813856131e-05
2.328521958383256038e-05
1.340787531108593271e-03
-1.684753655522500527e-04
-5.971678432912132370e-04
-4.665719995896554489e-04
6.010765613797190536e-04
-2.526710322410995137e-05
-5.149806813063804046e-04
1.130782494338047103e-04
7.363240207552272957e-04
-1.246651748866354603e-04
4.282693568077442143e-04
7.450413992592136870e-04
-1.339432971453510942e-03
-4.139937232229636997e-04
-2.713650754830139109e-04
5.829901321125541052e-04
2.883629832615087953e-04
-1.539682009361691660e-04
1.290591968757438693e-05
-2.324222108656857303e-04
-2.012211912919218814e-04
-2.266115209415230894e-04
-1.168732933072589100e-04
2.198534377320205768e-04
-1.825182737187958418e-04
3.328186469604068752e-04
1.604896429272800328e-05
-1.003071647916613148e-04
-6.944215937601912669e-07
-5.530732571615815075e-05
-5.246244197839264615e-05
-1.555494675684443277e-04
1.599897756932089409e-04
1.174227804783299427e-04
-2.864596100940125577e-04
2.733197994631982280e-04
-2.277999554795900525e-05
2.915225710131278997e-04
-1.238528362459557618e-04
-4.877043240164456641e-04
-1.420596118110734995e-04
-1.145904591489455178e-03
7.573600687374797916e-04
9.603919853204455695e-04
-1.833640094037592669e-05
-3.663756372549464044e-04
1.189750783564699939e-03
-7.937658873397321693e-04
8.879240218509146373e-04
-4.720801940812907453e-04
4.859946872864401714e-04
-5.916930121898321664e-04
9.004243816496466837e-05
-5.760361220242373251e-04
-9.872131406482843017e-05
3.615266444705970408e-04
3.036230100780717219e-04
1.402310489111625045e-03
-4.359312598439352387e-04
3.014206523826597726e-04
-1.514615098784317070e-03
-2.072223114229445771e-04
5.558381410367892487e-04
-1.308238647348854405e-04
-4.538053067812645861e-05
-5.823964368374628080e-05
-4.632420364810162271e-04
4.890857513781540289e-04
1.399427499395455724e-04
3.285117025412947513e-04
-1.179770221565785591e-03
-1.440353956545330693e-03
3.087199700477075213e-04
3.544691631001491063e-04
-2.060005316815481462e-04
-3.003471234345604407e-04
2.341708038088876647e-05
-1.634029872918917059e-04
1.068955264740520860e-03
6.846505957149747715e-05
-4.107051142960739944e-04
9.879942590965132810e-06
-6.178344979919684569e-04
-6.033061692618147016e-04
-1.762105716628082860e-04
4.966849058485318762e-04
9.875839952750819616e-04
2.782558515791802578e-04
-5.555150600534930179e-04
2.553150109495065916e-04
1.760033144445577067e-03
9.576774270183439561e-04
-3.690142476746019386e-04
-1.978779621554833002e-04
8.777842657220819218e-05
-2.099881335459302374e-04
-1.427043095564860839e-04
-1.844851446721877154e-04
1.506356506085032262e-04
1.858812375000971353e-04
3.519513303128509428e-04
-1.138852253965882462e-04
-4.439400284806408956e-04
4.242755627692923210e-04
1.302225677183784045e-03
2.179543069641302693e-04
2.270194985522572197e-04
-3.322451049990494411e-04
2.080985029505870334e-04
