# autogen test
# 
# LAMMPS SNAP coefficients for W

1 1596
W 0.5 1
-5.306028832573443488e+00
2.552276526364168421e-02
2.221773929509783876e-02
5.192602441796839718e-02
-1.530448330354686366e-02
2.782417479766280399e-01
6.576085347069601794e-02
3.733262118167553212e-04
-6.423165911067531958e-03
1.271055491929224124e-01
1.002837905206646757e-01
5.176864151945395620e-02
9.896253805614746435e-02
2.610924367283167565e-03
-2.042636783451703963e-02
2.982789941116738980e-02
-6.881254066477790129e-03
6.779128466077533055e-02
8.997125720887901024e-02
9.485413139969102111e-03
3.624222521085870841e-02
9.527601764430270511e-04
9.942758658923186305e-03
-1.757722565230964437e-03
6.762772370575187431e-02
1.077657998726583022e-01
7.033082585008121335e-02
6.132981223134591209e-02
-2.769369346826831835e-02
3.607296944472625222e-02
5.049537832572505852e-02
6.770603896652974997e-03
-1.029531454450589162e-02
-2.050082318810196938e-02
2.391574489896624786e-02
1.012172452021617153e-01
2.924317848409736624e-03
1.145483663573616112e-02
5.581087929461981539e-02
6.666230198673482599e-03
3.038569835502280200e-02
2.075809057650109674e-02
1.256359992821918029e-02
4.311843875826870654e-04
7.411431667616703682e-03
4.048806817013979320e-02
-6.393048248680566724e-03
1.299576140055531178e-03
-1.659112111301608576e-04
-2.352369733009342448e-03
-2.523913332470225420e-03
-2.476149454054715781e-04
9.459908564709594569e-03
1.731735169310194902e-02
-5.631532204785083713e-03
7.701823443788254411e-03
-1.830787622668624622e-04
-8.759501805573351768e-06
1.319517216815062734e-04
8.416150459715551876e-05
2.881693620080038806e-04
1.000052133092992627e-04
-1.650219127936677227e-04
4.368022277500901865e-04
-2.391216602412693341e-04
-1.678022636145250289e-04
-2.592855853068301385e-05
-1.171506243937635284e-04
-1.953693811372210194e-04
-4.431027052572443557e-05
-2.995191770195930925e-04
-4.612195867567992521e-05
-1.898746933894197527e-04
-1.473217749422854259e-04
-3.366690275004651737e-04
1.137545613102619515e-04
2.131608489381464503e-04
8.473289853555786278e-05
2.048551963229836974e-05
2.266271664200214780e-04
3.189667248858212446e-04
3.667952604389698701e-04
-2.106328361115388220e-04
4.955584225602469939e-05
-1.585218461785018428e-04
-4.432240920547863574e-04
3.677624040072019945e-05
3.578427438977540317e-04
3.937452746189075350e-05
2.356950221703955775e-04
-8.530112206434872953e-05
3.467847266863939939e-04
-2.782882975501546163e-04
-2.130963091961008999e-04
-4.758894333187565243e-05
-2.085975317951931226e-04
4.720735749020531599e-06
8.161722968948939420e-05
1.130163328172780672e-04
-3.224560562210155959e-07
2.716879559568388647e-04
-2.834912448857435465e-04
-4.302789124179612291e-05
3.767092121642978773e-04
1.060413629025332431e-04
-7.366473576083279831e-05
1.687728451704983754e-05
-1.192472063851504843e-04
-7.231209626506595461e-05
-1.598326934471030135e-04
1.118157601214289610e-04
3.810965917613084509e-05
2.638876061949655449e-05
-6.176062751889340677e-04
4.114593256693085699e-05
-1.705992172454360613e-04
3.717411551422294302e-05
-2.421001956215464710e-04
3.261439582132600923e-05
-2.054794177271952575e-04
-2.044476056769482819e-04
1.311586786763498536e-04
3.623070946440580249e-04
-1.943346554167435015e-04
4.075406218474849273e-04
-7.302649053982515159e-05
2.565011538395507067e-04
1.533327412388087781e-04
-5.719833183094445326e-04
-4.202894165574538822e-05
2.551142086094407811e-04
-2.137211577827191503e-04
4.230151188746556715e-04
2.694355495263325308e-04
-3.906811979513298024e-05
7.553829472490670527e-05
-7.625965872627381553e-04
6.952132162604983596e-05
-3.954518184514282724e-04
5.850182985206926235e-04
1.553424833140957400e-04
-1.573036710259734423e-04
3.580207824436433691e-04
6.701857520782589445e-04
5.252913621965044468e-04
-3.520344215330719329e-06
1.067965612173062416e-04
1.115132410247514686e-04
-2.656496221176933700e-04
1.141088644341626098e-04
-4.689328541786723760e-04
-8.340081680994499292e-05
1.203151782624629939e-04
2.464676796540357932e-04
-5.053887339798284742e-04
2.926894877402594786e-04
-1.469716977109309405e-04
2.508103041957869062e-04
-5.001881591445532646e-04
3.816423912270765217e-04
-3.431834394491021590e-04
-3.403553276899682354e-04
-3.051818058564818772e-04
5.548927208866352972e-04
-3.486272583012649744e-05
-3.748105134095058214e-06
3.817935425877310877e-05
6.210324272526624549e-06
5.115725798825594312e-06
-6.240974374589904712e-05
-2.878936145623952800e-04
-4.317757565274279617e-05
8.363578964856023892e-05
2.579572109718367652e-05
-1.984669171212516910e-05
-2.430291373247532062e-04
2.084315388965734942e-04
1.565344801758588415e-05
-3.777835906399043742e-05
3.910576964488078513e-05
-1.958189480652868544e-05
1.108295490083347574e-04
1.091813822008411497e-04
-7.779791889623804513e-05
-1.332746820366830561e-04
4.690623321860875727e-04
8.520210825963739473e-05
-2.993540936032555521e-05
1.486030182926646345e-05
1.011387144991098675e-04
4.648421508242162406e-05
-7.703972650629082848e-05
-1.191136024622495721e-04
-1.786632056169643460e-05
-1.853611116021402789e-04
-8.769475805161589519e-05
-8.756346998850587883e-05
3.110580891592229079e-06
4.310141107888384342e-05
-2.009692938944166493e-04
3.178611695164029066e-05
-7.223714917480092960e-06
1.272458262323294942e-04
-6.600319667879809670e-05
8.999582096076763681e-06
-1.781529476475050887e-04
-1.488003032149648398e-04
1.499924293646768658e-04
-1.225641306665872787e-04
1.975858741747918052e-05
1.859161593615761272e-04
-1.335835880824524707e-04
-3.952977362622288779e-06
4.359161353503754441e-04
-1.373774893926030174e-04
-1.513274110354216378e-04
7.474976203523680423e-05
-1.990122480643605413e-04
4.477242388162520773e-04
3.139275609204642426e-04
-4.677528506746250780e-04
-1.400805907807238720e-05
-1.906358358822249073e-04
3.978715785171826175e-04
2.166465604999886317e-05
6.318629646053525325e-05
1.963264297746318478e-04
-3.716594253947712480e-05
-1.972283982338047408e-04
5.782455024824663522e-04
-4.918462784891231400e-04
-2.137147605558266719e-04
1.495803157788312666e-04
-2.661003340785341679e-04
2.637496709684024055e-05
2.766531103048806492e-04
-4.688338003439569495e-04
1.268683971650181913e-04
-3.329810964135796912e-04
2.897643532937929016e-04
-1.701768934006586741e-04
-1.666466559338664706e-04
-3.923348798015387933e-05
2.571580915404630420e-04
7.125620799120997500e-04
5.017779398922512851e-04
6.511696442452474809e-04
-3.991443126214219261e-05
5.999399579617285686e-04
4.164196887224570613e-04
6.737381133785184939e-04
2.231359421383978254e-04
-2.065134586258356793e-04
3.895144681000135828e-05
-3.190870223511283973e-04
2.423108968629476666e-05
7.808888850786459886e-04
2.165145799007225555e-04
7.668002954248386623e-04
-3.229749274287322964e-04
8.988133419338204932e-04
-1.068798063377350034e-04
9.104214917060350631e-04
1.112662655837962626e-04
4.339904584979960094e-04
-2.246598969374389177e-04
4.067828076935971812e-04
1.890600985685746848e-05
-9.594377414358071416e-05
1.222024864424461584e-04
9.910641368819506493e-05
3.259710168089960760e-04
-3.100534412234997607e-04
-7.281832893372412090e-04
6.537583783958892997e-05
-1.771081272363577742e-04
1.645323553200448742e-04
3.460641000338938057e-04
-5.611162438536442670e-04
-7.012262233869021543e-05
-3.310525165313168245e-04
1.609852578556154315e-04
-2.556714854556417895e-04
-3.864237235696374169e-04
2.568154414586791014e-04
3.893858136790311216e-04
-2.742364177781867417e-04
4.664596684193716243e-04
1.502434945350200493e-04
-3.871311000067719377e-05
2.227124984839275754e-04
5.824185511996342546e-05
-2.344480913938548888e-04
-7.401597620773818303e-05
-2.559196043179116442e-04
2.622903281840378723e-04
8.121347101337454005e-05
-1.734839091982901340e-04
-3.696045848657290834e-04
4.463075517190915497e-05
-3.875942509410403025e-04
-1.949353084119644542e-04
-9.261712895079697821e-05
2.184001447032746137e-04
8.207537822358690631e-05
-2.030388342781887180e-04
-5.190163768990649828e-05
5.229218394053253890e-04
1.470410508729477447e-04
-2.245954373037011516e-05
1.268630507623055273e-04
1.300068962379087318e-04
3.108496149401780207e-04
-2.840015299281772407e-05
7.765130723102026632e-05
-7.280732968329468467e-05
-1.462914144628986793e-04
2.068681477693065554e-04
9.898242038193375350e-05
-6.213384520948865173e-04
2.313757061139596206e-04
-5.629492878781957622e-05
-5.975437411906158759e-05
3.177234660237621762e-04
1.677374442109893051e-04
-3.533018029614432508e-04
-2.612478650837673035e-04
1.647760245303238130e-04
1.357860879539776554e-05
-2.798520517150200463e-04
2.376980208546113863e-04
1.053054968626631368e-04
9.144423249553020711e-05
-1.661182103227852475e-05
1.005923592142040924e-04
-9.980544721246478442e-05
-8.701730469876027920e-05
2.643565081406518987e-05
-5.680933189443961593e-04
2.643736241810849493e-04
1.448207296136167827e-05
-6.188623920735380492e-05
-5.938085412492567755e-05
-2.260184016452536262e-04
1.677938212127968586e-04
4.687896815636814562e-05
9.573368309802222518e-05
3.858437390970769691e-04
-1.507146990470151866e-04
1.994239138585127396e-04
-9.256594553132330074e-05
-2.555350701778274559e-04
1.276194481906795962e-04
-1.546733724386509658e-05
1.061808137071550313e-04
-3.839998627015508157e-04
-3.518922737469747661e-04
1.741683542034301395e-04
-3.332495211107537039e-04
4.184000910335636952e-04
-3.838728711218096425e-05
-7.767154857452147009e-05
-4.278088847308558046e-04
2.923823473534434533e-05
4.249463600790722519e-05
9.057948011090284472e-05
6.087572736522968127e-04
-4.110385771444141460e-04
3.819956185548929658e-05
4.901282741594361952e-04
1.806400721941251407e-04
6.386042811476733930e-05
-3.908205962601302478e-04
-3.266316113068733098e-04
4.496261439397601298e-04
8.883758642740320936e-05
-3.749500072700203399e-04
1.335702983595611818e-05
1.061231594003107272e-03
1.857583400136563693e-04
-1.188881676718070527e-04
2.673353723059476283e-04
2.938639491713198313e-04
-2.992398612276523165e-04
-1.528978146317280649e-05
2.204599987900895865e-04
-2.090807073961218471e-04
5.832824040069142573e-04
-1.790167796917815110e-04
-5.963245146873627755e-05
3.781488412674289073e-06
-7.717466759901634159e-05
1.465597467297520247e-04
-2.477730527201315518e-04
-2.602865698161311637e-04
4.275793284070358662e-04
-4.288305168663525326e-05
-6.374578954816302189e-05
-4.462685731136551022e-04
2.974937767967855522e-04
-8.345071952237249197e-05
8.925992110697057095e-05
2.916775120401253669e-04
-3.063354334276067938e-05
4.211830037829392354e-04
-6.176499615106420017e-04
-3.884303829183507746e-04
2.512134829021086765e-04
-1.931897937964884709e-04
-3.535071902049142937e-04
-7.052750339524649706e-04
5.533836387045135239e-05
-6.097481584523804657e-04
-1.277676209468915733e-04
1.515401338207569956e-04
-2.254498190959000094e-04
-8.505664548348390369e-05
-5.564944151026309134e-04
1.581369059836251897e-04
-5.249540806489520371e-04
-2.907871076746785057e-04
-1.773673301569546161e-04
2.983684292823111147e-04
-3.685089497362946300e-04
2.960348604100148610e-04
1.032990971167262564e-04
4.008610979343398060e-04
-2.537827606863860366e-04
3.720175713615203107e-04
5.344986239965826672e-05
-2.348130493540911159e-05
3.031497833273333982e-04
-1.167441519368549353e-04
-1.784777760385744040e-04
-8.772847859596136200e-05
-1.913644606408749919e-04
-3.232367436088361481e-04
6.171181114291176108e-04
1.013727948523732695e-04
-3.811267651600507944e-04
5.955248103490908343e-04
-2.342953450917158425e-04
3.330928084554014216e-04
-1.585064181914346842e-05
-3.022532956665435972e-04
-4.967225564409513726e-04
-2.592397825266611749e-04
-3.252260836528298544e-04
-1.717017477479997642e-04
1.505885705169004616e-04
3.140257686922383372e-04
3.069278742503026014e-04
-5.084890300582136795e-05
8.885133832612040865e-05
2.747718741981055495e-04
-2.085560873988245194e-04
5.041603463696584572e-04
-5.906583582084461766e-04
2.457743703908004773e-05
1.889712532927518077e-04
-4.281668509697970763e-04
-3.419245940468399321e-05
-2.750832280091625713e-04
2.797927808427993893e-06
-5.143777339666683653e-04
-4.274523193016863142e-04
1.549339708999474501e-05
-1.025383910352566921e-04
-8.884836896721948934e-05
-9.173157572797152896e-05
1.489508335747106017e-04
6.094638019955343029e-04
4.780150241281070744e-05
-1.936381619588797300e-04
-2.855083132001196120e-04
2.095383687739700725e-04
-8.524577795346841046e-05
-2.690592434112062709e-04
1.837294071407897665e-04
8.795936182986537511e-05
1.384845574321907360e-04
5.294650789073261486e-05
-4.027845872925564898e-04
-3.188927656018010677e-04
1.530295038333077853e-04
-3.161583671249000105e-04
2.243186733474228524e-05
-3.106729849937783913e-04
-4.221341953424372745e-04
4.641910868024097980e-04
-1.956306884943781498e-04
-4.323101492054896378e-04
-6.978117741825048238e-06
1.880544864394557720e-04
-2.999498339477200547e-04
1.179807061193178958e-05
-3.055047139871466485e-04
1.603888786762078266e-04
1.119097281043276591e-04
-5.285912106817829137e-04
-3.019876071930461755e-05
6.528463089114379912e-04
-5.800673772180057883e-05
-2.067297920065448800e-04
-4.388184208472751863e-05
4.492635266438400670e-04
-2.717874550831408473e-05
-2.209129690052671685e-04
2.645878358819298546e-04
1.653898213918400951e-04
2.095336059883918731e-04
-9.265292252623542261e-05
1.120395797623478871e-04
-3.653781178592980833e-04
7.901062772676917170e-04
-4.046129765436518998e-05
1.047225244258350244e-04
-3.914742091846126109e-04
1.538694624661003272e-04
4.998144886582738206e-05
2.671449132647655449e-04
-4.191960154032871419e-04
3.222689646853916937e-04
4.400879995598924602e-04
-1.984884995605881285e-04
2.724768522846430726e-05
-1.024559760854014775e-04
-6.303079693734627204e-05
-5.789278969068709660e-05
6.531824468248931747e-05
-1.699888061875119976e-04
6.137478012270037881e-05
-3.344579001341312942e-05
3.258232307355737011e-04
2.883610563524565545e-04
-3.840765872265218170e-04
8.189952733144838801e-05
-3.040710524391807609e-04
1.187667488022091161e-04
-8.451512047210165465e-05
4.970320766652562908e-04
5.293553351385390073e-04
4.528670694157993477e-05
-2.404637691663429814e-04
1.099766888043091279e-04
4.168351555407837875e-05
5.009355323026897200e-05
-4.483648827401814398e-04
-2.327855223469448877e-04
8.647650006027340883e-06
3.351942898669469360e-04
2.305351913502791286e-04
2.898946060345262868e-04
5.880589088806945823e-04
-5.476888775579789127e-05
2.474885512777179461e-04
1.583818238387816181e-04
1.476564389157567099e-04
4.045059154054634980e-04
-1.872862278112392151e-04
2.859318278313816345e-04
-9.801382554402925345e-05
-2.937612024992034086e-04
-8.303688418648873747e-05
-4.243696289987166259e-04
3.055313078243265747e-04
-4.087039834996375313e-05
-6.080247440232663822e-05
4.422598997608869127e-04
-3.435626397037906459e-04
-3.411497032803667323e-04
5.072679127368958502e-05
-2.391159348679791218e-04
2.415496770015523669e-04
1.001516860641004519e-04
1.582341739422006663e-04
3.060263590131825050e-04
2.143474461875464229e-04
2.521621442693758468e-05
1.803900368628131754e-04
1.158710195221892400e-05
1.425610982043103039e-04
4.404597042364516847e-04
1.477713300260317497e-04
5.203078761794116821e-06
1.702616610048303543e-04
2.581593065625760544e-06
2.680423251225452796e-04
1.054079590437083424e-04
-3.062636756234925141e-04
3.907039526306125128e-05
2.061526529373295302e-04
4.628635412982935043e-04
-3.608327818221028569e-05
4.864658605222220542e-04
-7.121246924874869908e-05
-5.978154091327956979e-04
1.801552269475448283e-05
2.413075212731153154e-04
4.239261376393063446e-04
2.079622859915205440e-04
4.232221813683570270e-04
-2.349289827711871547e-04
-1.473065081422963768e-04
5.445637089418114756e-04
4.614293366729460490e-04
4.452538715946916035e-04
-5.835398739598022036e-05
-5.000847831941726334e-04
1.310222499029428965e-05
8.987477333548589962e-05
-2.512613655847152432e-04
-8.593675368100618835e-04
1.246632290071072590e-04
-4.607832905326706579e-04
9.383256241754944381e-04
-1.170974481066907854e-04
3.319263554284364315e-04
4.601674060648874176e-05
4.955349017702142086e-05
-4.612431339811265559e-04
3.466351590273131862e-05
-3.064119633855355487e-04
4.973548624755240325e-04
8.634241870209505981e-04
-6.124179964620801416e-04
4.218321525688540036e-04
2.733053086585837178e-04
7.962409240005148070e-04
-3.371746973362362617e-04
6.831062020530337571e-04
-3.895001289236273427e-04
-5.611948369332226978e-04
-5.573061968953316701e-04
-4.804708538874489609e-04
5.099833363822855103e-04
-1.413100161223097172e-06
-1.119922531610805536e-04
6.642142418311411519e-04
4.317836496733480194e-05
5.648791187725825998e-04
-6.299184784938066791e-04
1.149379743602356192e-03
3.166874341658637549e-04
7.439877500715799240e-05
-1.905399051909148587e-04
3.662354583058903285e-04
-2.582153884337104490e-05
1.412175312391914851e-04
1.296533028603842489e-03
1.581415237368001742e-04
-9.375852743437391892e-05
-1.022290883823075895e-04
-1.773652927099900423e-05
5.983899831260943748e-04
1.496043489582182914e-04
-3.036792846083018822e-04
2.808421874096511174e-04
-1.728534000606019624e-04
-8.173969490558631861e-05
9.353800744668798526e-05
2.544523503674949003e-04
-1.539683216106209340e-04
2.694959179177035513e-05
-4.391187625795108830e-04
3.008334887752935928e-04
2.855191480497957590e-04
8.425134104896217339e-05
-2.460886200468118877e-05
2.326247032280745551e-04
2.269090193610668867e-04
9.324208081847695757e-06
1.259897115906172846e-04
3.239388742148325922e-04
-5.112356877801490975e-04
3.165452368570192943e-04
2.610232896664353534e-04
-1.737240500454315226e-04
-1.565722305417046548e-04
1.198626732321229481e-04
3.248437410534424667e-04
5.897330542103159778e-04
2.896723346807371043e-04
4.737594164916150968e-04
3.246729678906288890e-04
2.806342589997594481e-04
-5.955042186190085936e-04
9.109212970837948222e-05
-1.486229081953408730e-04
2.909477870164958692e-04
2.813991241733340438e-04
-7.074509194896368668e-04
-3.073099847126177292e-04
3.790884887343116201e-04
-2.895763097003985122e-04
2.662625344624420967e-04
1.033548561985207521e-03
-1.210747968697756775e-04
-1.435336890906439985e-04
-8.634476044764219219e-05
1.094546318504231107e-04
-7.659858583364086279e-05
-9.741202778580728040e-06
5.341657402193241691e-04
-5.139730125032735157e-04
-1.212214710485787206e-04
-6.610630377430735689e-04
2.537738334290662637e-04
-2.033494728218432295e-05
-5.284426010635134754e-04
-2.846973846961037909e-04
-1.289109952732598956e-04
-5.021255094571754827e-05
-3.705492469019809219e-04
4.804054496723034542e-04
4.148593877947374096e-04
-3.073750974401951580e-04
-2.583725608925150632e-05
-2.531282503705004614e-04
-8.547561102370116305e-05
-2.586806257835516697e-04
-1.945091837124718207e-04
-1.075411826189486556e-04
1.196394772602565540e-04
4.915655431401649107e-04
-6.431732640240970289e-06
5.754956868658449949e-04
7.103202164513683467e-05
2.991714208102366854e-04
6.360745361606116584e-05
1.064719944108358924e-04
3.205987140583862002e-05
-4.356100057585103255e-04
-1.092354436465998242e-04
-2.181712326297967960e-04
-2.317772241368020413e-04
9.753224667384877405e-05
-7.522811471707095817e-05
1.612219035814617895e-04
-2.054217884052404633e-04
-1.721562802800374024e-04
-2.938410911743816645e-04
2.309520777465085386e-04
-1.125876848394399939e-05
-4.097440184196126495e-04
-1.573836609676729559e-05
2.509358175651110788e-04
-1.150429105447955692e-04
2.377909987145851109e-04
-3.683815245667029369e-04
-3.220784653852875462e-04
-2.931641326492207098e-04
-2.930869356770559827e-04
-6.571738583664142608e-05
-1.163114357376828927e-04
4.523787132372767458e-05
1.347989997441419294e-04
-2.393122734207568084e-04
7.783029338847507030e-04
-1.188657081126362030e-04
8.031365079596948444e-05
3.107458954827129995e-05
1.864632257879847920e-04
3.688101525547782863e-04
-3.842407689806806126e-04
1.055300421318409451e-04
2.149666690862041878e-05
-5.806687100215464039e-05
-1.904797295637624744e-04
4.411008783592888826e-05
1.777322167885550422e-04
2.910002620213693087e-04
5.374236603232306455e-04
-1.775169736932761665e-04
-2.641501531522826279e-04
-2.752699614734118155e-04
7.269728719367812592e-05
-2.211597828622049544e-04
-5.585649903648955616e-05
-1.217574078557852709e-04
2.675686332309165248e-04
8.125142666753439101e-05
-5.390467456593664891e-05
-1.936369810200929946e-05
2.205446554158310452e-04
1.116479160052237225e-04
7.390244628168943100e-05
-2.191936965092659124e-04
-2.777476614192272923e-05
-1.953919244976033362e-04
5.338561225376280269e-04
1.053174383545725653e-04
-3.414087503314930860e-04
-2.028516246405300010e-05
2.234154696562161001e-04
-3.828007101472261607e-04
-5.585517466193380904e-04
5.771009100140645789e-05
-6.568992725270371110e-05
3.210721709072468966e-04
1.615225722381018365e-04
5.503074008937409349e-04
-7.215718844542759382e-04
-3.303897631112352376e-05
-3.004325340059536592e-04
-4.609948425014166788e-05
-1.645977401348266395e-05
-4.722026947632477632e-04
1.031046547923604059e-05
-5.788122145367541934e-04
-3.813248535083172959e-04
-9.044053711880233097e-06
2.401688885721850106e-04
-1.762760973753867838e-04
9.374598692395390146e-05
-5.597389432058269727e-04
4.860816332548373178e-05
-1.098513685906342673e-04
1.198493639647079518e-04
6.087882379711634720e-04
-5.997650605674707857e-04
-4.441627201817219776e-05
-3.869147908587665526e-05
2.079802318195970990e-04
-4.555780589641761466e-04
1.360193027131005442e-04
-3.560784298450258537e-04
1.355839462545647447e-05
-6.250352679394559092e-04
4.297503743295241616e-05
-1.641621421912308810e-04
-6.819891508588268739e-04
-2.211747210209504444e-04
-3.910346824219156992e-04
6.342443443913359322e-04
-1.396317207855787433e-04
9.323222188501491259e-04
1.290736765267480363e-04
1.120569940518167034e-04
7.153926078361636963e-04
3.639094076796896911e-04
-6.066171953418764053e-04
-3.956811226941570617e-05
-6.429345502637867464e-04
-3.422437269211535838e-05
-1.065183544624160016e-04
2.555509906138668736e-04
-2.373364058658464302e-04
-5.375345821791142637e-04
-2.549488815431382501e-04
1.148246109149289254e-04
1.091756213859841146e-04
-1.903117283620517439e-04
4.122468883197314771e-04
-6.759420657405636147e-04
-6.574778878194796703e-05
5.973496131428165105e-05
-2.696645026988814080e-04
6.524592022447931600e-05
2.384419625766531943e-04
1.747956344900895062e-04
-2.424990086400966239e-05
9.806927519212124634e-05
1.095195321621511439e-04
3.856485192486556199e-04
5.640559477486546680e-04
3.038260786073597041e-04
-7.338796631750074207e-04
7.068467648856489741e-04
5.229948643657961020e-04
-2.173472440963433489e-06
-3.740924722378449882e-04
-2.197555626496507195e-05
3.946794577607356147e-04
9.366182910928978566e-06
-4.117838318642188774e-04
-1.469620645774785575e-04
-1.941369485779606454e-04
-2.744425042269317593e-04
-1.146273427092613318e-04
-8.379958657774402072e-06
-2.733183309118965049e-04
-9.886379290521081411e-05
1.569448163916549422e-04
-6.105300634536036698e-05
-2.877968103198956496e-04
9.234134703033328347e-04
-2.904199295641672705e-04
2.177893337306978600e-04
3.977839393333826930e-04
-8.889385711561541162e-05
-6.398397245701990983e-04
1.109352761254383396e-03
1.717630595653585272e-05
5.358871200643307655e-05
-3.362570954286356046e-04
2.643831154085487449e-04
3.140208324621705186e-04
-9.570340270190178813e-05
8.846469073069281223e-06
-2.928970325899656903e-04
-2.768408576045634133e-04
1.511072688787339362e-04
-7.751785666351932585e-04
6.106958251504256011e-04
-4.266785493209925256e-05
-5.716275780692327887e-04
4.458992104487946562e-04
1.227112825729212637e-04
-1.129689358566764420e-05
2.348074105727274852e-05
-1.736178744247220715e-04
-1.179701921818293397e-04
5.248159756341864995e-05
5.102406692193701531e-04
-3.724761424203697712e-04
-7.763050053836807805e-05
9.758322053921960801e-05
-1.136013488506944783e-04
-2.266097409311378531e-04
7.085797569255362265e-04
1.130749641002940870e-04
-2.848921501500283995e-05
-1.018796875282589227e-03
-1.208743495184356868e-04
-1.506823635727985950e-04
-4.097005609337682768e-04
-5.456234851553237557e-04
1.036872975452615128e-04
-3.698637279442796221e-04
-4.143542523329693766e-04
-7.645496586214776697e-04
1.130784761481927095e-04
2.468909074132171464e-04
3.803608054770468884e-05
-3.397918003479364030e-04
7.318920295997245729e-05
-2.421691141943271494e-04
2.671207425425041319e-04
8.955669394818988353e-04
-6.274270046060034670e-04
7.609909945524126105e-05
1.161725813880222502e-03
2.016031781800187682e-04
-2.360086206095459934e-04
6.219261010966609582e-04
1.419119430855326450e-04
-2.411124720140564806e-04
6.647867431166654259e-04
5.395567125063957439e-04
-7.033642414200877207e-05
-4.605658032890410985e-04
-4.549072846599306473e-06
2.543314271640471235e-05
2.451674554168904166e-04
-7.991539863433087701e-05
-9.069897583203651872e-05
3.227003613745530678e-05
-2.105731580943035291e-05
5.104156410434324866e-04
7.490444068271834115e-04
-3.813296280425548324e-04
5.358977247310753051e-04
8.030978049201656344e-05
7.029913812131556930e-04
9.891032717214007436e-05
2.550723212330039693e-04
-6.277936862068924945e-04
8.675568226836131948e-05
-4.934434080680382209e-04
5.175034554227527818e-04
8.803957360044179100e-05
-2.025851065895388438e-04
-4.769026354171143471e-04
4.887395646113937959e-05
7.746288805056340864e-04
1.423407519700803023e-04
-3.104691945610308181e-04
1.393202969699457465e-04
4.090153672560546010e-04
-5.072966311860809029e-04
4.295555580681236982e-04
-6.011693098947538776e-04
-3.656925331628970593e-05
2.956968520332414014e-04
-3.710173954497660476e-05
2.761244038414216624e-04
1.758326868794140576e-04
-1.525950245513734923e-04
5.298955286249936673e-04
-6.508163010651696724e-04
1.146185912350510981e-03
-2.663506617298262041e-04
5.504096987291344154e-04
-6.632357128406409007e-05
-1.492098904251219012e-04
-3.426818089897253148e-04
5.895226844460701513e-06
4.703483236232595282e-04
-7.335420986137833766e-04
6.079546308262553413e-04
7.904728521668920543e-05
7.340944593246935101e-05
-2.751415672993847827e-04
8.478945669588867093e-05
4.288148307621938646e-04
-3.475997443386698868e-04
4.523546525519180723e-04
-1.858169727313588651e-04
-1.061123439099030327e-03
3.229099113777541023e-04
-6.329560288276375453e-05
-2.727004192258486578e-04
-3.909883055355659683e-04
8.490591398313417266e-05
-8.045769702612183636e-04
8.704732348704793737e-04
-3.347455368585796264e-04
5.763425802028398527e-04
6.713574100455700112e-04
1.670214967742208794e-04
-3.108677603372503990e-05
-1.002481747032483073e-04
3.740804981983840731e-04
-4.629553100484228912e-04
-4.554482926230835949e-04
5.146514062699073400e-04
-8.101966129263874937e-04
4.814412683191649964e-04
-8.393017587559703594e-04
2.563049042353754371e-04
-2.817870301646988409e-04
-1.241550810546138736e-05
1.877842859196580971e-04
-7.224245813178323521e-04
-1.433872748896278802e-04
3.564335968930863567e-04
-3.342554855347426644e-04
-5.095024849896121659e-04
5.886065738213943537e-04
-9.935397288275446917e-05
3.134026775422040422e-04
-1.380511116188730088e-04
-2.499510986601239542e-04
1.571359904802102799e-04
7.844284964584566930e-05
2.279467839725412659e-04
2.758604064269159443e-05
-1.254264161727170173e-04
-1.599090709425806300e-04
1.945327075526118513e-04
6.647158164919623601e-05
-1.123409809450498780e-04
-1.828541177703395498e-04
-1.729155170107467352e-04
-2.683385729354084646e-05
3.412703007198331670e-04
-2.134062922207589257e-04
9.553894703376088633e-06
-2.569233021246267418e-04
-1.842375568518102053e-04
-2.189231240134361755e-04
8.782698916045856164e-05
8.415239561661457175e-05
7.825331019710121162e-05
-2.110839215818674172e-04
-2.281839974999094072e-04
-1.889541506170972792e-05
-2.160974343004289201e-07
2.941056490026057978e-04
-1.743159623593408686e-06
-9.112285684932029629e-04
4.712691032870539487e-04
-1.080971004572926471e-03
2.567292279140106297e-05
2.628362980298329789e-04
-1.044979667258585975e-03
-5.193397680740420401e-04
-6.125474037148846175e-04
-1.016918139392502576e-05
-5.429218970494548201e-04
4.130121601678711897e-04
5.751652733823838827e-04
3.996695595463314811e-04
6.500563174369308923e-04
1.183101794361089264e-04
-1.664895411307985341e-04
8.947831276786415188e-05
-4.787754267174525202e-04
-4.134442782551918990e-04
-5.338376808438100328e-05
-5.381927417530869579e-04
-7.437536886020693462e-04
-5.704335174518532486e-04
-4.701542881977269391e-04
1.302515172055195795e-04
-1.166354096162384676e-04
-3.003326099709727084e-04
-1.457964305332613971e-04
-9.024479098378646773e-04
1.950302132188751946e-05
-9.905402543410279882e-05
3.000855876512134547e-04
-3.174927181698532599e-05
6.179462480326932024e-04
-2.586843500944055178e-05
-1.937108251622420159e-04
6.403506132810326537e-04
-5.042696065146221556e-05
1.942190585084688811e-04
-2.181419873507472063e-04
1.025671143163341383e-05
-5.819687824724535663e-04
-2.976448589082364296e-04
-4.658017261398563684e-04
-3.861714092633254181e-04
1.633338268942363138e-04
3.614860629247286343e-04
-2.734677512143627990e-04
-2.518698694078449216e-04
2.152373747459327845e-05
3.586623772821537497e-04
-1.849164156998860564e-04
4.013743100888462795e-04
1.928619542896821544e-06
4.644970314534092350e-04
-2.353599714060332024e-04
4.680264645981327599e-05
2.069079973467808080e-04
5.237725029707042965e-04
2.510256055272665692e-06
1.009427004226171601e-04
-5.451202109767130813e-05
2.920747118430125637e-04
3.920638585516787560e-04
-5.183817737167702817e-04
-3.490787949445811437e-04
6.959767745103170519e-04
-1.969096609101416589e-04
-2.036417072003245436e-04
-4.125641653463620658e-04
-4.414204647327254864e-04
-2.413994477354114063e-04
7.278241398962544009e-05
-2.984911881204425216e-04
-2.996916825754995816e-04
3.664772726045638222e-05
-4.361871563228883800e-04
-3.089316529835085465e-04
-7.529289386971575867e-04
7.387295424053595943e-04
-4.834642620440019129e-04
-1.287496876761295788e-04
2.878204197405667859e-04
8.338165714734763157e-04
-5.177693434013819109e-05
2.486603109487522554e-04
8.714991811615314672e-05
1.167542154775893175e-04
-2.888880204394874535e-04
9.654758583705399383e-06
5.381531354823962257e-04
-1.906495099355871208e-04
-2.618353584501009030e-04
6.338130141249290889e-04
4.681614505178932606e-04
-5.400767092430936280e-04
3.597375389990487373e-04
1.081854606213390128e-04
-8.741552713036308418e-05
1.117199551578973882e-04
-1.851261922351465320e-04
-4.263851288665995113e-04
-1.449228340856323042e-05
-1.945750639230576292e-04
5.482054076602399430e-04
-1.403004226096731628e-04
4.146196575403180611e-04
6.129530013017789542e-04
-3.329619138766143024e-04
-6.387185683899150829e-05
2.454621458750767230e-04
-6.771927174253974545e-05
-2.934775047275580838e-04
-3.073528375602558997e-04
-1.722432101050393345e-04
-3.368502690002111869e-04
1.866057620604578889e-05
-3.410728917005341883e-05
6.370782085368247591e-04
5.544131901444990154e-04
6.241971354163501715e-04
-2.724693235992903858e-04
8.236389089770674611e-05
4.254384617677088565e-04
-2.223436616070316744e-04
-4.763747160952944474e-04
-3.051313915441290314e-04
-5.241676751613031380e-04
7.702142148680861822e-04
1.374596252528575724e-05
1.128733484486020593e-04
3.357503297954679013e-04
-1.632614740762210366e-04
-5.802748544845151351e-04
-2.207331773946781593e-04
-1.080005173278759814e-03
3.999602397507744491e-04
-6.776992889687135724e-04
4.636386702989602664e-04
-1.868413783703369699e-04
5.272723892050682013e-04
-2.525734110603577044e-05
-1.992679342386087440e-04
1.730986093219336768e-04
4.011642644641592002e-04
6.238525131459313894e-04
-8.384582274806308367e-04
-7.116998767761369268e-04
1.807925698621226131e-03
9.345247302817705475e-04
-5.674011048197287813e-04
-3.032497655323196741e-04
2.250322846752226679e-04
-6.030281902632831156e-05
-9.430970750987186391e-05
5.864328786513222855e-04
-1.172956059440440941e-04
7.340498402998129864e-04
1.043155890533756095e-05
2.782236622035829526e-04
-2.953398675880586723e-05
3.319472914993395031e-04
-1.075696327183360844e-04
-9.949879621666422782e-04
1.495987764944618824e-04
1.250063815620261855e-04
-4.729306624563258386e-04
9.113558364778144550e-05
-1.067373949422400874e-03
2.776047238878815294e-05
-4.299865177743055129e-04
2.254499134252582716e-04
1.580824793975467066e-04
1.087291053755843088e-03
1.610898833832847101e-04
-1.321850155345679527e-03
6.499852936817796922e-04
5.131031333338565391e-04
1.253575462239752379e-03
-7.664033804447868128e-04
3.584874353009016596e-04
-1.629959711637257421e-03
4.677255691747798970e-04
3.151751473636005469e-04
-4.757183493708703158e-04
7.599714252982719877e-04
3.726704529810093863e-04
6.231273080231720853e-04
1.071511431929164047e-04
1.213175786698498756e-04
4.392946069174618294e-04
-7.111748213816938531e-04
1.073793733082779563e-03
-1.821950205605453801e-03
4.133943077377928558e-04
-2.781257181677841911e-04
1.334345839648013463e-03
1.361226854613054960e-04
-3.023000827033506537e-04
6.623993091116420293e-04
2.936414948071493312e-04
5.346224719506633425e-04
-1.765098896996837585e-04
-3.021043863219805155e-04
-1.181163830402345594e-04
-2.813772303047570086e-04
-2.377178314312759604e-04
3.223865696998053695e-04
-4.927369021411344939e-04
1.157822749636461414e-04
-5.103272284476438668e-05
5.671259160521617809e-04
2.321524340064958446e-06
-6.479538986584815544e-04
9.305960049604901406e-04
-8.760002594868915434e-04
-8.575030053787857068e-05
-3.161600093022275625e-04
1.052486004621929188e-03
1.312598683279807515e-04
1.569268770655211161e-04
-2.068202552360700198e-04
2.416341926458283372e-04
-5.745812901196348384e-05
-5.831551363176916414e-04
-9.361918657918232804e-04
-2.488539356298077312e-04
-4.493166080270544920e-04
-3.473025497417224299e-04
1.905549644924269364e-05
3.226071029440707311e-04
5.236753349259447559e-04
1.350291617098192632e-03
2.200053795877208529e-04
2.569823565330385529e-04
4.605932662618980003e-05
-5.751326970772254864e-06
6.937615363015318167e-04
-1.144538428502349961e-04
2.347123811536532478e-04
5.652124981338024854e-04
-2.063635804073978729e-05
-5.076100789578652300e-04
-1.250698694967820337e-04
-3.463522662675193927e-04
-7.023387831373038631e-04
-1.274570434685278863e-04
-5.767584051428946250e-04
2.506913664709021160e-04
4.634945116983030917e-06
1.055444255710123811e-04
-7.877688651297643733e-05
-1.182315184765475569e-04
6.102001912731597107e-05
3.543918640701880290e-04
8.627049090956371744e-05
6.573581421118082461e-05
-3.238794538196144903e-05
1.632674437430202549e-04
-1.255101869466132016e-05
-2.594294662882962632e-04
-3.724680508046067091e-04
5.710215812076963439e-04
-2.059612205614544378e-04
-2.356070326035443582e-04
-3.479188954934446542e-04
2.255107603575373502e-04
-7.355715367781541470e-05
6.708541585612404429e-05
1.203771003179283109e-04
9.730386493756483502e-05
-5.168671493248927387e-05
5.857010190066333933e-04
-3.204676251167089458e-04
4.864749805944918143e-04
-8.070175766671748834e-04
1.998497010233239073e-04
2.820844474621406824e-04
-6.617128214131370086e-04
3.405787406606637863e-04
1.432433775059288171e-05
-1.220824667473202922e-04
3.309347284097548356e-04
2.562648647022041249e-04
7.834772700752499043e-04
-1.658734954079300135e-04
6.247550463333864049e-04
-2.788327300690326971e-04
5.632325477252063265e-04
-1.917896159140865676e-04
-3.440227483873533167e-04
4.273131503199207156e-07
-5.997523916442638403e-04
3.627934995583770674e-04
4.167602078613818757e-04
5.490800971261096397e-04
-1.276532290969679647e-04
6.111677910132689087e-04
-3.557266877112834846e-04
-3.725915725655004076e-04
-6.811241249520363136e-04
6.355369235446856275e-04
9.601371153407554601e-05
3.541569207734059825e-05
-1.482849464665864385e-04
1.152075016868704422e-04
6.181531894013073299e-04
2.291556928910666634e-04
-9.132640965658216125e-05
-2.963390883596955469e-04
-5.464279479259994185e-05
-9.004862721459757353e-06
1.258789169326932696e-04
-5.495334943206338493e-04
1.939274732628616139e-05
5.471459579623321476e-04
-3.891880148701114370e-04
3.739668757969847831e-04
2.512692981584110832e-04
1.660103322980602345e-04
-4.598872298070436982e-04
3.766790906006111501e-04
-2.622753329920387471e-04
4.158420491153086429e-04
-2.607109279133301466e-04
9.249207762205766126e-04
4.304376586614023690e-04
5.223984798441274127e-04
-2.999853294117634460e-04
5.944984882616599978e-04
-3.404297054717840749e-04
2.435482157391419034e-05
-1.432610353270449420e-04
-3.746895352998661638e-04
3.160619764198824701e-04
1.786694726879795578e-05
-1.539439245128804493e-04
3.607729957417894588e-04
5.746984009902078409e-04
3.542984783672702902e-04
-2.253164744000983697e-04
1.809428692252596578e-04
-6.961711384380601551e-04
1.049734285253359862e-03
-1.049383335045306256e-03
4.234288265408133844e-04
-5.464941419359603157e-05
5.056051424699655210e-04
-7.144714193710336109e-04
2.186961377410242017e-04
-4.475873016896796629e-05
2.011684066420862645e-04
2.287597369011923386e-04
1.077152131910161589e-04
-5.890165352034965789e-04
-4.680549226264998051e-04
-2.787855713328730284e-04
9.031254154491199409e-05
-6.303748368536537085e-04
2.035420677509052249e-04
2.890379662258076065e-04
-1.539293916465982051e-04
-1.248386189970568340e-03
-3.108748486209772467e-04
-1.529509176925779659e-04
-1.546730160200033861e-04
-1.606675881953642125e-04
5.571293283492112898e-05
1.627758304388901111e-04
1.787669985635624472e-04
5.511655566370821839e-04
4.375424948932560613e-04
3.040462394536786150e-05
-1.245672785238949353e-04
-4.002142605134285653e-04
2.463746936408822501e-04
-1.332000017704983922e-04
-7.709970956533048750e-04
6.795415399137690526e-04
-6.435615275295129790e-04
-1.141632521453715151e-04
-3.311085588239208281e-04
2.755857450079970375e-04
-1.414024916640391248e-04
-3.909965053005022410e-05
3.440338937408742134e-04
4.055529798379072588e-05
1.850711519068491098e-04
-2.114190576902360956e-04
-2.641216500405682219e-04
-1.972188008839293057e-04
-2.554704265198824538e-05
5.841788159744719806e-05
-4.679787058378803558e-04
5.499710134403380454e-04
2.332779311781050244e-04
-5.337083846925781737e-04
-1.173265554927653196e-04
2.700197305055002518e-04
-3.172479765006524675e-04
7.225355862813038121e-05
1.983814549113612901e-04
3.294649105118875273e-04
4.351850627846833106e-04
-2.550306631835370062e-04
1.447249645749402037e-04
-5.762587581946845101e-04
9.945164502262383475e-05
-1.093513733632704751e-06
3.843638091806717743e-04
-5.756678428342832440e-04
3.262727761811373033e-05
-2.220040199347303911e-04
-3.341605054528646343e-04
-3.531434484637739732e-04
2.047963062066302377e-04
1.175319493802615091e-04
1.885474421865950478e-04
2.117465760960888176e-04
3.066507728122828632e-04
-1.977107625910187098e-04
-1.344208650109438995e-04
5.162305071545427360e-05
3.090481352826076255e-04
8.329293606593395451e-05
-1.787546529522335585e-04
4.350684428797359660e-04
3.181150431829027282e-04
3.391501613420286896e-04
-3.891452963123529250e-07
3.319490242683763737e-04
3.832902401231786901e-05
-2.292822571395375592e-04
2.510955555981374374e-04
-8.409923048139679447e-05
-2.510416780195827229e-04
-2.625563372602146540e-04
-4.318532463045722785e-05
2.717653512593587486e-05
-8.501514257259904297e-05
1.239971646432879750e-04
1.908817808435411703e-04
-3.406628014917821757e-05
4.198587115471081308e-05
3.555804012291169684e-04
3.844296865071315664e-04
-6.793311570312312306e-05
-4.072843972243822379e-05
-3.835183059775024595e-04
2.240714848084130362e-04
4.888076530821812817e-04
-1.998576021744384677e-04
4.240884318126892662e-04
4.666819750447314102e-04
-2.486485671987597162e-04
3.706421915296724046e-04
6.700323051983545289e-04
2.312863249932239906e-04
7.602299034816372304e-04
-2.924893621198447415e-04
-3.645832756471212603e-04
-3.745495572322007113e-04
-5.981590464515736160e-04
6.376102527208850606e-04
1.953939385415339640e-04
2.820597624947655466e-04
2.428367377259189452e-04
-6.548190653036723612e-04
6.539427378160269239e-06
-1.451266841643809164e-04
3.996828012559241312e-04
-1.297760910237100987e-03
3.299036038077451114e-04
7.980614622575878407e-06
8.737005969761749147e-04
-1.142562827315764712e-04
4.830570316082609373e-04
-2.634663749737162631e-04
3.422444139751715236e-05
2.965815247769941292e-04
-1.994221674468084425e-04
-2.270755095732101696e-05
2.464252377164061160e-04
3.374400651592891461e-04
1.602450712804790725e-04
6.445429783066620360e-04
-2.782359650786920863e-04
5.564349882314960442e-05
-3.366255620593162543e-04
5.783370381672839518e-05
-1.661561114773780416e-04
2.404190679790955683e-04
-1.973936571302500073e-04
9.095590622380492652e-05
6.407843353101202013e-04
3.154910834751154837e-04
2.753084609546848369e-04
-4.629252107923552101e-06
-5.446509419926062441e-04
2.315400705847527464e-04
2.200350621701202786e-04
-9.052072205322455635e-04
-1.556078831242789029e-03
2.515245076021557151e-04
-2.079277426971581173e-04
-8.283707957564939413e-05
-6.571862744894406503e-04
3.083842337489944786e-04
-5.875180345596821372e-04
3.151659841983595381e-04
9.612500694421749112e-05
1.533465355328231976e-04
6.520806037669230992e-05
-4.131766812804840835e-05
-6.692193756484819157e-05
1.084395073582671438e-04
-5.848090554369962928e-04
-2.283294774559229854e-04
3.723149456957458342e-04
2.071947889916458431e-04
-1.334714360796738055e-04
1.498856989890102738e-04
-1.462143411574981999e-04
2.528243919420937610e-04
3.545757657406069219e-04
