# autogen test
# 
# LAMMPS SNAP coefficients for W

1 1596
W 0.5 1
-5.306031679741652241e+00
2.585627349556557375e-02
2.220636616502818031e-02
5.194446000317216872e-02
-1.529034491944809664e-02
2.782758231576190067e-01
6.574485993928182170e-02
3.578300058386604007e-04
-6.454980778010502296e-03
1.271022675980202632e-01
1.002664016244664419e-01
5.175749489461239222e-02
9.903016313100865275e-02
2.575070556932261209e-03
-2.036556474924497429e-02
2.982433476861675800e-02
-6.791305452979615707e-03
6.776383431498116117e-02
8.991526694234174000e-02
9.573010631508557106e-03
3.629968666745261863e-02
9.745842342263709565e-04
9.981675056911104918e-03
-1.631837900517627829e-03
6.767570624922199241e-02
1.077540790138721283e-01
7.029941684589088857e-02
6.130829414304096031e-02
-2.766371885849513296e-02
3.613255433601060551e-02
5.051587769085496421e-02
6.777794558170407643e-03
-1.021178360759290166e-02
-2.025348463254512260e-02
2.391676695890765370e-02
1.010971359331358649e-01
2.938239017037221502e-03
1.149937274591740499e-02
5.582590339336731405e-02
6.768672465268507632e-03
3.034136155249704536e-02
2.076835205481181168e-02
1.263464640707904346e-02
6.214106422203886058e-04
7.356417771360261766e-03
4.059023997408792855e-02
-6.451836045868282986e-03
1.323708420507199637e-03
-6.307935742819009673e-05
-2.310718429812679605e-03
-2.521687899519035967e-03
4.310912145896836790e-07
9.473140486988277514e-03
1.740089030586462401e-02
-5.651696688741199813e-03
7.691912772095140828e-03
-1.493192362069556043e-04
1.147261881375298055e-04
-1.623585204772442906e-04
-7.964107198547463410e-04
1.583602326768915021e-04
-8.241905402443039722e-04
-5.622456611543755591e-04
2.750398336373863152e-04
-6.292429154652741342e-04
-6.807602375833869722e-04
-1.836455410938922343e-04
-2.775113397213224502e-04
-8.540374679625910770e-04
3.900674605447688971e-04
-6.671479420325126392e-04
2.378612653362168297e-04
-3.777374791612599374e-04
1.882232779490445890e-04
-4.502411645427453020e-04
-1.127644839628325844e-04
-2.112464115660532137e-04
-2.655365330430472831e-04
4.420954470218195053e-04
3.121101669231867988e-04
1.583982144123362442e-04
3.885743234270143203e-04
-4.615467302628903758e-04
-5.126355833448316413e-04
-8.972431587517082190e-04
-4.127860490548350110e-04
-2.088038115518169317e-05
-2.059639978020092908e-04
4.021284341971478638e-05
8.151990478691397085e-04
1.181854963233301041e-03
4.066647739871253079e-04
5.929114217033706847e-04
-4.848999794715862016e-04
-2.112605052887804146e-04
-2.940031353885440483e-05
-4.795633989158601320e-05
-9.127891734730364504e-05
-3.779750922096227622e-05
1.433108215848801880e-04
-1.241873536851562988e-04
6.583749853544347466e-04
-5.428674783106228171e-04
1.569511521112178226e-05
5.310089306423584058e-05
4.146536156362391604e-04
5.356356420746193471e-05
7.482047397157181841e-04
-4.226043061751374704e-04
-2.929084557345412862e-04
2.381109987706283041e-04
5.448311167508838784e-04
2.242913438131675835e-05
8.750073907219639178e-04
1.529120823351855197e-04
-7.964263219878209895e-04
1.652768059766432894e-04
-4.312601947609876526e-04
-4.572116539284002638e-05
5.709358866860646947e-04
-1.140272465428470187e-03
1.959542237855704252e-04
2.732605882970125548e-04
-2.075361738814609331e-04
2.173749146240295312e-04
5.531322883917203512e-04
4.384808494035788754e-04
-4.264294597901414864e-04
2.705444622325567589e-04
-9.505842601761118607e-04
-9.452032608574823669e-06
1.063840852823237518e-03
-1.027878798097412187e-04
1.170607323231486006e-03
-3.221323953533694389e-04
-7.638960991958613968e-05
-2.074594820589161209e-04
-2.112032986586457781e-04
1.081479584773835899e-03
6.802412430772267985e-04
-6.044968946556372735e-04
1.081545746094478896e-03
-1.698605899272082482e-06
1.214714831094251346e-03
-1.137762307934046271e-04
-5.677137714587648210e-05
4.240377821884402042e-04
8.795733483865752610e-04
5.151467829808020109e-04
-2.164627190212915103e-04
8.214262779153288444e-05
-6.959047014256595359e-05
3.019232519931550778e-04
-4.123500101469639110e-04
9.721222728495159445e-04
-1.894475298772302320e-04
1.148733721473592302e-04
9.003238649505675151e-04
-5.455137118376210403e-04
-2.949111147550917910e-04
-3.536423236616315129e-05
-1.098401236696509820e-04
2.921858429213106405e-04
3.556145534197304261e-04
-3.360419216883172785e-04
-1.946378558840074116e-05
1.755831920550961672e-05
-3.551984854423061817e-04
-1.003909258066706335e-06
5.353081577545363542e-05
9.195307899081964697e-04
2.045496528041551972e-05
4.387432941465687123e-04
2.465918442935571028e-04
-4.308814416530662612e-04
3.279152549366413710e-04
1.559417288790195487e-04
-1.681051933535465432e-04
-2.709138508479034852e-04
-2.134568134190343832e-04
4.142038745401915444e-04
-7.586421809842482230e-04
-6.576987949196677055e-04
-2.672052134350859712e-04
-3.777968624966844373e-04
-9.834995692199889443e-04
-7.122976976732187581e-04
1.060966804653153562e-04
3.465657789304836035e-04
3.753037266321248124e-04
3.985846349264909991e-04
-5.045571448126040612e-04
-4.656066545756788440e-04
1.488840643836265561e-04
-7.996085997996916226e-04
4.038349863184264649e-05
1.910626346482635293e-04
6.425558831615328951e-04
2.320961776901456328e-04
-4.531618223533643804e-04
5.137904501948680641e-05
-5.156504797147650745e-04
1.756624424283775301e-04
-3.103620821341389617e-04
3.635847467000767911e-04
-3.673387297180293141e-04
4.253139280084454780e-05
-2.292660526017352202e-04
9.178673548439721845e-04
-8.809013922534214363e-05
-3.406752570370318229e-04
-6.824933230634384678e-04
2.043424039875126215e-04
1.146738825722644350e-03
9.117042446364448610e-05
-5.910549746059911083e-04
3.894599293853124016e-04
-2.196006985734910710e-04
1.158894682131378720e-04
3.199565020432418696e-04
3.692914922866040038e-04
3.540862065681158952e-04
2.212566041732509496e-04
-4.932868840915886812e-04
-6.494041011045002245e-04
5.292875791171023931e-04
4.141628698158075794e-04
7.505948502083917978e-05
-9.726550680861941302e-04
3.216050444686174630e-04
4.609774516204402650e-04
-9.668530617968893771e-04
5.187432573991027952e-04
-3.048609543816823851e-05
6.224306121097236818e-04
5.105948273640913658e-04
1.064830740894615307e-03
5.829711646271879119e-04
8.660305062468761261e-05
-6.519430868617777418e-04
-4.873329185461781269e-04
-2.372826356452571424e-04
1.860730037715584563e-04
8.778129368596601124e-04
-3.975090408310667095e-04
5.673506252822654123e-04
8.551636330869320920e-04
4.226269747173765296e-04
-4.336272773135197095e-04
-2.262229560902003812e-04
-8.218955449281475315e-04
7.646779179327099427e-04
-6.640345511467796689e-05
1.039502164631086198e-03
9.338003086745972053e-04
1.734609772784592577e-04
5.391435135188255099e-05
3.146835129810907745e-04
1.013364405358416426e-03
3.294458211743423793e-04
-3.778736270015544958e-04
-9.698297228631497778e-05
-7.559423478420970385e-04
-4.469008870953826863e-04
1.124759950189656147e-04
3.260154299541984666e-04
-5.354420068927981955e-04
-1.383722112527547871e-04
-2.540079420046162883e-04
-3.303767800854869388e-04
1.391590297562443168e-04
2.845310051549377055e-04
-3.304948292910099648e-04
-2.902309624457193038e-04
-1.481737235862494635e-04
-6.860385169313573455e-04
3.987238939485246046e-04
-3.701715010125504880e-04
-9.013868141494913193e-04
9.335191844081853682e-05
6.288303271292789418e-05
-5.625926501515610568e-04
1.288660058961233612e-05
3.766487274347812917e-04
-3.219970757671862673e-05
1.536069392274624120e-04
1.048399561259694308e-03
8.533319778482962919e-04
-4.363977767394435869e-04
3.162955164145838586e-04
-2.921635674603224731e-05
2.336664520630548183e-04
-4.968698509832972189e-04
-3.681984555226008415e-04
1.996881620817020668e-04
4.640858472348815210e-04
-2.191751310027094141e-04
-6.878467911110173940e-04
-5.341994408541662822e-04
-5.238474368717636193e-04
-4.789617233045679570e-04
-1.039352589814608943e-03
-2.283907111916927499e-04
-8.093489087308449034e-04
-3.292106395664355927e-04
4.820385226589684544e-05
8.038075778507200973e-04
6.381047372830487554e-05
3.305107339388945278e-04
3.975084696450466781e-04
-2.320538967313306793e-04
2.723644520188331537e-04
8.969793532889065171e-05
-6.757812096249733854e-04
1.622514502866640503e-04
-4.607958693372779546e-04
6.100083698963061759e-04
-5.831774233155733941e-04
8.257026514936507923e-04
-6.127331619517952530e-04
6.240683925223331342e-05
-2.977639950413010794e-04
2.240031912784401930e-05
1.158064095813961789e-04
2.392042058392461154e-04
-1.838228117492791123e-04
-2.647578739150220129e-04
5.337378672410381678e-05
2.373810046785702714e-04
-9.661348959195566449e-04
4.865948266850495442e-06
7.038734536399525758e-04
2.583926221571435414e-04
-5.710824898223116090e-04
3.747270111855532623e-05
-6.338351192159124431e-04
6.528710990163594198e-05
-8.702252911167719348e-04
3.096047255668257499e-04
6.602461970069872961e-04
-4.078560114217716836e-04
4.186990814575475999e-04
-1.587416456450327210e-04
9.281102746778689130e-05
5.703234129715303120e-04
-2.547093622764639177e-04
2.348296463641114150e-04
-3.808021793840347708e-04
6.215159973774322727e-04
2.289711807888590694e-05
2.544427966767692740e-04
-2.815482409098852027e-04
1.222130123047544467e-03
2.205852039035253336e-04
-3.436206996460320343e-05
-1.746720390739529870e-04
-1.607962880851270123e-04
4.154146752393659582e-04
-3.138889891553084031e-04
3.553105061638602946e-04
5.258419074863917870e-04
-2.068581927421703453e-04
6.269320523571217515e-04
1.063488261012145511e-03
3.575513930699957747e-04
5.024406972362971749e-04
8.801265602616115818e-04
1.068851776053161867e-04
-8.676549052361383655e-04
-2.017672737040113000e-04
-7.178435874782163745e-04
1.264924968115729137e-04
-1.191600392542241892e-03
-3.351514234612807471e-04
3.606538779782233312e-04
4.259025745400073557e-05
3.579048218758239968e-04
-2.427604963899099571e-04
4.656936943618606405e-04
1.625175221156680179e-04
2.993971785614344305e-04
5.139111989042789317e-04
-6.835931646377010678e-04
2.767151009088482491e-04
2.162203507600670284e-04
-9.042859924909957530e-04
-1.536799780006124728e-03
-3.258928230802596998e-04
-4.972244858782105988e-04
-3.312357367238034727e-04
3.942196151087637435e-04
-5.335802834118404071e-04
8.401292146794774344e-05
-9.243094546204651913e-04
-6.032295827090533667e-04
1.492899100262279170e-04
-3.498365658644434807e-04
1.576370213576811083e-04
2.729910558878598670e-04
8.434277012614077758e-04
4.249245473603127004e-04
1.420945355931032758e-03
1.477607723014893700e-04
5.062272123381656493e-04
-2.262199939719940645e-04
-5.908672062750118482e-04
9.833983996338877421e-04
4.874540530143417895e-04
-9.741695650631997799e-04
1.182879261746749453e-03
-1.292976231454924822e-03
3.841830103882400637e-05
2.198818955666935623e-04
-1.170413553176070898e-04
6.528533431177103562e-04
6.680258326558855811e-04
-4.732779540158397720e-04
-4.525099414928860676e-04
-5.087783029119850864e-04
5.883000446731464095e-04
-3.069524959920717799e-04
3.831304449836348729e-04
3.099479785624774473e-04
-1.140543656028259432e-04
-2.735953507764230978e-05
9.775477195611548525e-04
2.341351141747569499e-04
-1.312578727662637402e-03
2.200482176536879377e-04
9.365532177294163272e-04
7.317974861497382911e-05
8.287702196403641053e-04
5.796473085477660877e-04
-1.382588158483027236e-04
-2.776206154828859724e-04
-6.158594123692603343e-04
1.168064338126480499e-03
3.460693629010837865e-05
2.526797659423981137e-04
-5.632559463156315690e-04
9.175828742787369558e-05
1.182585705702361017e-03
-4.057841685118545520e-04
8.156650383844528743e-04
1.006484548235490840e-03
-1.493500253772157621e-04
1.178030547613088063e-04
-9.953090943145910703e-04
3.555410685699705734e-04
6.876450607027580805e-05
5.170126420063005416e-05
-6.993601224840818224e-05
-1.362388272637612432e-04
3.429828401930745414e-04
1.595067805031286947e-04
-1.681664218190419106e-04
5.296674950621619964e-04
-4.311896591135840865e-04
-1.459647615661924876e-04
3.711528201433744647e-04
1.894061790421347512e-04
7.790899476308074635e-05
-7.242385427685652140e-04
5.441921546135698279e-05
1.678757840199756788e-04
-6.579962467837184538e-04
-2.658769672265129735e-05
3.242134871427860784e-04
1.414910722047117914e-04
7.163409802843675306e-05
-4.625595198337351674e-04
2.061268972934433754e-04
4.578531711037838467e-04
6.779611016940539307e-04
-5.983325387402855947e-04
-8.566271032279367198e-04
5.477768637928167152e-04
-2.067550139347511682e-05
1.033189903503072384e-03
-6.149301581722515240e-04
-4.836960593023527811e-04
-3.089169068907831272e-04
3.343407399524081849e-04
8.012768628903050162e-05
-1.700317862535389592e-04
-1.901526869020623753e-04
1.334503037628066800e-03
-2.426687092227068773e-04
3.057751141552615703e-04
-7.732912989929988231e-04
-1.401613773906518797e-04
-1.458384694715160468e-03
-2.773579600054225901e-04
1.649142343630052669e-04
8.826014209387291875e-04
5.509840251702721660e-05
-1.527078125480796833e-03
-1.097266780314068847e-04
6.082401284275923631e-04
2.165060446238831649e-04
1.066823669672017872e-03
2.001725010255151914e-04
2.255001415857414552e-04
4.428702310224973394e-06
-8.849773769077953463e-04
1.132042987180432222e-03
6.588745394040843809e-04
-4.020396650863132027e-04
6.208421190969263073e-05
-4.795830789803092099e-05
3.845781683632104207e-04
-6.609511371241579567e-04
-1.083224481279965136e-03
-2.844656002558439123e-04
1.115255901275967378e-03
5.190426646968685593e-04
-5.592778850969905508e-04
7.983146301389429248e-04
1.187224348870427517e-03
1.747253574962004266e-03
2.432842369265630282e-04
4.485097210207108945e-04
-5.155989578681450776e-04
-8.368466226088322512e-04
7.789957738476701254e-05
6.281128396880470395e-07
-6.738928632211782857e-04
8.211918694066944018e-04
-3.898868491991305980e-04
-7.854938699085483624e-04
-5.806775822274955152e-05
-2.689984146248452558e-04
8.496676127200211183e-04
-4.890356096711400390e-04
-5.400099384996724389e-04
-6.346916581583028670e-04
-2.903639633540982330e-04
3.762672602838573548e-04
-9.422289308560922181e-04
4.212840025823483031e-04
9.426794812891817719e-04
7.293008586654629519e-04
7.865757778672385816e-04
6.053651669016766853e-04
5.980106334385969875e-04
4.380511664734869164e-04
-3.262047924704775548e-04
-5.545112029402049416e-04
5.652474467520450302e-04
-3.657042513186205442e-04
-4.331599156303214183e-04
-7.241610748388318218e-04
-8.992476057312556725e-04
-4.265082012691149573e-04
-1.619579673891095818e-04
3.260868151010694934e-04
8.118202401574237765e-04
5.167206650955815002e-04
-6.370010618684386443e-04
5.470155076588585066e-04
3.354759218568310604e-04
8.044485079329882651e-05
1.167139735076993314e-04
3.608852007530652384e-04
9.623048746288676838e-04
-4.377958916263453393e-04
1.036578099312796507e-03
-3.867827286632861874e-04
-2.053384257048417440e-04
3.872770469019413140e-04
1.104606005585535887e-03
6.585407122671934612e-04
5.361180888255448257e-04
-1.965576653369716965e-04
2.046542558019704761e-05
-1.095580620634314852e-04
1.556111756729558623e-04
-3.391008535829987194e-04
-4.792267470118585348e-04
6.288301305794834596e-04
3.703858505183548941e-04
-6.100962282116447529e-04
6.900362436684226702e-04
-4.503231791894542137e-04
-1.020174483023750548e-03
-2.976567732375769246e-04
9.222680448738941920e-05
2.165258354690358772e-04
2.453343582091244103e-04
4.317882831589598281e-04
2.150137842466606504e-04
3.108487017710341089e-05
-7.932031027329185550e-04
2.929662469117770215e-04
-3.101362652844170194e-04
7.011490314819296714e-04
3.342324293524384844e-04
9.427615235643287952e-04
7.463583274602850421e-04
7.169294395635521623e-04
-1.026384627656830783e-03
-1.694039352514756203e-04
3.530824538105260010e-04
6.493576344623484733e-04
-3.471101229677090155e-04
-1.783658180378197870e-03
-6.699671101908795780e-04
3.516846569786511714e-04
-2.542607349672155819e-04
-7.659308627133105734e-04
-3.401887492037637011e-04
6.085529301088427523e-04
8.426274608889962195e-04
-6.429802364815325171e-04
3.214812381042157405e-04
7.727245739608817757e-04
1.891014652008545134e-04
3.636637517411998519e-04
6.978343210430908074e-04
-6.127302462569770734e-04
-3.791771051216972273e-04
-4.549032173006047476e-04
-2.680380469497872765e-04
5.682761247261433049e-04
1.138008613754537025e-03
-3.336444666040293597e-04
5.982901764730849713e-04
-3.771058719641537426e-04
-4.642719368898132215e-04
-4.815853930345447747e-04
-4.155540046215023989e-04
5.697520432096583745e-04
3.657950050504591593e-04
-4.673235028616233924e-04
1.166678563767679471e-04
-1.003931613144304000e-03
-7.676691438700798155e-04
4.159838739311869983e-04
-3.010576199572912947e-05
4.159886271805039856e-04
3.500580800199647093e-04
1.680262610824098625e-04
3.248344737058019341e-04
5.485852414969666097e-04
9.193833763257820224e-04
4.927341724973450642e-04
-1.006197018358581002e-04
-9.709637351812857838e-04
-1.716259112190636753e-04
3.189138203521486799e-05
-4.165970479154337152e-04
3.194493878946346767e-04
7.355369045952824284e-04
3.189441031859122761e-04
-1.049749627933115438e-03
-6.836747458751839908e-04
-2.501424441980576002e-05
2.329628738720994081e-04
3.566948575446488544e-04
-4.466923799132804123e-04
6.262366719923057263e-04
-2.423842087657501862e-04
1.169649761125062535e-03
9.163076192530197331e-04
7.813095909184954472e-04
2.774503898003639652e-04
-1.867267303267670128e-04
9.886878054089010600e-04
-1.139522302947178754e-04
-1.666677278713535305e-04
2.596386086090420931e-04
6.596567108016830573e-05
-6.405807766733576493e-04
-2.684290796219447129e-04
-2.066637230541747442e-04
-5.074378356715845712e-04
-1.125887200637625359e-04
7.353559671976198824e-04
-2.046526259107649408e-04
2.352246957054112179e-04
3.382566603531101334e-04
-2.672327124927106152e-04
2.424978429307444232e-05
-1.283831706453844067e-05
-6.339281745528372648e-05
-2.791852554754658601e-04
-5.640188023383391116e-04
3.360830861176187200e-04
-1.813586479901297419e-04
-6.930697610787976823e-04
4.839019318416318120e-04
1.035332572807231254e-03
-6.947574226066183765e-04
-6.343258681211918582e-06
-5.739573777745900869e-04
1.366976013025771432e-03
-5.150537007119829203e-04
7.809775109352274768e-04
3.621675621710738970e-04
6.131930655223914901e-04
4.489968313562745211e-04
-4.255045091958536648e-04
-9.954889360025754078e-05
5.159835945930688148e-04
1.119743537753619712e-03
9.440884789153640086e-04
7.937120468893141744e-04
2.939157235387177165e-04
4.561271786824931370e-04
4.050876062401578392e-04
-2.976891472448993403e-04
1.107968923491390266e-04
-2.264758019463746657e-05
-1.564342082828261210e-03
5.898721675330961941e-06
3.920983234203139801e-04
1.036368749155158043e-04
4.799259602541111136e-05
-4.168824043472322215e-05
-4.953862567549592024e-04
4.019679223523243820e-04
1.492989555663076329e-04
-6.218992994808118704e-04
-8.317494270505429129e-05
-2.117753477309493250e-04
2.241200084765847928e-04
8.985055309971573404e-04
4.362066099798828111e-04
2.922625851191861229e-04
5.487060758911438884e-04
-1.517476561165480645e-04
6.718523385583958542e-04
-9.360909531338929284e-05
-4.355383600917605170e-04
-9.913258709541420723e-05
-4.018644059028632820e-04
1.948203933003883593e-04
1.079218978371021412e-03
1.537547479914483806e-04
-6.346541203011155444e-04
1.256335512102482732e-03
-1.889448851508000943e-04
1.048482828447096617e-03
6.888549887036107648e-04
4.340704727302492562e-04
-3.789753201192421319e-04
4.874719279804687355e-04
-9.955891926832253439e-04
-5.668498101281735499e-04
-2.908125739580534413e-04
7.675551835785165977e-04
-4.586406363610707852e-04
-1.117288610883154527e-03
3.478331963823536586e-04
-8.983768669042880390e-04
3.780782492905445410e-05
-6.424186169747058773e-04
1.436449195143561265e-03
1.367243262899256809e-03
1.454578821692014646e-05
3.558021472132968975e-04
-1.015379024277307442e-03
-3.722398797294048951e-04
6.453195425279947437e-04
3.189680009378039111e-04
-2.181441205130208176e-04
-2.393003614293787650e-04
-9.388322417508163185e-04
4.386790891945972705e-04
9.376162413717005701e-04
1.318297959585701873e-04
3.111551015560882170e-04
6.355893559552981036e-04
1.119830688593954280e-05
9.952507071311325528e-04
3.345730003387131172e-05
-1.600961681509547826e-04
-5.693146507182178257e-04
5.739055012203869060e-04
-8.671423923469326117e-04
4.965387811031409708e-04
-7.522945400550781628e-04
-7.005753214762204745e-04
-9.092777386827346651e-04
-1.350080872746224495e-03
6.298802931748352998e-04
-1.872245958025401660e-04
7.402719129785226173e-05
1.512618363068983404e-05
-9.892348884180056888e-04
-5.380333197731774911e-04
-4.047176577110461835e-04
-5.253690177877396150e-05
-7.787322979530740758e-04
-8.976834534030864827e-04
1.508441182755730593e-04
6.144476587814055738e-04
-1.436888140380606109e-03
9.981549411179675853e-06
4.068565507211070460e-04
1.344649625250210500e-04
2.273814203334731301e-04
1.124367702186392613e-03
1.549312106079149217e-04
-1.184121389445239947e-03
2.151559956464404319e-05
2.872258135711777682e-04
3.006913912887961352e-04
-1.694711128158132981e-03
-6.492577610845276298e-04
-9.977145156465385117e-04
4.116185167461930514e-05
-6.815395094763197423e-04
4.846796872418506256e-04
2.548691514253668901e-04
-4.201396001062916285e-04
-5.335175377109920057e-04
1.082393290329570568e-03
1.556773956905308583e-04
-3.427880215911999770e-04
-2.728662113923372009e-04
6.018204437152431313e-04
9.992807227209190950e-04
8.364987785660633716e-04
2.737332762733682943e-04
-1.041503503239461217e-03
-3.429948735695665133e-04
-1.667775682448009646e-04
-5.124070871440653896e-04
-3.321664358852506951e-04
7.432995279685172124e-04
3.797518116962138811e-04
3.591972056863305403e-05
-1.157478012359934480e-04
-7.426394835991413255e-04
-7.397709171301235275e-04
2.130923533889417384e-04
4.558216951259952562e-04
-1.140797221406894264e-04
-3.351993723864054578e-04
1.538846267981105586e-04
7.465292296219348638e-04
2.154509028171439934e-04
8.136302699805477660e-04
-7.963492955230927744e-04
-3.844052505464332537e-04
3.276499894987530150e-04
-7.101873400808079518e-04
1.222244563431633857e-04
1.219096511450797320e-03
-5.341937404785198360e-04
2.338075786608820891e-04
-7.028241188646712576e-04
-1.253890577879630775e-03
1.171533242146149695e-03
3.007405664093615490e-04
7.533675226008596263e-04
2.185375385541308006e-04
-1.398591250982488725e-03
-1.160351922654806944e-03
-2.616404439970294047e-04
-3.960335778311165674e-04
-2.467091480088396262e-05
-9.792292057447911575e-05
-6.622061292075633043e-04
1.200221054328667663e-03
-2.338912164502228311e-04
9.444593055130518465e-04
5.578681934474167149e-04
5.682554775388107271e-04
-1.084277747301581321e-03
4.235291971939478197e-04
-9.449186741337026315e-04
-2.439321384306982550e-04
5.845639985776242015e-04
-1.267858623330141859e-04
4.861739760752173509e-04
1.420128495692472360e-04
4.562405060847579859e-04
-7.005542849675999066e-04
7.596238105067297259e-04
-4.345975035075274874e-05
8.096184526873572308e-04
-1.068328978471069069e-04
4.817761900930791255e-05
1.910536698900449943e-04
-3.277821370736271750e-04
5.085148040312948347e-04
3.532153834860111063e-04
-9.271842550520564385e-05
-1.023116381190384509e-03
-1.446032076185529112e-03
1.080056381217875438e-03
5.469754664486263605e-04
3.248642609857089135e-04
-2.232256462478935690e-04
-1.330182420272799917e-03
-3.572875012452418424e-04
3.219293723658679988e-04
-6.223911011691409065e-04
9.862575608206398058e-07
8.254309127457016551e-04
2.241094552472620936e-04
2.835729871211165650e-04
-4.998576680584114690e-04
-8.479812308326474144e-05
-1.016707656527170893e-03
6.874263687337251816e-04
8.014031043178129711e-04
2.192303139895095771e-04
3.503824476251828990e-04
2.902870820318913378e-04
-1.200997612612978230e-03
3.898792067690894114e-04
-7.315127696293686164e-04
-9.462473407487705579e-04
-1.169703106283010623e-03
2.601254712129987901e-04
1.792623352516286260e-03
4.230954895680993986e-04
7.421127776548345014e-05
8.439178410720246529e-04
-1.704636072388924473e-05
-1.924969353226899885e-03
9.636916055736224158e-04
-2.384491170425149826e-04
4.031644660273715503e-04
6.169824214854244390e-04
1.890655856075759960e-03
-2.955734326331346503e-04
-1.186034750706680936e-03
-1.814169256951248281e-03
-1.164436904404669675e-03
-6.621021039482434837e-04
-4.375771196904101185e-04
2.041722979450845548e-05
7.912568611003433210e-04
-4.188061642495924576e-05
-2.203939143051939626e-04
1.385207241923754962e-03
4.666797840616983338e-04
5.078577898331512611e-04
1.391238539103504396e-03
-5.917999759878697901e-04
-9.141768826246389002e-04
-7.797171656687200371e-04
2.844000817558130852e-04
-1.572246173010168058e-04
7.917900246074184318e-04
2.124499995383067382e-03
-3.764107969281789206e-04
-4.683879746465510340e-04
3.796936415851915616e-04
2.415457793791498330e-04
6.679400410898086711e-05
6.625062631199068195e-04
-6.367988347819021839e-04
1.439061474996421045e-03
-4.525042329550757513e-04
6.996065082276726977e-04
-6.130912357198937609e-04
1.915984812909571388e-04
8.512734729007991334e-05
1.055395034767000464e-03
3.336254980701159039e-04
-3.878104600985703696e-05
4.154280112340792263e-04
8.126883179926971653e-04
-2.882646938883807173e-04
-1.976365629515481194e-04
-4.407180071395284341e-04
-1.578712522763309493e-04
-1.424226151844386681e-03
-4.098636691764031485e-04
-2.778732101399745139e-05
1.777449374745758036e-04
2.614713761043853651e-04
-3.140241289503775983e-04
-5.153799067671646639e-04
1.475510407282674356e-03
1.207531427381821091e-03
4.595921159019431402e-04
-4.693643920515859123e-04
1.812492657743072105e-04
-4.866503462735907856e-04
7.578879026873105908e-04
-1.482375661299265316e-04
4.421365256414286956e-04
4.832609115229389478e-04
-1.753218702263963525e-03
-1.676448558973341225e-03
-1.283713140865636992e-03
-8.089806958493523650e-04
-4.580878142526673331e-04
-2.779475972414823578e-04
-5.869675495624518402e-04
5.000837261072299143e-04
-7.748553468020061329e-04
-1.150038142948553910e-04
-6.704868310333780487e-04
-3.101672067252412277e-04
8.666408655303140971e-04
3.818837196937101340e-04
1.099570790792837345e-04
3.299523854281858422e-04
3.167627385224684408e-04
-2.445408736955553158e-04
3.157976281085435148e-04
9.142357576066695692e-04
-8.792745895624631781e-04
-8.863168814767112872e-05
5.714114989044539582e-04
6.830600461457759305e-05
9.157515797050034233e-04
1.604685906183466110e-04
-3.311413463379244511e-04
1.203950842503958597e-03
-2.953709426242681776e-04
3.759159383173954570e-04
1.479692416252026887e-03
1.442408702591300735e-04
-1.586351533059618532e-04
3.339059117223459579e-04
6.702354817052729287e-04
-7.050725084272046897e-04
4.150949655702368781e-05
-4.373017520257545146e-04
-8.540268440074986816e-04
6.216904640110671376e-04
1.692436862108288745e-04
1.051133718963722264e-04
-3.172670532723727158e-04
7.065177610380422759e-05
1.055730279522224110e-03
-1.419282982776534207e-03
-3.451514266207841939e-04
6.203562425120419908e-04
-8.419044869204023087e-04
2.767885098882818585e-04
7.335102973595545575e-04
2.219697501792169524e-04
8.789422225479500816e-04
-4.576765279291030082e-04
-5.493243984310110717e-04
-1.018530342550688086e-04
-9.863549867225272218e-05
-2.067531702411927561e-04
-2.957919317843252629e-04
1.462787008143973024e-04
-4.551081176884980736e-04
2.390680472558492941e-04
3.694997830689229312e-04
4.580618887925433109e-04
-1.201820978155333243e-04
3.457789600226003515e-05
-4.919985636193955275e-05
-2.149893410291286403e-04
1.440102331444737266e-05
-2.256733654588495086e-04
1.683831214521081128e-04
-2.631946256149592664e-04
3.855698961313550424e-04
-2.878656608804998438e-04
-1.976996544670288488e-04
-7.557658319159907788e-04
4.183846951363521236e-04
1.271202297046380579e-04
-1.586302897004658369e-04
-1.528773932347082440e-04
2.632776020857280287e-04
-8.043026958114732295e-05
3.614337443766808800e-04
-1.029023303755720667e-03
-8.691865609775891247e-04
1.586726540558316316e-04
-1.757022819967767795e-04
-2.544219278303186068e-04
-1.081847960791671413e-03
1.215005820719603294e-03
2.580170274020074004e-05
-1.201451661056740462e-03
-5.586125528716708597e-04
-4.996855133486754552e-04
-2.556860140456934595e-04
1.419494269233560616e-04
2.069887354095615098e-03
-4.213112987513986793e-04
8.336326125011974428e-05
3.872335528211895254e-05
-5.095798459824409142e-04
-2.719141980670489265e-04
9.082060249145217784e-04
-1.035485451928752068e-03
-1.295482352660911468e-03
-9.505148137900688203e-04
-1.983172831470925225e-05
-1.220527684046128882e-03
-7.466625327399799934e-05
-5.915977870296605396e-04
5.241088625154114323e-04
-4.348273244621952732e-04
1.111478703605474529e-04
2.096016961948473647e-04
-7.795699371587951499e-04
9.951386431590668151e-04
1.266596005452205785e-03
-8.680523225157341875e-04
-6.067749838862316301e-04
-5.028903879409497412e-04
-5.710914244919444005e-05
1.051162727197524870e-03
-5.363852021566385513e-04
-1.717096030154927153e-03
1.251736908154366850e-03
3.603795068482193464e-04
9.494464063881733872e-04
-8.699875004990218017e-04
-3.796453843517138280e-04
4.109813974560420241e-04
2.310172141917184261e-04
-1.128142287685360940e-03
1.208282237546635116e-03
-3.898981419612958677e-04
3.902951565860548078e-04
-5.612478056342683512e-04
-6.784483954681106311e-04
5.775328460679550208e-05
-1.877251543489509610e-04
-2.742612970950109551e-04
-1.276773712298781408e-04
2.939390087739943949e-04
-1.618778369013438754e-04
5.894676335100040984e-04
7.235334565934412781e-04
1.547964570861299727e-04
-1.059473006624334556e-03
-3.575711414551056540e-04
-1.134098406761883287e-04
-7.072659093890982032e-04
-1.721200230049850955e-04
8.338469025500599291e-04
-1.180033226133406389e-04
-1.668317884343073325e-04
9.912470666464756695e-04
-6.652064177972114327e-05
3.191925594173356320e-04
7.156576365057927840e-05
6.635666881205405654e-04
-3.128280031123028084e-04
-1.665131523464448903e-03
-3.614119855521434892e-04
5.855954422209326765e-04
-2.959977642483417408e-04
2.075523364694825462e-04
1.153924875981610348e-05
7.687403943715507854e-04
-5.786528699628882156e-04
-5.139533632939006358e-05
-7.827155631876038283e-05
-7.130134948386778176e-04
-8.999092366677352746e-04
2.267255401745715718e-04
-8.438023832181843409e-04
-6.547776720400098460e-04
-1.616774918504734152e-03
6.402481819083701486e-04
-3.417659931918620372e-04
-4.849286772468039690e-04
-6.104663605700957462e-04
-2.392238142239202711e-04
6.522191509183319739e-04
7.457201071776044200e-04
-2.477538424819182919e-04
-3.019354231668058245e-04
-8.059331904578573812e-04
2.433730461194537852e-04
-2.971104424043975191e-04
6.302156343376046294e-04
9.422733403430935337e-04
1.194768871196578226e-04
-3.524335258760123105e-04
-9.488976291696504936e-04
-6.811815900550306562e-04
5.655231177813526636e-04
1.730379559532433179e-03
5.090283834534779740e-04
-1.388519660965310918e-04
1.165550280452710540e-03
-2.514101905893652874e-04
2.697162700253726171e-05
3.158203613028546814e-04
-1.247774410374581644e-03
-6.460923452790386979e-05
2.273574097015196218e-03
3.340097374255841041e-04
3.361566801459140883e-04
1.321127136009349193e-04
5.681167946631951850e-04
-4.799597529095835460e-04
8.861036254523475299e-04
-9.791235756088007870e-04
-1.887050365428152995e-05
7.671607243792993760e-05
-1.695728937822496498e-04
5.596649396288255664e-04
-1.641211222204933386e-04
3.318558673050876523e-04
-1.021143898961010630e-03
4.879229481056582274e-04
1.622603260241203881e-04
6.374345210187297699e-04
-6.079089717822922173e-04
1.075697906764675957e-03
2.980305044258436151e-04
5.057727065220113958e-04
-4.321089036792134948e-04
-1.150830643962033693e-03
-1.068864945769048246e-03
-1.009215912207415012e-03
-5.133194073600034048e-04
6.456446049407174332e-04
-2.453610509056746385e-05
-2.240230722306002238e-04
4.187898607032477464e-04
7.135652557135744364e-04
1.770218071586051022e-05
-4.570983977853970356e-04
-2.417564829662199486e-04
-2.343849102496891516e-04
-1.145010505920953124e-04
-8.331798660003609126e-04
8.603397487231523289e-05
5.770062267437621375e-04
1.125806117789056966e-03
-1.032574601667535317e-03
-3.501737801067856572e-04
7.027235764534877412e-04
-8.347243608951560034e-04
-5.836334035707290953e-04
7.172428142098902530e-04
1.407801458760787579e-04
-1.293512178300130870e-03
-5.616234062340613904e-04
-2.759465641831198223e-04
5.146176193232941285e-04
-9.025229139621615982e-04
8.032304411292388695e-04
-6.582880323658886522e-04
-8.788190552025924732e-04
1.067175352450993372e-03
-1.910048583432695296e-03
1.010778291233882867e-03
-1.102856796502727204e-03
2.027195101631776482e-04
1.773380089911696326e-03
1.330262721689796652e-04
1.007090015858117969e-03
2.541680063968413620e-03
9.318007517575746914e-04
-1.326382480075443239e-03
-6.656630792560553180e-04
3.076349036509340722e-04
2.170924252526163249e-04
6.899784764237313576e-04
-7.058517222583737295e-04
6.848936099339572668e-05
2.644537945876709395e-04
5.647535564567928400e-04
7.406176377515937773e-04
-1.747542252648448752e-03
1.443573736243907498e-03
2.933004497325446898e-04
5.824102280243742872e-05
-3.322274739018725670e-05
6.370625717121172434e-05
1.402603658291999783e-03
-2.833570312217258656e-04
-4.112131860760115951e-05
2.231771245335163062e-04
-1.678890507155449141e-04
2.851819354501264510e-04
-1.817008159415153064e-05
-1.851004824205324494e-03
-9.836934609575149720e-05
2.246922659669178650e-04
-6.462968967232997613e-04
3.556255653635220413e-04
-3.563213333579596099e-04
-5.480347082724876208e-04
2.384787492081925583e-04
8.672115468978851618e-04
1.776155886445703427e-04
5.183881056417249120e-05
-1.204469362032850127e-04
4.798475591249288532e-05
5.863356072488577547e-04
-3.369511586954495154e-04
-2.822593124605830920e-05
-3.998825996184363421e-05
-1.381981273574309698e-03
-9.510457175590353827e-04
2.364799294419316458e-04
4.449120224005309864e-05
2.948543445672121037e-04
7.092326819728235520e-04
-6.080178861061083864e-04
-6.455568232397020318e-04
-2.735979643909802576e-04
-4.277481894644531170e-04
-2.103836600006440028e-05
-1.298788518495808293e-03
4.165649727517249461e-04
6.156748239046808905e-04
-3.165372148843552456e-04
-3.429713699829355577e-05
-2.834137822217304144e-04
-1.384382240450615555e-03
-5.168040226215029178e-04
1.172134942863090794e-03
4.499049934354531436e-04
1.224967026781588039e-05
-5.271873023721111067e-04
-7.837885438762308334e-04
-9.068096328523368981e-05
-9.868861242650528616e-04
1.199616027855653847e-04
1.473579358351631661e-04
-2.406305946483957962e-04
-5.509123766526540259e-05
3.252724209873787318e-04
-6.242050663707982526e-08
-3.042512755185202821e-04
-1.702472584997786012e-04
-4.425925627292285106e-04
4.360102147841003577e-04
-2.324438577434671924e-04
-3.792470351367831140e-04
-8.687860826556094342e-05
-9.823555352067688191e-05
-3.819998639930914804e-04
2.486833478472327114e-04
-2.090433921541485476e-04
-6.343618383050815546e-05
-2.924866101148865141e-04
3.684044919801222960e-04
2.164609430297895090e-04
-8.680020857073747790e-04
-5.866876287854868015e-04
-1.075703560370056466e-03
-1.193920418495263516e-04
3.841521487149350241e-04
-3.759422089831820370e-04
-2.402794740417964930e-04
-3.517223417253677071e-05
-1.333075318122408162e-03
4.572129101280779633e-04
-6.218101029248614890e-05
-1.394629469720385186e-04
1.170363760721196758e-03
-1.745915443405410218e-04
-1.367630157134933370e-04
-9.194782190190804814e-04
6.338171629692706264e-04
8.387512003405576131e-04
9.871659548969188733e-06
1.082414527471239505e-03
8.419101592549101164e-04
2.048780516488484405e-03
-1.367886558217940637e-03
-1.659139253284699434e-03
-1.013226563715936444e-03
9.062009921048780315e-05
1.624269170667982530e-04
-5.110057216993776994e-04
8.683670312015164027e-04
-3.771620686552048986e-04
8.908487649056803185e-04
1.841864779811825013e-05
3.497442163002599611e-04
1.016918790591128056e-03
2.081496361901178413e-04
3.118802950797576142e-04
1.515096161559755513e-05
-5.341233839664223052e-04
-8.195841549442324037e-04
6.483764101222368786e-06
2.577406361163854325e-04
-1.613284601369697731e-03
-9.054213287843082677e-04
-6.934148540190437958e-04
3.996110815270633999e-05
-2.984500538370245368e-04
-6.177167096439311082e-04
-7.747897228043862069e-05
-8.074014619727161749e-05
2.636618302788027910e-04
6.158229583181806972e-04
9.309087380995270666e-04
-1.018569716966778900e-03
-7.296689995184363819e-04
-1.311693400528360321e-03
-5.052754520595149467e-04
-6.450526718915394926e-04
-1.032173095646664361e-03
5.293538347196003911e-04
8.564862517997443025e-04
-7.673755502822936269e-04
2.163914567660275845e-03
5.678597174587199153e-04
5.478187390742923725e-04
3.427543472920722349e-04
1.120901715597030410e-04
-4.553974061363443129e-05
-1.622028588585130797e-04
-5.704066341603771786e-04
-2.250466454934475248e-04
-2.721796422190897002e-04
-3.664164255198233125e-04
7.644067606484658984e-04
7.042212138219670686e-04
-7.453410231102823558e-05
-4.687013551088116837e-04
7.456163165881987426e-04
-1.521246766043384512e-03
4.368189172330749792e-04
7.133684244513834689e-04
5.926253773059841435e-04
9.579677239902072204e-05
-1.292795316737320194e-03
-1.631546350487384986e-03
1.605897030021743131e-04
8.057483826905802995e-04
6.247850880982880935e-04
2.872917624430191384e-05
-9.911262020371250370e-04
7.697240346825072509e-04
9.116244258200910866e-04
-5.169232996506607000e-04
2.927772426730423385e-04
-6.490970626429389684e-04
6.143679744522817726e-04
1.347886685830338230e-03
2.482295212394519755e-04
-1.113782109646983343e-03
-1.609158435997541528e-03
3.181881353980250504e-04
1.300551583305523074e-03
1.756238448033895384e-04
1.615957042836034530e-03
1.800639970757116765e-03
6.889670527245996077e-04
2.814772343260795113e-04
-7.880224436210510114e-04
-7.215497960063525611e-04
4.511158708976382189e-04
-3.687403119265948476e-04
6.055156704153031796e-04
-4.153274281976635277e-04
1.844030174094174598e-03
-6.400302757296961109e-04
-9.622503173128314985e-05
-4.295235091137262888e-04
8.190773859536665735e-04
3.937287412014512441e-05
2.523644546639120542e-06
-3.737993024815174981e-04
7.300614574186807884e-04
1.052647348112201479e-03
1.135995549829973782e-04
4.502689349984413344e-04
7.628236854498759338e-04
-6.205836016947343650e-05
7.361346775486935249e-04
-9.363321777134586471e-04
8.709989963523668199e-04
5.286564975891067065e-04
-1.676778670217065600e-05
-7.281061392765272259e-04
1.737284609426219630e-04
2.280556816544501274e-04
-1.713875647100972645e-04
-1.226168649864065908e-04
-6.075265455958570916e-05
-2.049877835226566753e-04
8.627663988953823281e-05
-6.110285863880028298e-04
2.316679750651682993e-04
3.494502857747999389e-05
-9.210145561612577284e-04
4.429344528737925828e-04
5.774545646066241806e-04
-6.172348708821181898e-04
2.039212191634818248e-05
-1.039278959821327621e-04
4.013205579915987676e-04
-4.510510622580116277e-04
-6.406627939266274158e-04
-4.061850956329483527e-05
3.154977675120066187e-04
-2.967120255960030472e-04
-8.503989135984336793e-05
-5.905373443106636672e-04
-7.130082885389773259e-04
1.241094363694838555e-04
8.020888908916413377e-04
1.584861196756014873e-04
8.244381096908939106e-05
2.479290842620902836e-04
-1.756957718813287014e-04
1.826050151693421456e-04
-2.837486490827328825e-04
-9.085477497291515373e-07
-2.781339587177482711e-04
6.945205190348900572e-05
-4.288290966501658811e-04
4.205280034637419169e-04
4.111691307207520057e-04
-1.874864894737740941e-04
-2.062481529332359210e-04
3.102495556891386556e-04
-8.644483906074324408e-04
6.495236664993303847e-04
-2.277129273510192058e-03
-1.530003826295979171e-03
7.279683936502053757e-04
-9.391138733837373943e-05
9.207552688424458260e-05
-4.258358477599696510e-04
-1.597101318494208947e-03
7.051386660375601840e-04
4.311880285456578003e-04
-1.943140028032059414e-03
3.398182882532930116e-04
-4.076830279447628703e-04
1.165304311180517506e-04
-1.987827106175601522e-04
3.639037330990327074e-04
-6.573023085380725759e-05
1.855908198317816893e-04
-1.482115034882248777e-03
1.545902187962931284e-03
-6.745443320081519396e-05
-5.976789757890397722e-04
-1.407838199796108926e-03
5.424531348725404687e-04
5.649515676767239390e-04
-1.838879128488346993e-05
-5.635847531518250889e-04
-1.637882658483500592e-04
-3.746801007595266012e-05
1.817236541033392363e-04
-3.263359990030380341e-04
-7.507530553973763019e-04
-2.817057639458967638e-04
-1.052276652379845667e-03
9.831346776052781312e-05
-5.599128811510849062e-04
-1.485984984438455539e-03
-1.214835619695088693e-03
1.143798231335253161e-03
5.494092477586603194e-04
1.075739333826719775e-03
-6.044032765591989291e-04
2.096979480660349476e-04
8.125686966299558184e-04
-2.625754501523650626e-04
5.228703181097309801e-04
3.247784019485805526e-04
2.742940124848157121e-04
2.828148262566754310e-04
-1.468472267724642494e-04
2.005458916406786070e-04
-3.412395143581286434e-04
3.313685979782212771e-05
2.555873792711377615e-04
-1.732595559471275157e-04
-2.703439593494811862e-04
-6.009222936935416448e-04
-3.107043880288518599e-04
1.888729092475418723e-04
4.646239219142957177e-04
8.264668822330396999e-05
-1.881022862733783166e-04
1.121313860469879976e-05
-1.578015123238628607e-04
3.554728171685987259e-06
1.001579526673701315e-04
5.602025885681596916e-04
-3.691113858355791815e-04
8.667080932568802963e-04
-3.594805409514468522e-04
1.248242217974137973e-03
3.624438213210304455e-04
-6.396501574727968091e-04
3.123708171504815229e-04
5.465550082351429016e-05
