# autogen test
# 
# LAMMPS SNAP coefficients for W

1 1596
W 0.5 1
-5.306022091974571531e+00
2.597305590198733735e-02
2.224644945505642457e-02
5.191205294401445708e-02
-1.526450609164979599e-02
2.782364323598804368e-01
6.575724123132134502e-02
3.374654583367291474e-04
-6.229200669482219503e-03
1.270761793713848786e-01
1.002892828960345178e-01
5.178638033119296186e-02
9.897629822435555225e-02
2.667970157121897067e-03
-2.032113037265239480e-02
2.978497283956398067e-02
-6.890474603031061449e-03
6.776166702984688650e-02
8.995973349229864635e-02
9.516407564744339131e-03
3.621169942079605769e-02
9.314725024077803381e-04
9.924021996295856463e-03
-1.561780703401107568e-03
6.760426567367174011e-02
1.077587174813099263e-01
7.031298360755020016e-02
6.138327600533482337e-02
-2.768308537608963130e-02
3.610215910876816980e-02
5.047997738133448015e-02
6.767382735711429884e-03
-1.033003045793672893e-02
-2.019687868798691194e-02
2.386671149039918532e-02
1.012136690654736604e-01
2.902973882995760809e-03
1.145675584629762649e-02
5.583533745378894270e-02
6.647211803474349645e-03
3.040042853435246523e-02
2.079715962345406871e-02
1.259841343390405780e-02
8.075445628593088494e-04
7.363304392912933295e-03
4.049288830162338371e-02
-6.340159016693755478e-03
1.263471678850505275e-03
-1.507889432129466646e-04
-2.315789752840032457e-03
-2.545922980627302393e-03
-4.594552387748962832e-06
9.442565188645972094e-03
1.727031083115316765e-02
-5.668630153891332860e-03
7.667307463134229693e-03
-8.756357149812149271e-05
-3.748033952253901173e-04
2.355203672035246620e-04
3.408458105329188249e-04
-7.291479394954999819e-05
-4.004615890717316200e-05
-9.897457453535321679e-05
4.272682062396060843e-04
2.222878325975839167e-04
4.384112561980954949e-04
1.785614824460614672e-04
-9.536871865043120944e-05
-3.437802222590311311e-05
-1.216599826521832243e-04
3.332525068968268406e-04
-1.247642717304985895e-04
-2.366233569721557612e-04
-5.831085748184478197e-06
-2.188769427365392067e-04
3.366203258363494239e-04
4.884865167626057953e-04
-4.094869107526093177e-04
8.801317627432162232e-05
-2.702071222015332451e-04
-4.939495811828198977e-04
-1.438361800473169364e-05
-4.983686108976396675e-04
-1.230430145009005151e-04
-2.164078945842476658e-04
3.118789662061478840e-04
-1.967879781661115027e-04
3.670147917837142566e-04
2.060572532847900829e-04
3.108096564596576818e-04
-4.488144484584209682e-04
3.653668679793720228e-04
2.387916788072274395e-05
-1.968615838415365836e-04
5.921207858978411783e-04
-7.567950055725343439e-05
-2.295788773199335553e-04
-7.824283248408265981e-05
-1.275582730264760215e-04
3.202626450521238346e-04
5.819750664920690094e-05
-1.924285744082023940e-04
2.414778965118719067e-04
6.222154186042528961e-04
4.031315786641142927e-05
6.147770221062547058e-05
-1.110487246275394617e-04
8.470602840426468363e-05
-5.523571854710751137e-05
-2.496079751171690285e-04
1.277716924898023650e-04
3.798791989199367422e-04
2.875668408978480957e-05
-2.382347852778027818e-04
-2.084663706656468367e-04
-1.973088223978630820e-05
2.603381557795858862e-04
-2.727468228872787512e-04
4.786339017558507189e-04
4.653659495004318662e-05
-8.184456245993718452e-05
-6.903422942739132189e-04
7.031158217894934760e-05
4.258198675477847740e-04
8.854010900498715466e-05
9.016732088180289201e-05
-6.055996764748435592e-06
-3.147974131301256649e-04
1.309563148161659453e-04
-2.637109202967284800e-04
1.741876589230491172e-04
-6.949941430146409221e-04
3.187530262730364967e-04
3.994330167997849610e-04
2.831364702696531217e-05
3.813292261602130827e-04
-9.337496911341293588e-05
-2.964030721632313244e-04
1.967812745968307731e-04
6.136912792962653448e-04
-3.147830626145779764e-04
-8.248130520752953347e-04
5.583704642405664352e-04
4.429725688799264829e-04
5.827773207008088256e-04
-3.724759294307266504e-04
4.106237185730561351e-04
6.062963697554941235e-05
-2.338013026275317918e-04
6.849920467053766983e-04
-5.955450822815957666e-04
-2.915955427463760090e-05
1.992780885076879665e-04
2.104240001889304040e-04
-7.290709854173510820e-04
4.800769471532641470e-04
4.544355791255237597e-06
2.702427030215291941e-04
-6.510596346067287678e-04
-1.563457018100399140e-04
-1.455663783996268674e-04
1.046962458775752464e-04
-8.916458833485957055e-04
2.059547834271017021e-04
3.080318431286252446e-04
2.415013545508076014e-05
1.205333741696497515e-04
-6.062206147434160498e-05
-1.217693069655624379e-05
3.972196379089241221e-05
-4.356421030840863795e-04
-9.075377189559039070e-05
1.210661779178098753e-04
-2.576939434303336933e-05
-1.837386335349163222e-05
-1.603816871159609119e-04
2.627731394376444274e-04
-2.602002009975199677e-05
3.019788894720668704e-05
1.385037181247941122e-04
1.421256487950988616e-05
9.492731610438814264e-05
3.085680716119807267e-04
2.616699468235369504e-05
-1.990254698636261354e-05
-1.660471106149954122e-04
-1.276995845155277103e-05
-2.294906003725761235e-05
3.360151362091471250e-05
-1.792922434525371321e-04
-1.065532549242116309e-04
-2.368968474060093802e-04
-4.515865916173878608e-05
-1.434184799241184190e-05
-1.035598343487946190e-04
-1.098486213122669848e-04
-1.011114207541658714e-04
2.255106386412663498e-05
1.039834528555531637e-05
1.583488317121032371e-04
4.709496903876755019e-05
1.604753311692377687e-04
3.818923446768191995e-05
-9.612519146299940457e-05
-1.321169862324384555e-04
3.684154200246764189e-05
-9.508545330866678268e-05
2.073957891330664033e-04
-3.188238819282858058e-04
1.186313155984477081e-04
-1.393319036463803507e-04
3.376716241771958368e-05
9.078581622994807065e-05
6.986057717159255482e-05
7.842029338545842389e-07
2.756279435025417153e-06
7.572293696669228017e-05
-2.796853885535758731e-04
4.623656828557730207e-04
5.138039443256924715e-04
-5.582915183488873978e-04
-4.706615850878580307e-04
-3.566249624004411253e-04
-3.791341245358479349e-04
-1.364318511576018199e-04
4.340863359552153385e-04
8.813886692375671496e-04
4.562213470226802667e-04
-4.812539666340920059e-04
1.729145934032323727e-04
-6.034590061175757218e-04
-6.838130030424754177e-05
5.644712787478059891e-05
-1.369809803547236498e-04
-5.743628302914555173e-04
9.024915641074438650e-04
-1.152869395292344210e-04
-2.846322846314388016e-04
-2.085759317118315078e-04
3.679220802572553961e-04
-6.546463592673120195e-04
-5.947402280766855365e-04
2.222051455273970494e-04
7.989526889083092679e-05
5.419096554382179468e-04
3.599309361442261075e-04
6.769110962114644522e-04
5.126989259342837579e-05
3.704203010417429602e-05
-3.320370366508374003e-04
5.511951160104272681e-04
-3.248245453617459757e-04
1.065163925796317205e-04
-6.118490562823386287e-04
-5.992608273111567612e-04
1.201443214683376202e-04
-3.816570722891046290e-05
-7.075397702615440309e-05
2.339211732937463491e-04
2.740696836146863376e-04
1.204111404671868828e-03
-8.570936835257961456e-04
3.887482627980271130e-04
-8.379161872947528595e-05
6.619358559194327661e-04
-1.667224641815434703e-04
7.982067292089852764e-04
-6.857195447219289661e-05
-4.889318329772919178e-04
5.039422352639884740e-04
-4.273609520197654311e-05
2.331422163668660859e-04
-2.247840734744930723e-04
-3.959374571699904094e-04
-1.637676883728817194e-04
5.443076044649453738e-05
1.261248136765403985e-04
6.241957419247049638e-04
-1.784543250047483025e-04
1.855941650777770218e-04
-1.398590514666591311e-04
1.239529513680602405e-04
3.935690646292815668e-05
-2.604402348998552299e-04
7.632872737714896892e-05
2.456738061688171042e-04
2.041063853849538624e-04
-2.789144139401853511e-05
3.345656249342168894e-04
-3.215126066129471373e-04
5.211806365404317542e-05
-2.012222012077415274e-04
-1.992758316423242661e-04
-1.632131709416592626e-04
-3.484905404934317144e-04
1.767411921314775985e-05
2.192547956881715180e-04
-1.182588348612449198e-04
-2.219022919662541832e-04
-9.885997139530064686e-05
-3.449734524977097041e-04
4.443101561051810344e-04
1.760235963812850461e-04
4.031173024534918134e-04
5.122933372993654903e-05
-3.863053427382956255e-04
-6.858859654435399563e-05
6.426075884421086882e-05
2.635094275672101400e-04
-8.808998538442323076e-05
1.798763248408906336e-04
-2.851541245485448997e-04
2.752142263389240821e-04
1.243794877584800827e-05
2.852250806201971577e-04
-9.737275166698102034e-05
1.169276734396057168e-04
-1.431220948321008880e-04
-2.489561725826111384e-05
-4.289666512640926484e-04
3.831370254495103118e-05
1.618262604212239043e-06
1.616789323659415661e-05
3.588408266355416743e-04
2.973528265891812929e-04
-3.795371950208925507e-04
-2.383817997207494954e-04
3.897864368998350880e-05
-1.561873000001747815e-04
-2.292694386909267009e-04
3.148499834599475600e-04
-9.348902783152310931e-06
-9.854214374090756990e-05
-7.442109621339131000e-05
2.256643675601652601e-04
-5.249631734465091710e-05
1.332988133610832546e-05
-9.130682584703569136e-05
4.359183887494200616e-04
4.887824377900668905e-04
-1.077542449681065216e-04
-2.792898543748028413e-04
2.468755916511337087e-04
-2.149959146870218142e-04
1.739462963877507590e-04
1.570445110414124849e-04
-7.748440353200488164e-05
-4.110958508617938435e-05
-4.778883713142841727e-05
2.296813709946179461e-04
-4.152411152357465677e-04
-4.428349184323203988e-04
1.373890372749933628e-04
2.656788520670081568e-05
8.596096094303851739e-05
-5.973172700822007179e-05
-1.936396131912243937e-04
4.592110447415164321e-04
-1.869414477736212801e-04
2.419528444853251241e-04
2.320443543112873843e-06
-9.092540408759591851e-05
-1.540409315334712460e-04
3.928264927907341455e-04
3.184476638615038233e-04
1.654890705842493293e-04
4.533080110621124254e-05
-1.571647533821871219e-04
-2.721678582397134261e-04
-1.402072626135846272e-04
-4.962076169699843530e-04
7.895658911167368992e-05
3.605778605622440782e-04
-1.864086767073434828e-06
3.372185600615378595e-04
1.553036301855613673e-06
-3.923204945672302524e-04
1.582621790868360694e-04
4.734696500439883261e-04
-5.797592267647233321e-06
-2.273798020076992583e-04
-1.457358134437389960e-05
3.020418354546686797e-04
-1.773750257873297521e-04
9.777424440489934350e-05
-1.754490151264160094e-04
-2.597310418926691134e-05
-7.681012182484697358e-04
-5.528882159950539919e-05
-7.889171013709346455e-07
1.826565681328519149e-04
-2.527794709091024704e-04
2.702780097659233569e-04
-4.465686443823125348e-04
-2.677192435186222350e-04
3.033309485958785349e-04
-2.589012374907034473e-04
-4.871585785549811180e-04
-8.692904461161924290e-05
4.353875040744782546e-04
-3.152672768425153179e-04
2.719365678239417492e-04
-9.498530329766935476e-05
8.272272125829976052e-05
2.487314136338192815e-04
-4.993926792214230075e-04
-1.443323670036120165e-04
1.990905286538830051e-04
-8.324252648649188156e-05
-6.828305779773009409e-04
1.728313385270166937e-04
3.285369237253463626e-04
-6.458871378439326027e-04
-2.460633336957752004e-04
3.492805730794107930e-04
3.339069560712106151e-04
1.298471174558729277e-04
-2.727612802570930314e-04
3.431225902290276661e-04
-6.460797886066477896e-04
-8.381775078410135264e-05
-4.800168692909332832e-04
-1.532757663900859136e-04
-1.493181599444065241e-04
9.972848747795467345e-04
-8.134724184133958972e-05
7.836550591022608094e-04
1.097202261091014940e-04
3.041526883121382680e-05
1.044357187395622772e-04
7.160830455640156491e-05
-5.005489379679762575e-04
1.697560776230946575e-04
-2.685890926201693596e-04
7.444092328514297281e-05
-2.299820376210302006e-04
-8.948269875394119133e-05
-5.512362713880289850e-05
-2.320500412087192331e-05
-1.276123384151509749e-04
8.762201886981005848e-04
-6.012421301147677973e-04
8.731177090553774779e-05
1.657007435186944437e-05
-6.939587034664691572e-04
-7.852422793665250452e-04
-1.807234373567375612e-04
-7.081210983872672244e-04
-2.505131188924917770e-04
9.826127134201519510e-05
5.131224836871285146e-04
1.454306064246696712e-04
-3.044931738008927383e-05
3.620346600972150714e-04
5.706322508603114269e-04
-1.176984466480726231e-04
6.440011842411086460e-04
-3.306030475282361811e-04
3.343777354651619846e-04
3.407474182137014581e-05
-3.520767483907690561e-04
-1.320348418218528165e-04
-6.748828346705526386e-05
-5.544676022336521369e-05
-5.083702400710438411e-04
-7.944088203593559954e-04
6.782304590939155424e-05
-2.138773932559316832e-04
3.640870500697189726e-05
1.121343268229925657e-05
-5.516285154764553959e-05
2.288980740697833230e-04
-1.903239403603699761e-04
1.801837439009217848e-04
7.571900265812372242e-06
-1.420932415042396035e-04
-1.319085560052083166e-04
2.238921037756849079e-04
-1.163040872414159717e-04
-2.009852801758980944e-04
4.542718372341440075e-04
1.719742252220713687e-06
-7.530992214172854335e-05
-2.294104233487649126e-04
2.479118347023011120e-04
-2.396895364767790044e-04
-1.867886441419952374e-04
-1.233765235925793878e-04
-2.538483792198687632e-04
1.751643016552301786e-04
-7.374908331386775557e-05
-2.569441411383987096e-04
1.037637619820890007e-04
5.879207898858278833e-04
-3.723527203689717784e-04
1.767762856871398956e-04
-2.240457257197140599e-04
-2.981689127753538041e-04
-8.706331644973713151e-05
-2.175596084647890061e-04
5.550990808534363380e-04
1.805426528272560736e-04
1.666104971729514682e-04
1.806441104380091748e-04
-2.785920162378626493e-04
3.789934353815851086e-04
7.221159929424268015e-05
1.391820245090578251e-04
-3.285992936810471486e-04
-1.466356351287839786e-04
-3.728354025953546408e-04
-3.718789913222213250e-04
3.454422434715779719e-04
-4.473101844339606422e-04
1.037640846864055491e-03
2.522917316878807423e-06
1.378975615607219663e-04
-6.858352547692407337e-04
-1.857745970425345931e-05
-1.688127324197613037e-05
-3.335392321743000553e-05
-2.236838317861464091e-04
-4.659938860692015405e-05
1.503108935887111802e-04
1.988367771074897182e-04
3.159976598525666741e-04
-2.444296327156619819e-04
4.304379794108511529e-05
2.127519052417065017e-04
3.401530570864742136e-04
-4.625740141175869888e-05
3.399742518687221080e-04
-2.849623456381349617e-04
3.241343408510092118e-04
3.470624960131818404e-04
-1.252938549524389036e-04
1.436600195947891262e-05
-3.673140276600432965e-04
8.075405288251454950e-05
-2.744683623000181540e-04
4.521578042338601864e-04
-3.073510420962070866e-04
2.364265037629985225e-04
-5.494155979928376857e-04
-9.835429179163662989e-05
2.272428948526683144e-04
-4.792678703516321863e-05
-3.934269351852612588e-04
-2.673734302603044386e-04
-1.241290806490595101e-04
3.508087140148093337e-04
1.278757467067709644e-04
2.700634842946435243e-04
4.819351266798930291e-05
1.949749446858791313e-04
-2.587944119711444975e-04
-2.212425782086757295e-04
8.670169562329676670e-05
1.170556258719621192e-06
6.075247452733678735e-05
4.037131168830378506e-04
-5.531934478039364430e-07
-1.409018482352982968e-04
2.947989773068648628e-04
8.833532286451772789e-05
2.152846783811458481e-04
-2.889224873177817184e-04
-2.501411958418038226e-05
4.077627104266716906e-04
-1.585306898232335168e-04
5.469892031918052093e-05
3.435808758176628732e-05
-1.807178361760914190e-04
1.076787597352967325e-05
-1.834834871940264325e-04
2.803399366341347067e-05
-7.873767255888736844e-05
7.801383093222869045e-05
-1.922721438711724132e-04
1.827885577052142574e-04
1.909120597452731321e-04
-1.812010467749953645e-04
6.863006336669152030e-04
-4.097531150850224090e-04
1.434353125565426574e-04
-1.223564271082855934e-04
-8.411269794447285653e-06
2.655517530691304845e-05
-2.255168903785780368e-04
-2.073482112915427686e-04
-2.550841258489308172e-04
3.967115298534588652e-06
5.360140447815862300e-04
1.816164264016764229e-04
1.655446598153707967e-04
2.340482776534388073e-04
-5.502700294017658002e-04
-5.535007934736729660e-05
3.442240790850965610e-04
4.432349956006295861e-04
3.917532211803184737e-04
7.038783173322069649e-05
2.316044913020353236e-04
1.478274812457737604e-04
-2.840042195656541511e-04
6.005203941490039115e-04
5.221688029675335477e-04
-6.478236719113153854e-04
-6.279750155362756256e-04
9.174967187147600820e-05
5.093270088802172649e-04
1.026294494229278511e-04
-1.072946203427167875e-03
1.743857825524635491e-04
-8.890408174397490407e-04
6.452512414567531437e-04
-1.589958820827805071e-04
-6.556066650842836644e-05
6.618229641047206524e-05
-1.864201881623137947e-04
1.503798350520651388e-05
1.027561278632905780e-03
-4.485983418875484131e-04
6.229597433419771339e-04
4.104711866085040202e-04
-1.077612364169939330e-04
9.044671115707136584e-04
3.245535311520964753e-04
3.108801955460966542e-04
-1.815489645571276549e-04
4.778338181812723435e-04
-6.956838422934003919e-04
-4.556536545727711855e-04
-5.656918757854860041e-05
-1.969930831498736129e-04
7.963193843238537510e-04
-6.849001111550583618e-04
1.155320160446988856e-04
4.773358633879952223e-04
2.365369610904475761e-05
2.806812331400390854e-04
-8.501836137823080885e-04
3.700113811610287974e-04
1.166860609543177250e-04
-1.119866890782836451e-04
-3.953041147189296362e-04
7.985720449884256339e-04
6.060472181108995330e-04
7.645854629305837580e-04
1.001557887085252835e-03
4.183275969210619718e-04
-1.540398117822336854e-04
-2.572659463878692872e-04
2.344408370621740899e-04
2.482352507054000953e-04
-1.114505797009135186e-04
-3.914336029256623088e-04
7.063397314942202864e-04
-3.486248102136530738e-04
-2.984141324609660166e-04
2.126013739827853116e-04
-1.518170935376760518e-05
4.212280805722348374e-05
-1.153853687895823080e-04
1.536613849419554050e-04
5.359338252105644252e-04
3.900263623006146622e-04
-1.338458261945657546e-04
1.187210758013666930e-04
2.485860208055069701e-04
1.972465741907279387e-04
-1.401103705604116591e-04
4.301711895669923917e-04
6.300841668508436275e-04
-6.123081133018069486e-04
-7.402912077726316910e-05
5.042590557397088127e-04
-3.496711889501495467e-04
-2.728387864996828375e-04
4.412959572247197046e-04
3.227951333355160921e-04
4.340414420828860595e-04
1.041261047725974300e-04
-5.304024984121567560e-05
4.465905079636684882e-04
3.259272412646108813e-04
2.948001837978316735e-04
1.125301016563776059e-04
-3.920473389130834383e-04
6.456058615400922475e-04
4.513469105038088350e-04
-4.594101809041152497e-04
3.898763138848198207e-04
6.549546143233920875e-04
2.906893548648746897e-04
-2.618260864333243074e-04
4.630510085067159162e-04
-3.659417932056658078e-04
1.211105591207826835e-04
-1.102689145881795047e-04
-3.512597328585693817e-04
-2.206598724936402185e-04
-1.548581586195353535e-06
-9.206671290620433465e-05
-1.607956533741006536e-04
-6.409598831854717779e-04
-8.919866947885266733e-05
3.553147139440855661e-04
-1.325302516037497771e-04
-9.196327442339898451e-04
-3.850911355763752164e-04
-2.541401412393891378e-04
-2.120623910289552857e-04
-3.433667826541249996e-04
6.125431356682461753e-04
2.751651593048271005e-04
-4.766062447382804468e-04
-1.793815724754852794e-04
1.309036734328190344e-04
4.081596786073679508e-05
-1.038503326513095642e-04
1.829042873542507822e-04
-9.427151577919273134e-05
-5.664760496757269536e-05
4.814665019747061607e-04
-3.695593334879408655e-04
2.811422656134384291e-04
-1.554998951402241476e-04
3.778419157955137126e-04
8.481892446207228275e-05
-4.562526548047988247e-05
-7.252723083562258115e-05
-2.167059305021883282e-04
4.977609984854463199e-04
-1.751877579544894434e-04
4.932358956170592785e-05
2.313869638787415217e-05
2.420273444518495628e-05
-1.050405043087330900e-04
-2.164220680301497601e-04
1.680426168979751145e-04
-1.740717150643782411e-04
-2.328163195541930314e-04
-1.920691497591430819e-04
-3.910773494366439370e-04
9.863777354152151132e-05
2.292760072684716166e-05
2.545429237903896872e-04
-8.465176839936750398e-05
-1.040852859656982008e-04
-2.980637421968227677e-04
-2.642207978139992329e-05
5.044172531791606389e-04
-2.531357618173387400e-04
2.995185320857249008e-04
-1.582761203458798820e-04
3.404000761771765800e-04
-7.660824910428702531e-05
6.437611242503886964e-04
1.147251280598819093e-04
1.402196769762884161e-04
-5.597839991270454245e-04
4.614456663282436505e-05
6.643668144120599278e-05
-1.908836424624520351e-04
-1.535322710527605653e-04
-3.473300696284077182e-04
4.538350683935176095e-04
-1.076117215846504946e-04
-8.630235330930546519e-05
4.454080783259062011e-04
-2.273723767719302690e-04
7.648258278242702976e-05
-4.739520124966621032e-04
2.657580584807477499e-05
-3.235904280004990390e-04
9.284679407579712657e-05
1.307087136654153037e-05
-3.400976715025008277e-05
3.612231188683889078e-04
-1.779892456725831946e-04
-6.819200047287614667e-05
1.634619663470276349e-06
4.857174666120519331e-04
2.517668762217386679e-04
7.036065316264129344e-05
-1.172150196563212705e-04
-3.957886322623460477e-04
-7.159759527513932028e-06
-3.506879564398664053e-04
6.405252754829812321e-04
-3.450505091172906009e-04
1.528219975903361499e-05
4.540920053617860633e-04
1.202007755279192215e-04
-2.002576522775038100e-04
-6.155534506621835895e-04
-3.478264677267898619e-05
2.846094353424175093e-04
3.830069005575729838e-04
3.339506767784822272e-04
7.314239346236041297e-04
-3.027171832378619857e-04
-1.532732530298242467e-04
-1.401906960869506375e-04
-3.344789088447841312e-04
2.754708920607640060e-04
7.371947216067458906e-05
-1.012742022555246585e-04
-1.045349787065982588e-03
2.012605485718433132e-04
-2.943711083944324587e-04
-3.333925957893457107e-04
2.618574182780316739e-04
-4.794014562470121890e-04
-4.354449151877206377e-04
1.879977288113376786e-05
-4.076659483476753262e-04
4.770954426637324637e-04
2.329429784175393505e-04
-3.073833887089903912e-04
-1.175129360271003748e-04
2.690761604308866575e-04
3.387125824691571813e-04
-2.206991027611542771e-04
6.418439389623505401e-05
-2.841737572778959132e-04
2.412729692814811718e-04
-3.953148708475534828e-04
4.190593461428174802e-04
-4.385771697456159320e-05
-2.924519133636923457e-04
-2.916962794632270623e-04
-4.873249462686377997e-04
4.966528376850222470e-04
-1.280711309017859665e-04
3.905494535797340654e-04
5.791213374792064054e-04
1.058953328458507771e-04
5.920636810503606242e-04
-2.025977626125723737e-04
-5.529493045650227864e-04
4.934553164562176329e-04
-1.095885924736230137e-04
1.410492523034244340e-04
3.326857455029933938e-05
1.031032871024472632e-04
-7.114707225947642603e-05
-6.242739147425386105e-04
9.487682524978802504e-05
-6.254511512261930119e-05
-1.083247742747294704e-04
1.598010175898162107e-04
4.995064926464596895e-04
-2.665103235045419698e-04
1.877753336159407782e-04
-4.687135303728058372e-04
-1.381227221843456807e-04
-1.402071345318072111e-04
8.849768066660891695e-04
5.395654089703338371e-05
-1.498192457541608669e-05
1.690125932347737918e-04
3.188768171349040670e-04
3.199790099730800405e-05
6.394004719901500182e-04
3.286346633162839643e-04
-6.818486427368845295e-04
5.915025206178918310e-04
2.874123592287012208e-04
2.636096165466361360e-05
-3.786057150496811526e-04
1.835210403180296428e-04
4.424082243045495810e-04
-2.496143953383713051e-04
-8.310121366845069253e-05
-8.367357097270001695e-04
-2.915990430114543948e-04
-2.707795596310941418e-04
-7.082190164191368327e-05
3.012559469098459453e-04
-6.336403753201857493e-05
3.570436455851096528e-04
1.316833387567074416e-05
-3.629521005051067231e-04
-1.977213929021120900e-04
4.977630624875049956e-04
-1.847370807008349069e-04
4.869391196613117510e-05
1.130177978597135242e-04
-4.963860134159202037e-04
-7.435017655882540698e-04
4.073202313558913368e-04
3.533986169416685489e-05
-4.001639199781217154e-04
-3.707211019917759360e-04
2.521614280925555860e-04
9.063626359825927275e-04
1.625831288753754034e-04
-2.408244468961525677e-04
1.153757053406766930e-04
-4.803766925371847946e-04
-6.575274563107234918e-06
-8.165534992352098398e-04
7.662696852775100897e-05
1.253968286531429604e-04
-5.751848188424603771e-04
2.843311198735678038e-04
1.431209680009427475e-04
1.157703828932905442e-04
-2.609780779721513396e-04
5.952729890761835740e-04
-2.383635976741346654e-04
-1.810974207195589270e-04
8.976299469318099224e-04
-1.322672700768113409e-05
3.601260829871300267e-04
9.538963852782709324e-05
-4.823796075395792569e-04
-5.491543953372593967e-04
7.996020204100867668e-04
-2.396419339468498614e-04
-6.790547359880036221e-04
-3.998738424362589068e-04
-8.260133099712877944e-04
-1.118828290323639141e-04
-2.539247259930177002e-04
-3.113438508933315469e-04
-9.490760800816926113e-05
-2.613375506947387202e-04
3.282991420030600765e-04
2.270827702388607077e-04
8.307728637835482899e-04
-8.365279092680142031e-05
2.631789336007018805e-04
-5.125009527457345627e-04
-3.962157094413797207e-04
-3.367884886390059142e-04
7.885892512328496499e-04
3.317746087053784996e-05
-1.051402426225093740e-03
3.984445553062288654e-04
8.071525393714795542e-04
-1.953580657605589132e-04
-6.563708997827589131e-04
5.022848088274589791e-04
4.996397040326739205e-04
1.773446936084772550e-04
3.522781862973126772e-04
3.939820277492173898e-04
2.615696385929422679e-04
-1.866884847699760454e-04
2.656745295371643664e-04
-7.891036136966039349e-05
2.243267898721938356e-04
2.275834140309399912e-04
-3.715894849927091023e-04
-1.479392057582879350e-05
5.027306038102598816e-04
3.274423443406481718e-04
1.055201637451915007e-03
-4.188582118635343458e-04
4.045909584674931177e-04
2.167908064221939039e-05
6.519390799681066065e-04
-6.482373543602298267e-06
6.373968475712863020e-04
-3.926705090579673488e-04
1.466952897490802154e-04
-6.396994741730643950e-04
6.997054898983136578e-04
4.182070459853888121e-04
-1.963244594815175578e-04
-5.118148696602201151e-04
4.558379663385195724e-04
8.329421304145431327e-04
4.114359288816361935e-04
-4.992098225786694831e-04
6.093285200591531492e-05
4.955678576190617390e-04
-3.666619754209126118e-04
1.802506875863231007e-04
-8.722430230064864495e-04
-4.231327408714123423e-05
1.097495985165418652e-04
-5.809090174500073723e-04
2.792913299398495095e-04
9.793119230097453655e-05
5.511570752534790347e-05
9.459928384042747083e-04
-5.477743946100493934e-04
1.445922297930236564e-03
-7.368271577483519359e-04
3.062162311910046511e-04
-2.544517681337882657e-05
-3.680460266561955779e-07
-4.457678797536213143e-04
4.451936559082857788e-04
1.839802359607595954e-04
-7.048420166937958802e-04
8.715781956647604585e-04
4.305811693738711326e-04
3.294978286056354333e-04
1.141796303802179204e-04
-1.991016089942301837e-04
3.827345375223196490e-04
-5.596513577736319947e-04
2.068974747117117204e-04
-3.027180532510614355e-04
-2.572192898670683280e-04
-5.222619984912731626e-05
1.392943204728271746e-05
3.604078193189616140e-04
-9.438932097351157872e-04
3.155552703048146879e-04
-8.451216334206319196e-04
3.814306039851226974e-04
8.813346970829372194e-05
3.734972828302675395e-04
2.333392915929377262e-04
-4.325043447688095349e-04
-1.129137131733476559e-04
-9.334003986293434841e-05
-5.468364991354170059e-04
4.629101752995762038e-04
3.084040308547165380e-05
4.972577172817959973e-05
-4.318335755405181952e-05
3.131004589579915328e-04
-2.248092404603608196e-04
6.173090842031449667e-05
-4.943200965723554968e-04
-4.780699303283631406e-04
-1.805537109788546109e-04
-7.961802604103105675e-04
-1.628340380708339404e-04
7.793831658007952141e-04
-1.430079416004147533e-05
-2.060482728028067318e-06
5.191675344717609688e-04
-9.898068704684623146e-05
2.002029878066769418e-04
-5.084283066020162415e-04
1.240419812477785608e-04
3.725708368713406371e-04
-6.797598632019976141e-05
-1.832727901152440407e-05
2.684207638909959313e-04
2.828303966846810080e-04
-2.350255822496282116e-04
3.182448926790824796e-04
-1.411955840463190311e-04
3.652099820865436862e-05
-5.516626607954139565e-05
-1.591059114872479991e-04
7.747661994711606465e-05
-3.688591408737108357e-04
-5.359205918061638128e-04
2.410035421361882873e-04
-4.800664933377130419e-04
-4.071480190437454477e-05
-2.716428634735457560e-04
6.896000835666449887e-05
-8.026489354611009191e-06
2.737699761123778641e-05
9.159828462020490645e-06
-1.325012722121132671e-04
4.675078162740627010e-05
1.364999839616842889e-04
-8.566339469731769937e-05
2.745502696128191366e-04
-8.017430035807062046e-04
2.657613995683635226e-04
-1.257660559161259684e-03
3.570749140996416191e-05
3.709773924445111692e-04
-1.301051082100258783e-03
-2.554973806479044558e-04
-2.102194174636393283e-04
9.749965123544273855e-05
-3.330817805965696874e-04
1.242987838683006375e-03
8.550247874863079519e-04
9.034498633742367034e-05
6.747117757605087130e-04
-4.397949549964484824e-04
1.441629604915737439e-05
9.389972710175455454e-05
-5.444509430610696993e-04
-7.971390812293885440e-04
3.527296377659908740e-04
2.355352793994693408e-04
-4.134072274011456783e-04
-5.460820322053612421e-04
-2.502462656878813932e-04
1.558435641103765937e-04
-1.232070221084670359e-04
-3.321049604448314172e-04
-1.463706075265111908e-04
-2.206631831478601704e-04
-1.047114150103722804e-04
-1.608830277345728148e-04
4.497046381627402517e-04
1.278181025806619569e-04
3.442798390794341501e-04
4.206652750113344772e-04
-2.689679728514145544e-04
3.375036750545079496e-05
2.723212713152321730e-04
3.621261522420138584e-04
-5.360498750298032036e-04
3.488453299807310246e-04
-7.528386353070843154e-04
8.186065413943437055e-05
-3.708575480462681338e-04
-5.033363863818122400e-04
8.365704962932680056e-04
6.784618457128327668e-04
3.596085608162956143e-04
2.774743006466097602e-04
5.056091401526329517e-04
6.808905050707024596e-04
-7.890342592862674594e-04
8.071107652100013635e-04
4.499011279789077999e-04
2.386988923596027122e-04
-3.045067961626989547e-05
2.799513052660407612e-04
4.413057030332444850e-04
-8.521752366797457809e-05
4.256964368425223316e-05
-2.789848272328564042e-04
-5.828149776296589427e-04
2.674691372927923659e-04
3.632823919534322035e-04
-9.187755060220575195e-04
1.075840722513446424e-04
5.606916610925235947e-04
1.516544865165389512e-04
1.775141349229034517e-04
1.817207938825418466e-05
8.897632163856662909e-07
7.266065575472653300e-05
-4.233305749506790540e-04
-1.705124764638914225e-04
-3.271674257631309213e-05
-1.997103181166400693e-04
-5.523039336111870310e-04
-1.522902312184071633e-05
-5.322844693311695784e-04
4.714973891317259490e-04
-3.357782353896592172e-04
3.526779809421698030e-04
-1.807691260333038597e-04
-2.216214184451457730e-04
-8.610207033795138059e-04
3.171866454334786446e-04
-4.380814408878078116e-04
-3.319510529384887506e-04
-2.819831072719359565e-05
-2.903581368971531193e-04
1.759492443098051664e-04
9.665080757803064379e-05
4.608826216303571574e-05
8.453004669243666851e-04
1.126876607145276590e-04
-1.163984950079221230e-04
2.681736961585478229e-04
1.367328948687663052e-04
-3.055002436009835679e-04
1.020588232695170702e-04
1.869715187849958337e-04
-1.850073697951175680e-04
5.382421059406952094e-04
-3.926452255525390541e-04
4.724838995208801955e-04
9.913913522853641785e-05
2.382635056758922783e-04
7.088505284653293494e-04
-5.293335746256091351e-04
-5.122681334509342991e-04
4.608419454055876657e-05
-7.620552259479424113e-05
2.969435051539456708e-04
-4.147829918177054799e-04
-1.329897659299951788e-04
-5.768972845302736260e-04
-4.261601707300750148e-04
7.172485087220498926e-05
1.019038205512277223e-03
6.591799279034274602e-04
-1.256184942067832468e-04
-7.043135276078824904e-05
-3.631964209721830401e-04
3.897082476244356081e-04
-1.511762287099826922e-04
-2.041541663671553059e-04
-6.818082455501950877e-04
-3.043415936240369897e-04
5.255565393477717876e-04
-4.279277134910681318e-04
3.261760016365528882e-04
5.862641152365646174e-04
4.224312393959097473e-04
-6.545538511114211335e-04
-1.292779900383816960e-04
-1.000286987446784683e-03
8.205434432365548477e-04
-1.183384286037694614e-03
4.766735424283734257e-04
8.157217295357039471e-05
3.259378178439444702e-04
-5.241226704776023870e-04
-2.394481713112850245e-04
5.372651245124039816e-05
5.381977157532051017e-04
9.027495699794180466e-04
-6.031199217317172612e-04
-3.966223501690738164e-04
1.619265233382368926e-03
4.348807548407309471e-04
-1.181213765563965054e-03
-1.340234715231159498e-04
3.825715448672517473e-04
-4.284638566327633345e-04
-2.703244846848995380e-04
6.033422853421617753e-04
-8.372386806575264585e-04
1.032849291069331632e-04
-2.195800236020590906e-04
3.501496502729081772e-04
1.210289054514402459e-04
4.226725139561922427e-04
-5.632496769443701075e-05
-5.831944985136003953e-04
3.456678606968495893e-04
4.848769528359594093e-04
-6.358507413852719460e-04
-7.179812428343606071e-04
-4.919151502742268684e-04
1.442386808027016861e-04
-3.628981729842558333e-04
-7.965562264252421844e-05
4.497024957238473592e-05
-8.557213727660451246e-05
4.121796899444792191e-05
-9.750157298228179312e-04
6.991724640070944323e-04
9.815258486078209683e-05
8.205273086974834143e-04
-1.070189898945939858e-03
5.274299109317102116e-04
-1.674939547237466785e-03
5.215476088285186593e-04
4.658952666690804509e-04
-9.349367167405737197e-04
5.151185510152987744e-04
4.524728287110631924e-04
2.811377863533599656e-04
2.588343049817478053e-04
3.576201772949169015e-05
3.034264793673410471e-04
-4.076826848360807251e-04
1.537878531292076424e-03
-3.895284188443864080e-04
3.875031619492660430e-04
-2.306871617403297159e-04
1.425118392614589452e-03
4.868403186459418206e-04
-4.726474683108713407e-04
2.785513006254177718e-04
3.462747232298564134e-04
2.506229374978075075e-04
8.788254579038669127e-05
-5.104241221132451789e-04
-2.682772677204316863e-04
-5.418675795870733433e-04
8.574690278881760613e-04
-2.009565568296332026e-04
-8.112927558245376387e-04
1.646802189693677865e-04
-2.931569609923927416e-04
5.124496045131694474e-04
-2.709159071283223728e-04
-5.625010133327984886e-04
4.209063928493575620e-04
-7.005020675374560787e-04
2.629743869150341575e-04
1.386097349520917058e-05
7.356597058213612626e-04
2.812392670466818279e-04
2.723524315400747357e-04
5.609203562664680578e-04
6.573709076611343220e-06
9.335338591355088369e-05
-2.851528389846607670e-04
-3.348222083224096433e-04
-2.565582894658787762e-04
-4.014128451305138279e-04
-1.511624954768431349e-04
-1.904255732415220204e-04
8.370874391966612749e-04
6.818663262628236630e-04
6.797441769553155561e-04
1.780744640221770629e-04
4.231708311136288757e-04
1.365588904340186765e-04
-5.809003413419549844e-05
4.469522980264104342e-04
-4.095205947711096106e-04
9.667708659765025716e-06
2.236526371047388580e-04
-1.487944928000164773e-04
6.116734802874762327e-06
-1.953348529265305344e-04
-2.115080592239275284e-04
-4.161312360518689329e-05
3.031748093141835082e-04
-2.865643259563164656e-04
5.682485081969407313e-04
-1.611322875686101749e-04
1.057681895363912691e-04
4.693897218032222420e-05
-2.355609709835537684e-05
1.223975264454535557e-04
1.634175557189674905e-04
-5.561898615298700244e-04
8.615643057339142797e-05
5.013458123183856983e-05
2.548086434308419494e-04
9.981830121665746401e-05
-3.221705900352278031e-04
-2.792401900593361515e-04
5.312649847425173887e-04
-2.905644201001980013e-04
-2.914048540005590620e-04
-3.834697045722579561e-04
5.730997394470601519e-05
1.088917259485939473e-04
-1.001318755659603993e-04
3.785084360056776361e-05
-2.097182117391420281e-05
-1.003640920651876166e-04
3.357927093296942246e-04
-4.955776203662509661e-04
1.089589916940457800e-04
-1.471451710370241448e-04
-5.732690190646585462e-04
-1.772315946723850900e-04
-2.895981530124459359e-04
5.944442433495418683e-04
3.954083687962679311e-05
-1.866217971480166912e-04
6.101040134459623189e-04
-4.774132691036657742e-06
4.264684034095688218e-04
9.582455400533940247e-05
5.193140224558208352e-04
-5.845905266703048733e-04
4.050351225055720799e-04
-6.925550805520493505e-05
-8.973973871731845181e-05
1.779993111099297844e-04
-1.103363703004655384e-04
4.810615236390774325e-04
2.566376916830285506e-04
-5.963531896717933682e-05
2.744519017847610060e-04
2.456979678794435460e-04
-1.840436488953875227e-05
3.107386983899335228e-04
-3.097010767931542008e-04
5.867731765656042608e-05
2.141343933769229073e-04
-6.212798507633313647e-05
-8.373238729719346550e-05
2.547410331828418970e-04
2.283157006496345143e-04
-7.801651909048033676e-05
2.329486015690919237e-04
-6.021656779519407804e-04
2.607033465646203590e-04
2.229425768633375962e-04
7.109013591303227862e-05
-4.149915699456814956e-04
-3.190676929583957698e-04
9.507262769466271347e-05
-6.633593293424059701e-04
4.113632237277840592e-04
-1.823086984724927109e-04
-1.820077456626107391e-07
-2.222679763911344800e-04
3.077437901151591965e-04
-3.414585644551712388e-04
1.113141636338441792e-03
-4.218278519167598453e-04
1.012211016452941930e-03
3.204638760968508797e-04
4.563709616980414019e-04
3.136339326205446042e-04
5.920680176224225747e-04
-3.669306874868230161e-04
3.548620985688177723e-04
-5.296006547016649229e-04
1.140172976840550349e-04
1.287064245930121681e-05
-8.387362566473726528e-05
-7.057876373330813674e-05
1.228114620262647273e-04
8.529037305665006490e-04
4.115669807694135826e-04
-2.527971262618635123e-04
4.627066105377191204e-05
-1.152577834407929368e-03
7.658077943805771280e-04
-3.762638608781937086e-04
-3.278835199205510612e-04
-2.594295685188782274e-04
3.968516712240636210e-04
-3.112367741032993646e-04
3.183869459480459518e-05
-1.059677057335188218e-03
2.141385170720207817e-04
3.647619109344401971e-04
-8.791998308051529143e-05
-1.588915002378839736e-04
-2.483151154448544513e-04
-1.564697644847914525e-04
8.523599333696783560e-05
-2.467780207057668142e-04
9.025229856845296331e-05
-1.382128148614907535e-04
-4.641422461082494642e-04
-9.550004174923800880e-04
2.961667423099855032e-04
2.372072675401168992e-04
4.592661401261253877e-04
-6.415300168438957363e-05
-1.040707451159134529e-04
6.572767154408059231e-04
2.911108627819753900e-04
5.236680674282886755e-04
3.911305856692748003e-04
-4.930968077518158705e-05
-2.617287322092682863e-04
6.316793004681348642e-04
2.971395229563933340e-04
-2.464069181289402373e-04
-2.223536061172612030e-04
3.251975672838177366e-04
-7.605887881329738984e-04
-2.439452561931078215e-05
1.821892996656408802e-04
4.807594885642531095e-04
2.298277861538482582e-04
-3.187982876263022441e-04
-6.976222213363571841e-05
2.946473190205185929e-04
1.854374461491048768e-04
3.721794665598858747e-04
-4.331081569912501061e-04
2.229579681654337555e-04
1.740298987405973757e-04
-2.651428345842243243e-04
-3.570021914786255797e-04
5.545831835915129631e-04
-6.884834465469639444e-04
2.544866268104167785e-04
-3.166197613064694431e-04
1.588090606039786127e-04
3.464930048150940338e-04
1.456698087891025218e-04
-6.799696943407084046e-04
-6.626384755739455745e-04
6.989408426587062672e-04
-2.789837840369811806e-04
3.104276629092515274e-04
-3.816934046840413292e-04
4.801858441775256101e-05
-1.944133754009053181e-04
-9.322919130106168664e-05
-4.478089742045855519e-04
1.128239721692272617e-05
-1.489672600894748988e-04
-1.914287432164857750e-04
-2.331582416538868351e-04
5.213523968408357646e-05
1.807281286578830211e-04
2.288582371615012088e-04
-1.816283158387929208e-04
2.464302044323704295e-06
-9.184774521872219200e-04
-2.486536535932071094e-04
-6.743264535384000270e-05
3.120442035968989795e-04
-2.389463234878623369e-04
-9.919460633611020225e-06
2.420901755006600467e-04
3.683525840777744404e-04
3.313827245454776171e-04
-3.207253345821549535e-05
6.285185427320732609e-04
-3.160813155887462689e-05
-1.270113688170440515e-04
2.124993390010118048e-04
9.794219074102401411e-05
-2.341575386978519795e-04
-1.327179481654465444e-05
-7.440092725125859677e-05
2.697647578526380133e-05
-4.006025754404173597e-05
-8.636639897147764706e-05
9.435939797563029738e-05
2.010081464456023868e-05
6.620401181903746665e-05
3.730855239564277205e-04
3.417851928310533115e-04
-6.571057422575168482e-05
1.422741210246247431e-04
-4.645619179585389340e-04
5.602618461996188882e-04
-3.062747165427804480e-04
3.824407675884321646e-04
9.836002321615824068e-06
3.485849066201749118e-04
-3.356317246889761312e-05
-1.085449234642364317e-04
4.085468920966804098e-04
1.399893529234081942e-04
6.259148179688255780e-04
2.343350197874964418e-04
5.218459178418669784e-05
1.635706808569253716e-04
-4.954277557269771981e-04
-4.162283239957865664e-04
2.921799790226320024e-04
2.755494858975128590e-04
-6.016501083493565197e-04
-3.486978438869167522e-04
-6.948445515365899621e-04
5.462709157182698877e-05
4.232813475192414264e-04
-9.727106990603083406e-04
5.124526962766451105e-04
-5.140550258716862194e-04
7.684859973722754384e-04
-1.188612331973079258e-04
2.983289863622763552e-04
-9.048612084112158793e-05
1.673645109102532102e-04
1.873753493360861687e-04
2.084679529662608838e-04
2.789006632482283143e-04
8.799752645512154241e-04
1.748747781685360849e-04
1.728065262407447317e-04
5.992441728227072871e-04
-2.303935238784944736e-04
1.823067927835684741e-04
-4.068794029374164702e-04
-8.925974985111569614e-05
-1.413195693499783977e-04
2.336156956375709352e-04
-3.059446300150312978e-04
-1.082559437210076574e-04
7.157129733565309763e-05
3.103757074762360105e-04
1.363765760261504269e-04
1.674664492007471681e-04
-2.495395255833435136e-04
2.293839439127812120e-04
-2.957343657863806480e-05
-6.163370747444539034e-04
-1.353331382870014924e-03
4.286368843304512411e-04
2.680960091207754267e-04
-1.587026489692170284e-04
6.469117060967930043e-06
-1.747485574630638439e-04
-8.970081384346310829e-04
6.702423215758517060e-04
2.525203254579367522e-04
5.155893471916014908e-05
1.271288801173829782e-04
-1.504735950329020276e-04
-1.509272907170120957e-04
2.361513851795614329e-04
-2.661383541080010787e-04
-3.341617352997419124e-04
-3.685711680855654777e-04
-3.758871459311015004e-04
-1.500785129099017749e-04
3.400452543495476911e-04
2.789790477079651283e-04
1.860011182239888772e-04
4.106885347310966776e-04
