# autogen test
# 
# LAMMPS SNAP coefficients for W

1 1596
W 0.5 1
-5.306042525059267767e+00
2.547279491191347875e-02
2.222623492893902042e-02
5.201445532570118241e-02
-1.547543214735175830e-02
2.783085387262369537e-01
6.573449333751388290e-02
3.210626936121718723e-04
-6.524882097345344537e-03
1.271384866517953627e-01
1.002663065025062722e-01
5.170524362517091299e-02
9.896819172325319047e-02
2.693192110113817005e-03
-2.060388420772644308e-02
2.986734902251330509e-02
-6.847739065889085243e-03
6.777907953786678485e-02
8.992779639514447698e-02
9.432664245137228551e-03
3.629986405340949324e-02
8.831373288201705123e-04
9.890729044522410945e-03
-1.987271273909431250e-03
6.771806427127341488e-02
1.077474931954335580e-01
7.028285584037068101e-02
6.138452322910194908e-02
-2.766990847061430447e-02
3.605102471380568913e-02
5.049713790845068717e-02
6.766530987104725850e-03
-1.032394227368091215e-02
-2.053386664613422383e-02
2.396405503259572967e-02
1.011501794266936455e-01
2.881365829368628343e-03
1.147318473789808203e-02
5.580736048817725586e-02
6.700899873050711331e-03
3.032983744523760211e-02
2.084872179239890405e-02
1.265809414972122147e-02
6.354064321504552127e-05
7.486482801195827597e-03
4.045257986165104458e-02
-6.469563728597853280e-03
1.237443684744096890e-03
-1.515789503492838105e-04
-2.367075694566724182e-03
-2.583653251991767288e-03
-3.349848994301989698e-04
9.319853663473503039e-03
1.727923570691445448e-02
-5.625126036625503236e-03
7.689091326472309584e-03
-3.621936523372392054e-04
-9.578147413984012507e-05
-4.304727843306831322e-04
3.113058895431327321e-04
-2.579743458278744824e-04
1.832623292077310926e-03
1.491046097203626328e-04
7.166545458726117064e-04
2.163373107526165499e-04
-4.988445061863695362e-04
-3.775325965473211201e-04
-7.349317017870020743e-04
-5.284021378082521961e-04
8.188414155499867031e-05
1.039002545817158070e-04
2.238304030127846061e-04
-1.748337759691744118e-04
-1.206227367127297729e-04
-3.028742363617916984e-04
-3.661018180554502814e-04
-3.474819935028970730e-05
2.003034485205454753e-04
2.971398535935794753e-04
-5.518863982226596219e-04
-1.326304664793167176e-04
7.814127436838219816e-04
-1.157260302007749120e-03
-6.809628316810078250e-04
-4.534821586008613457e-04
-8.317624375036881132e-04
3.213292218673441847e-04
-2.721288906066264860e-04
1.333839258575380366e-04
-4.994827742176271689e-04
1.912724254388645110e-04
3.507690276766489658e-04
-5.625207749654535187e-04
-1.182552017495471072e-04
-5.288387385443446662e-05
1.819626032726409659e-04
-3.914265231143254056e-04
1.807831723762072550e-04
1.134451989020120437e-04
3.525662569578417354e-04
6.040402564652489099e-04
1.205705987535330478e-04
6.745645121096141561e-04
2.761629409158695135e-04
1.776445372233156331e-04
-1.049185054978071471e-04
8.477808630979826419e-05
-1.103922009454440776e-04
1.967472432724950765e-04
-1.050484958854662899e-04
-2.655238277405612998e-04
-9.414123242083038989e-05
3.643510628544545057e-04
3.611349545679540750e-04
-4.074948797968639953e-04
8.300934370585986858e-04
1.241259802494338108e-04
-4.207234423444823087e-05
3.719964078114571643e-04
-3.681293731300016399e-04
-5.607201870037767334e-04
-4.114623882121687631e-04
-6.147332031464141982e-04
8.905655431377574888e-04
1.997583315138399737e-04
7.251340613467659104e-05
3.822895750295513852e-04
4.898556192352634129e-04
-6.989415511441834754e-04
-1.987365322955980641e-04
9.475812610877023948e-05
-5.881347777886579463e-04
2.558064543700909195e-05
-3.169440261759806469e-04
4.333796094068568042e-04
-9.391009041322439306e-05
3.048634210398845417e-04
1.963936448919795003e-04
6.197301697655636715e-04
4.557118140751836486e-04
-3.247511488265013291e-04
4.285218929682396206e-04
2.213278493986936372e-04
-6.631799529275815303e-04
1.067837877737063318e-04
-1.092751160680609538e-03
3.955802415440170779e-04
-1.887727422102737380e-04
-2.840823527263705794e-06
-6.544658363407775733e-04
-3.180515660989923030e-04
-2.935762901043293218e-04
-3.247847782760226749e-04
6.540877835204116650e-04
1.720350428546138348e-04
-4.219696606600893099e-04
6.776791435953385696e-04
7.448061164781905746e-04
1.109231540266199202e-03
-4.247861977713637068e-04
8.937502221283361373e-05
-2.716185761278913256e-04
-5.079171004161754654e-04
-1.076250321530027596e-03
2.289254556915159828e-04
-1.473770720822902187e-04
1.685022118514873908e-03
-7.202825798995375010e-04
3.608372637487047081e-04
3.771609722560317879e-04
6.296154561474975224e-04
9.914899116857671157e-06
2.576505572853496503e-04
6.081949975429786111e-04
-3.963233407860096208e-04
-3.991006407174712092e-04
8.872064782178282682e-04
-7.516534134114229550e-04
4.223088019343604793e-04
-1.302530886997585718e-04
9.039279543171688345e-05
-1.154611945675138859e-04
-3.428250596392075789e-04
1.656457971335232422e-04
6.652061063295783348e-05
1.259151436380842723e-03
-9.462596627654151077e-04
2.722805889850956826e-04
8.381036705500974175e-04
1.134111991173894626e-04
8.054918168054001483e-05
-1.349833073728973186e-05
-2.594660000836357950e-05
3.810453124397860064e-04
2.496880032659512289e-04
3.907830826160407604e-04
1.139910003041546779e-04
5.001539461560585239e-05
7.091394905803298466e-04
-7.238413656589372898e-04
8.631338286746306017e-05
-9.906338151741130125e-05
1.470424565461334509e-04
-2.350236266077931077e-04
-3.348596256552417130e-04
-2.581466591992654367e-04
-1.012054425079139935e-03
5.052340261524680166e-04
2.388152392791588203e-04
-2.408789818938974136e-04
-3.572215017021689997e-05
-1.289621342646492740e-04
-4.229388014838170672e-04
-1.536552335407804560e-04
7.995836873832815658e-04
5.713526905669845781e-04
-1.043844235296138682e-04
-1.267856273909263745e-04
1.194186933039099183e-03
7.646137730679249751e-05
4.806018136729982705e-04
1.475134020942531660e-05
-2.253538881219330469e-05
6.841320643174742542e-04
-4.889987224577020978e-04
-9.793858204525324532e-04
-3.820341019020307674e-04
5.532508181617768568e-04
6.202515666607942915e-04
-1.223504584338051728e-03
1.215452953340022705e-03
-2.128336279678043569e-04
9.140443252922493328e-04
-3.567258255120784650e-04
1.053068070135888303e-03
-1.711467318876329141e-04
-1.564553239550797812e-03
-2.164888125692163449e-04
1.273849228641946163e-03
-4.576213566494077758e-04
-5.344246215069418634e-04
6.612295979126257090e-04
1.582425760043476874e-03
-5.497397883624809177e-04
4.210653068438058788e-04
4.788562566256984992e-04
6.462213099790071894e-04
-3.996874480955372620e-04
1.264635561497423058e-04
-3.170911046285830636e-05
1.973347022320453452e-04
-3.368245884332850618e-04
-5.060569895849315308e-04
-3.819005592396414249e-04
3.435399718360624354e-04
2.131514609045887659e-04
8.375589898871532235e-04
-3.480671034467018880e-05
-8.891316434179094281e-05
2.020037922491200370e-04
-4.588504106415438802e-08
-3.569987040792584775e-05
1.475579830463450817e-05
9.926016308081371357e-04
6.779050767961262297e-04
-2.093189115707310669e-04
-1.512848635114886966e-04
2.662324919236302295e-04
-5.976282923821147263e-04
3.985806939857745770e-05
2.349196941319358679e-04
-1.341248639274087026e-04
-2.491748461457774237e-04
1.588633059058382039e-04
-3.776497253041796606e-05
-1.126871767549170183e-04
6.486727649035838169e-04
-5.377302353931878416e-05
-5.347185010922057054e-04
1.269531871099593241e-04
1.379607525748329780e-04
-6.959754577336956091e-04
-1.997220810135639905e-04
3.931642531273405453e-05
1.852222764187303220e-04
5.849535416994837531e-05
8.735396904473418777e-04
6.999222028749383772e-04
7.019073770090363624e-05
2.628879506167459707e-04
3.981656479855345539e-04
-1.970635295360487519e-04
-4.684677814152025358e-04
-3.558904006790015160e-04
2.257438926354991913e-04
-2.931570164330458408e-04
-2.308808102121871482e-04
-1.792905355128937399e-04
1.743976187356676452e-04
5.078389006391297546e-06
3.138344808261501941e-04
-6.455496404272749412e-04
-4.174346608454014741e-05
-1.609068550432299387e-05
-1.289531627918462299e-04
3.228047424688875269e-04
-2.845557194773484962e-04
6.098106142185758801e-05
-2.914188275513029773e-04
-1.307729222536001224e-04
-3.225722121600074722e-04
3.215101634646772900e-04
2.136394172054439174e-04
-3.578420415457074467e-04
1.134362604641922230e-04
-6.654070141330586767e-04
2.930688816814432476e-04
6.454711653711900496e-04
-2.519087712358829517e-04
-3.122129115709489046e-04
-7.679833688549799484e-04
1.023229489352005868e-04
-5.443162515962412205e-05
-2.410547879887414366e-04
3.379591451727792691e-04
1.875414590614425989e-05
2.910453024772672757e-04
-7.736952030241628277e-04
-3.152117521343143856e-04
-1.142098486623318492e-03
-3.627420102484355544e-04
9.124567128597177272e-04
-2.538075786602797318e-04
-6.237236220379163655e-04
5.878670045373653305e-05
3.498712018196928190e-04
-6.554654472431462042e-04
-4.961971433619260423e-04
-5.785234249818067484e-04
6.856492797937624667e-05
5.548993368114876366e-04
1.304526599224069966e-03
1.025945912316046904e-04
2.744372217499950364e-04
2.019621787721736074e-05
5.329535652208652202e-05
2.214136735237126348e-04
9.893641950136687971e-04
3.530397911303614499e-04
9.774802422920132478e-04
-5.583308418831563983e-04
2.832951379735249974e-04
-8.641245950905155704e-04
-4.604825148261727547e-04
-1.630887495943462648e-04
-6.978968719234334523e-04
5.007443019449237236e-04
-4.013632781693926978e-04
-9.804266324631271800e-04
-7.430379111641020624e-04
4.094182904604778701e-04
5.961714762685436681e-05
-5.582719716068966585e-04
4.130845807499108663e-04
3.568323887452024392e-04
3.832590166811765658e-04
-8.632083148497714372e-04
-2.026951915767289509e-04
1.211393439867814326e-03
1.224988215796147216e-03
1.837061702850673842e-04
-1.572252627324396317e-04
2.259562531695233259e-04
1.156592329715775883e-04
3.755301691894335722e-04
-1.023597503096410375e-04
-8.600485391259815452e-05
8.068886068167610819e-04
1.036094299270493360e-03
1.406989978327580443e-04
3.640430980455451365e-04
1.260763633649757838e-05
-6.324629255779876027e-04
4.817549445436537770e-04
8.317354205890073113e-04
-1.128558352124091379e-03
-9.241994759345801636e-04
-1.711503300636172656e-04
-4.600548234644890309e-04
1.229313258085312831e-04
3.538690488137199758e-04
4.548906674866049052e-05
2.915294639604639132e-04
-5.686990799915063498e-04
-1.312262321999260284e-04
1.593928962272091806e-04
-4.087497546408451601e-05
-7.756649457693876298e-04
1.019543191136303704e-04
-4.821867862449741505e-05
3.864752930298445861e-04
5.659136238831199983e-04
1.474596375803850524e-05
2.363014899692266629e-04
-4.111247840640189135e-04
1.556121834200425904e-03
-7.744804533642902263e-05
1.228789304802491028e-05
-7.320007074250717944e-05
3.831736971153319846e-04
-1.027338021788252228e-03
5.543370878041970883e-04
-4.236984034100587434e-05
2.301624281560181906e-04
6.863732245133082228e-04
-1.099333572739271780e-04
-6.771968943742082917e-04
7.979541964273244086e-04
-1.315608374043752201e-04
1.767231894988360733e-03
7.510553299828841550e-05
-8.185812004537594685e-04
-1.160654138387600103e-03
-5.299155600113066933e-04
2.368768241363631167e-04
1.856566968426185738e-04
-9.952623022923869089e-05
-1.992183638794016291e-04
-3.301897085433152124e-04
4.298879836600622028e-04
1.445555294438215189e-03
-4.842607609916462462e-04
-4.757284328236111221e-04
2.784112891139147220e-04
-1.456760405302666352e-04
-4.540907107264469719e-04
-4.148397424288284205e-05
-9.539919951665601144e-04
-3.418788604201544452e-04
2.710688658167788550e-04
1.517551810644007771e-04
6.937119526469816581e-04
2.837239032858375606e-04
-3.170377345872599922e-04
-2.887939096322415713e-04
1.462167901255497155e-05
-6.106280293555009899e-04
4.517993810868304021e-04
1.942954388718600052e-04
-6.719935650127035771e-04
-2.471828385657549539e-04
-4.882530054486205746e-04
4.064018679586802981e-05
-2.016101123807493894e-04
2.453938953941007693e-04
-5.455166330142229751e-04
4.859467805882681352e-04
2.302202898732491103e-06
-4.547616208979004550e-04
-4.108343995038390311e-04
7.081685476330828836e-04
7.458858174185395993e-04
7.333203558643773328e-04
-4.861249203916028806e-04
-8.515638638608634360e-05
-1.553226441478869953e-04
4.506310846694294562e-04
3.820215702728802626e-04
-3.101123633492171164e-04
-4.869663911134583918e-05
-5.449698200696877817e-05
6.284255859260654258e-04
9.711427453080205815e-06
5.372013413989193973e-04
-5.641639827932156098e-05
-5.079244104364281009e-04
3.318499132455228788e-04
5.127709694802858303e-04
3.463657976491384257e-04
-4.205385183770377782e-04
-2.172595591853562237e-04
-2.020159288623593933e-04
-4.017847036030342618e-04
-2.558714382335695132e-04
-3.828425223650711658e-04
-7.105556676280405009e-04
1.231937210351543915e-04
-4.353991769344911977e-04
3.735041459665211310e-04
1.717910564888945851e-04
-1.150374070154777618e-03
-4.843413173482369392e-04
1.901671908057433135e-04
-3.660131933762782543e-04
8.507223563800430342e-04
4.103082741811745252e-04
-1.190958152983750008e-03
5.699191697838932192e-04
-2.288319342627492001e-04
-9.076861594962644993e-05
-3.152829174341686275e-04
4.076397849120066519e-04
-9.048334800926483229e-05
-4.262852560699546714e-04
2.617703688550019172e-04
9.575412553845817675e-04
1.840027290070621324e-04
4.249975762380766610e-04
-9.448157989706415993e-04
2.851519189634951755e-06
-3.723253063742135123e-05
-1.897470267655506975e-04
-1.691712990777208107e-04
-1.483970046197653101e-05
-5.415195030925583526e-04
-3.424068803093043077e-05
-9.461346342229105767e-04
4.984010344188104539e-04
-5.451497400959329784e-04
-5.438536321239355103e-04
3.661795404619690750e-04
-3.263740720338219168e-05
6.684779702239649745e-04
5.146760438334643681e-05
-2.732272588236837494e-04
-1.543041205697201067e-04
7.583975506277958374e-05
4.227629537834015172e-04
2.854989035655835974e-04
1.648442882309326745e-04
-5.621065945626618418e-04
-9.765966216901849403e-04
3.730064643036699466e-04
7.182825497580181534e-05
-9.206561927796196628e-05
-3.210492452187580685e-04
4.110696599265943997e-04
-4.617895237655102853e-04
6.851619366932923698e-04
-5.489544821221591878e-04
-3.643459582785069160e-05
4.290240922904210372e-04
9.521320409171053810e-04
-5.329442221779499052e-04
2.911776416515094259e-04
-4.490334552759889957e-04
2.309853248023077828e-04
6.415940449417193965e-04
6.281386319839853897e-05
1.228747218168783472e-03
-8.610714446595254103e-05
-1.007181748213546247e-04
-5.130465209396838262e-04
2.658664212177079219e-04
-3.394507129515181732e-04
-2.974758763043805205e-04
6.221979534028825812e-04
-9.784866967527811044e-04
-3.138798699583976188e-04
2.425988701225574245e-05
-7.563109841317221336e-04
-4.328398605734881427e-04
6.196387470559253053e-04
4.676589401809671783e-04
-2.527193965971699175e-04
1.254059380226313944e-04
-5.186471440576543110e-05
-3.440537825194737867e-04
4.406394425488923284e-05
-4.076766229960643821e-05
4.056614046565560163e-04
5.068906799107808546e-04
2.609365286954217216e-04
5.966724873693738307e-04
1.038677547518322784e-03
-6.562417998555316418e-04
-1.950777472342145433e-04
4.241360977378868277e-04
-3.217858420739878194e-05
-5.033085703678842837e-05
-3.079960864843380797e-04
-4.559354188540296168e-04
6.078539013642386690e-05
1.041776319071908687e-04
-7.309057286052870073e-04
-5.602262728421524484e-04
-2.981523436259050615e-04
3.162910387772340935e-04
3.758103286313458995e-04
-3.982020619278835638e-04
3.551613458417503082e-04
-7.431061827544494555e-05
6.354248185485082646e-04
6.890724847956383855e-05
8.833348558373426687e-04
-5.391335397155246761e-04
-8.899312995345109653e-05
-1.174567276900772173e-04
2.460942532234845315e-04
2.227443006197254635e-04
-6.821454876387835419e-05
1.532753665002525357e-04
-4.209979276097430812e-04
-9.178738445498909986e-04
3.581777845143622151e-04
1.041390343436865863e-04
-6.582657668545792949e-04
-1.009834402685574970e-04
4.854353552296352477e-05
-2.685612007280657938e-04
7.246673951027443779e-04
-6.634881080427557868e-04
-2.757911966807767025e-04
-6.716103820133857976e-05
3.064852217762893943e-04
7.528477108701893839e-04
5.069406492549685759e-04
9.421347188682323726e-04
1.885375341036427295e-04
4.033808735267563035e-04
7.160150508406292000e-04
2.252651433899143006e-04
-3.113602395882720739e-04
1.665509083202409719e-04
8.141065069987766080e-04
4.436567881572002123e-04
-3.261814055260620982e-04
1.512110746609394312e-04
2.494467064442533661e-04
-4.350008637388520913e-04
-1.106094429999050863e-03
7.221577892825902043e-04
-2.201522989172176271e-04
4.625107848609338553e-05
1.108484820664468748e-03
1.223155784410192150e-04
-4.945413786480461118e-04
7.201398007699973060e-06
-1.679563967529948540e-04
3.247341076272277797e-05
-5.861888828964742114e-04
1.894294639521014738e-04
-5.281746790870750540e-04
1.070339291524935281e-03
1.961653027622941746e-04
4.870784525387708889e-04
1.882269870793135190e-04
-9.365869182616308984e-04
-7.066168882383958927e-04
5.696415775194686249e-04
-4.920313156908037451e-05
-2.422006304083666544e-04
-7.857111030763177986e-04
9.117525473456557456e-05
-1.622971916747541611e-04
3.549398316681803118e-04
5.276972135183252395e-04
7.494454587640551240e-04
5.486732115438971828e-05
-8.155721947568538499e-04
1.456470795236854848e-04
-6.682527908962083724e-04
2.396849408950954693e-04
3.035176453572229578e-04
-8.272422242285327196e-04
-4.060444864792528679e-04
-2.127206566202158918e-04
8.640981630270584257e-04
-2.197552906613695382e-04
8.867451604755939489e-04
3.513622949994082441e-05
-4.942600409640459042e-04
8.627242538913247822e-04
1.108647409109928591e-03
9.101188579592428107e-05
1.010580246792939238e-03
3.916826910016864478e-04
-8.043166263008382465e-04
-9.385415666621981878e-05
-9.142328772994420339e-04
2.592643852888396137e-04
-1.158384368708076807e-03
1.931980549074401152e-04
-1.866426123339235495e-04
1.205792158341624336e-03
3.019531813825308895e-04
1.537812568018158930e-04
-1.916015046114199344e-04
4.332038866612762532e-04
8.500368194428196749e-04
1.322478972443217292e-03
-9.024052491634391255e-04
-9.780179975431427860e-04
-8.127467096264159386e-04
-1.001778626282809673e-04
1.010716870183691642e-03
-8.798307049183563908e-04
1.878488209344300565e-03
-2.680047548366520233e-04
3.872238889974016426e-04
8.596033260484043292e-04
-7.423089602660667041e-05
-1.486270561117657857e-05
-3.207978358087720176e-04
-5.416676908563016531e-04
3.828724131149399104e-04
5.528617713010080658e-04
1.969037970883398124e-04
2.239561479317505710e-04
2.538007924263065282e-04
-2.831079992006384064e-04
-1.466530964270380735e-04
1.449876804706899268e-04
-4.438819596480615649e-04
2.904014382183465657e-04
4.529773972354137488e-04
-1.346686347297737919e-04
4.554991358196967409e-04
-2.260058924611595821e-05
-1.341770491489545727e-04
-5.345173925146406687e-04
1.189713452752729145e-04
-1.446101730947676176e-04
-5.427912892568806423e-04
2.263745758042284601e-04
2.489362384432438854e-04
3.059112621558506494e-04
2.110526715263530634e-04
3.759353836106894223e-04
2.658760474394393264e-04
5.995760415439218606e-05
-6.781459561132825199e-04
-5.655631157121280769e-04
-5.623363615186731564e-04
-4.313828042620599019e-04
1.427706752135230231e-04
-1.493481759291488198e-05
2.156036452250682551e-04
-2.413853310271377422e-04
1.682726327431229702e-05
2.227992319899521026e-04
-5.992790874162414339e-04
9.325661550582828524e-04
-2.600560715758277758e-04
1.575022650304230202e-04
-5.407416795957190742e-05
4.638439228997466124e-04
-2.053739155842890360e-04
-8.418715692627031693e-04
-1.659551338053872000e-04
-4.810803239369489288e-04
-2.873459353774905720e-04
-9.979679000008266263e-05
-1.393165479525991331e-05
3.812723254644170725e-04
1.089798925388416913e-04
-5.391634071451234436e-04
-4.362405785519855189e-04
6.374231397393467476e-05
6.297533722632288550e-04
-1.564249661913184452e-04
6.243264764771550663e-04
6.273247123340687514e-04
3.553007721763955956e-04
1.466813897301050002e-04
-1.171010212697053463e-04
1.455820051630991722e-04
-6.387235257305248727e-05
-1.020956898525091869e-04
-8.388219187451613403e-04
9.814406198350399994e-06
1.153643647575660182e-04
1.251160570379715540e-04
3.200465547366417051e-04
-2.766020028909971533e-04
6.919211622797264045e-04
-4.981455958558988914e-05
2.093359329504676947e-04
7.109768442530193730e-04
-2.781801666548129929e-04
-1.104101620850236800e-03
-1.307111056192310152e-04
-2.311154342983856916e-04
-2.950679963665717533e-04
-6.240013055263200683e-04
-2.045536321158241257e-04
3.270828741777804800e-04
-7.481949835789688001e-04
-8.391780249743091818e-04
-4.942944866471204362e-04
6.192262622059398593e-04
-1.392053432860713286e-04
3.361743202630695470e-05
2.246145185696002530e-04
-1.141061735681322574e-03
1.370976893174931681e-03
-1.981777482972531105e-04
-1.287747826646660305e-03
-5.148823138140390393e-05
-1.681972903444856255e-04
3.270939651908885107e-04
9.178719882026634786e-04
6.895729442396713194e-04
-1.547874509524048469e-04
-6.244809650791833004e-04
6.084540076169491982e-04
1.033532417448333914e-03
3.411590266252667201e-04
-7.458702120059792183e-04
-1.054787759825829598e-03
3.760226467195660282e-04
-5.178312454267215443e-04
3.694921062450186072e-04
-4.566904340308489607e-04
-1.018076681767893118e-04
5.149618537314026075e-04
1.131352459772903688e-04
3.991521483900542077e-04
-6.890036137432288630e-04
-1.555625379951813218e-04
1.334059246951767265e-03
4.517713756755392424e-04
-2.511313802713401109e-04
5.083484328950560027e-04
1.507382653103692915e-05
-2.459242986215099108e-04
-6.039322418592118612e-04
4.531236498052074635e-04
-4.589018719898414474e-04
1.534227674195481385e-04
8.145920637786807379e-04
1.181617444423593155e-04
2.974775252699912243e-04
2.058941938766501985e-04
-7.646326141714674882e-04
-7.302001488064396861e-04
9.575320481427212344e-04
-3.136493251972907997e-04
5.508370563345623523e-05
6.575788508063747052e-04
1.858335598137974989e-04
-1.007172609242566307e-03
-9.192575277894608288e-05
7.290985500804039341e-04
3.252733304755254726e-04
-3.060512981534416611e-04
-3.015502798307555569e-04
-5.389220226514190989e-04
2.175240870125581827e-04
7.744757875915272071e-04
3.621410176039757461e-04
1.627137841747590213e-04
-8.002766934673275542e-05
-3.087706388874761668e-04
-7.186946833646853418e-04
-2.853716509229972816e-04
6.629864263551291104e-04
6.376250824444408766e-04
-4.595634713233350877e-04
2.965196004737435617e-04
1.709441823196545943e-04
-3.985768447760274923e-04
4.430235422245143288e-04
7.465824618218809506e-04
-4.828480259473654271e-04
2.480692150482406212e-04
3.168409871233259325e-04
-4.361064117042121735e-05
4.158397093784518546e-04
4.862474265719225145e-04
-9.708872050699619101e-04
1.343723959475822370e-03
6.495846306300179934e-05
-2.468037319900412007e-04
3.765254001550937164e-05
-9.774461313668237564e-04
6.450534681827634238e-04
-3.619975312889834804e-04
-4.510440345959205701e-05
4.055925628953525376e-04
-2.737849954956360181e-04
-5.818272995745731946e-04
-5.157591271569448785e-04
1.415451562784293205e-03
1.031188291384911365e-03
-5.353261223478377297e-04
2.556429739501855187e-04
-5.494113255175385718e-04
-2.157788511432666726e-05
-7.031393290135965369e-05
6.780468443006420608e-04
-8.739322313617629802e-04
-8.473110226478287139e-04
9.423925570885472889e-05
2.148536574115126902e-04
1.419502062146802952e-04
-1.177647334733779522e-03
-6.055298402827274549e-04
-1.734236549773587226e-04
-1.504493166486540025e-04
-2.799112233154803491e-04
9.031784175438816635e-04
2.023951082875173428e-04
4.057438392163791366e-04
4.985722428657013688e-04
2.039132696537564746e-05
-9.128719928912734259e-04
4.245754477769204754e-04
9.859600978258356747e-04
-4.542182533495684772e-04
2.418698381147354613e-04
-6.292104651523196040e-04
-5.927291594989502442e-04
2.325883871457785055e-04
2.383836606951258313e-04
1.890413777523653122e-04
-4.779085387029778615e-05
3.796242159528831896e-04
5.201034169090907233e-05
6.939683536955118916e-04
-1.639030565483413329e-04
1.172485275320162793e-04
1.786456019460340959e-04
-3.389515362750099010e-04
8.218589986987475792e-04
2.704938181741019959e-04
3.373965938076387006e-04
4.109630552692756763e-04
1.195044081274988101e-06
-1.411334393090452695e-04
1.234845783132390573e-03
-5.571577254280406276e-04
-1.373641480164362362e-03
-1.407299730933147489e-04
-7.360081277773584821e-04
2.238759133707082295e-04
-9.554924362324445416e-04
-2.923719695585635719e-04
-8.593997738096052622e-05
-4.092460568388918743e-04
1.135015719076377071e-03
6.807344032255700176e-04
-3.676574035185818505e-04
9.426253336836287917e-04
-1.774632794503614537e-03
-2.064816600900759732e-04
1.151465775776242678e-03
1.318621719570661050e-04
7.114412868694005698e-04
7.585925998034549408e-04
8.052880248230278887e-05
-9.118263732503045999e-04
-1.525558709396410964e-03
-3.735008174586100516e-04
6.388029282181622182e-04
1.006676959326492996e-03
-2.445466341416964017e-04
1.110328637955622626e-03
8.298939185210151654e-04
1.476375457146179133e-04
5.746380810174563439e-04
-8.846922394803873903e-05
2.531617643410382810e-04
3.400000601947260253e-06
-2.170255363040364009e-05
4.099795110071720691e-05
5.389698819999405166e-06
-8.822042549386436942e-04
-7.984838675650584813e-05
2.758552006611780295e-04
3.104972405185723087e-04
-3.634864022733317744e-04
2.327405279242290154e-04
-5.181092375786425187e-04
-1.326385308463310850e-04
-7.478612130001570640e-04
-6.741179572219072177e-04
4.275145393807491443e-04
-5.614235782283507475e-04
2.222553318067067092e-04
1.885213725250202508e-04
-5.556890874928143971e-05
-2.410192719587194918e-04
8.014455732071151502e-04
2.578580206050450920e-04
1.347043299885372853e-04
2.451174912347180959e-04
5.593171057876492958e-04
3.705234874526813988e-04
-3.546595410742264462e-04
1.188342517478608433e-05
-7.323516096773061536e-04
3.024113451825487112e-04
-3.477233770153359202e-05
-8.133954808374324391e-04
-6.618226505454353993e-04
-1.745092714468689081e-04
1.380209794371088465e-04
8.613427128561685926e-04
3.149867240667111662e-04
7.736399724565022704e-04
3.655154403400743532e-05
-1.302654706124811549e-04
-7.754253599533803042e-04
6.406811678855731064e-04
-8.819059262353739831e-04
5.484207309780660382e-04
2.897362994724243627e-04
-5.149722660990030095e-04
-2.341126799972614587e-04
1.157917925729809927e-03
-5.296014429178284855e-04
-2.752114079336774838e-04
-2.688509390996703715e-04
-5.696051869124789217e-04
-5.112462363953293410e-04
7.357548981183031737e-04
-1.316105427470161187e-03
1.541841105645989527e-03
1.099130624067774700e-03
7.720900454681479258e-04
1.012843688452076739e-04
-3.233355737236245507e-04
2.927547567780379098e-04
-7.243892811778858583e-04
-6.153394992756876453e-04
1.171475901744551724e-04
-4.572161191772615191e-04
2.213330833020247732e-03
9.461947158924729074e-05
2.282066019356114388e-04
-1.322344875713437349e-03
3.468090233988938313e-04
3.569390443356093405e-05
-1.555001585072048102e-05
-4.432184747289250049e-04
4.516949129403002232e-04
-3.580879808775622674e-04
-9.635189249784378244e-04
-5.029447330375135168e-05
4.874208730046424996e-04
7.961698338582705184e-04
9.863697241150760214e-04
-5.008107530510799872e-05
1.721545844199970886e-04
-2.344010759531145872e-04
3.281166099649920767e-04
-2.466291223978408858e-04
1.476631354737727492e-05
1.901424905696636912e-04
3.069439656812113248e-04
2.848090257558041362e-04
6.105369791296831041e-04
1.555411664365582004e-04
3.038053063972395934e-04
-8.492296664779027976e-05
-4.201121762358989132e-04
-7.999289403531974251e-04
-7.762674046630404080e-05
-1.787241757153856336e-04
-2.658555654038078741e-04
1.347392539549641392e-04
-5.640285770630080022e-04
4.641071432391040430e-05
-2.789759770145523688e-04
-4.536340848946238157e-05
-1.708754510239314251e-05
-8.878825178025802399e-05
1.722470188957741523e-04
3.774005899269002560e-04
-9.109690829313256237e-04
-1.147783609349165484e-04
-2.451315048275523687e-04
4.930196234415296606e-04
4.902919565407808404e-04
-5.902952077791360315e-04
-7.341399992607290387e-04
1.445046071258689448e-04
-5.177970802367113344e-04
1.073981009673691646e-03
-4.466935168454174983e-04
1.747004653914224933e-04
5.401775847461386375e-04
-6.459739006568272117e-04
2.412541216657350948e-04
-1.738470439305263217e-04
-1.325477085852347348e-04
4.745345363120559434e-04
-1.126603426374468529e-04
1.350443090115240952e-04
-7.149153081865091850e-04
1.184442379584136679e-04
-4.721109850694808784e-04
4.764717791314734894e-05
-2.231075828813091136e-04
3.642699335524705352e-04
1.241662328155189801e-03
-3.106016119736025339e-05
1.469891467364741388e-04
-5.185622061093412638e-04
-2.950621101416926024e-04
-4.649951761168244686e-04
-5.054995505558485978e-04
2.025171799682375096e-04
-3.592141292024992921e-04
-2.269905470574637213e-04
-7.796262061531060395e-04
-6.745472987875415338e-04
1.383818928392803211e-04
2.008322091748985573e-04
-1.092102888807085318e-04
2.734680541640443076e-04
-7.132027324430318099e-04
1.417901820446422880e-03
-1.160347271982730549e-03
9.528028444292407136e-04
-7.564194744196807690e-04
1.396093170701999798e-06
3.050168326341581491e-04
7.693464622530846219e-04
-9.181257352987013710e-04
3.141884433125887539e-04
-5.147838210787721329e-04
4.059165570604730345e-04
4.506474928460664584e-04
2.940740199650008612e-04
5.486477328084734964e-04
7.519434800293675538e-05
1.492518295424128001e-04
2.970540723965975523e-04
-4.126701232808344929e-05
-8.444917499192882912e-04
6.382271363299554627e-04
1.201385767914805655e-03
2.503745598516910875e-04
6.474795526044152018e-04
-6.866590215523055672e-04
8.047503987832824559e-04
-8.577312074612246633e-04
-7.959593246296913470e-04
-1.544133516007943239e-03
1.356196734651763953e-03
-1.228258348004664016e-03
3.852814792745225345e-04
-6.750778426913972953e-04
4.966519934248358548e-04
-4.064543614866364770e-05
1.739045160539546761e-03
2.736723768674407154e-04
-3.696320795492915798e-04
4.462957442137319088e-04
-3.677707610088918732e-04
2.298335176805207177e-04
5.467675356251024089e-04
-4.778508539656669933e-04
-2.555979005442562577e-05
-3.433101561175304611e-04
-1.501818152184525215e-04
-3.044706884666402414e-04
-5.713338248857034035e-04
8.232487225561577584e-04
6.144964829326389402e-04
6.992506892454832532e-05
1.898921906120658624e-04
-1.063168853360491831e-03
6.880720374127198894e-05
-4.955263942949683512e-04
2.178195250586248432e-04
-7.222799327191304882e-04
2.651079872058148654e-04
2.613905034695490539e-04
4.461488007807157697e-04
-1.276786392725670584e-03
-2.530989539764868308e-04
-5.598687834008621257e-04
-1.328434377134997358e-03
-2.306865023977975378e-04
6.836023614600567153e-04
-3.639122380047837770e-04
2.611350353140458628e-04
-1.084421281991373087e-03
-8.498708467432589163e-04
6.552057776539226604e-04
-2.025784551345798698e-04
-5.283546415488548089e-06
5.554279527581382735e-04
-6.376017312605673001e-04
-4.534772499224193299e-04
1.061597216022440232e-03
-5.079693500691111110e-04
-3.512642999016521266e-04
-3.040836450745224668e-04
-6.348468709190704766e-04
5.410821307276018335e-04
-4.008075712248228544e-04
4.528964623011911390e-04
1.816659540552060560e-04
6.609719128833029108e-04
7.660851694219407047e-06
-2.951198813582684224e-04
4.496947116766336345e-04
6.408230682373917302e-05
-8.858919803358707558e-05
-2.347700590836450981e-04
-5.676352960506147235e-04
5.415289580238161985e-04
3.981329683321255730e-04
3.855850379162965424e-04
2.696956672853057044e-04
9.186117260526442804e-04
-9.088724498563806840e-04
-9.945236185195229037e-04
3.659075020671475188e-04
2.547151012582167127e-05
5.337305785309652681e-04
-5.260169507401927635e-04
-8.413710875109101312e-04
3.066446239857806484e-04
-2.417756863037868402e-04
3.429743078704026332e-04
-6.993474704437481774e-05
-9.581060235456146951e-04
4.592974330566188348e-04
3.090735875806821758e-04
7.475530465316504707e-04
-1.046107580035097974e-03
-1.287709824012719603e-04
5.844183525837159813e-04
-2.462231760955953679e-08
-6.356854446104236507e-07
1.557763607404460265e-03
-1.622440673393945373e-03
-1.580170037717543272e-04
1.905179828142202446e-04
2.183639145194620943e-04
-3.290373717587278201e-04
9.186660933466478515e-04
-6.636590465884295489e-04
-1.029422967703776375e-03
1.810117377786039407e-03
-1.516385498234510917e-04
-5.832061060536826674e-05
-7.615351506093883836e-04
-9.646917245336107845e-04
1.807708747042063727e-03
2.720198317440413968e-04
-1.183957113215987822e-03
9.394628748967254455e-04
4.967393930957162990e-04
2.369600245863799236e-04
7.170034741419372120e-04
-1.735936707989990191e-04
-3.965675280081835214e-04
4.282855118122605247e-04
4.557120995778124570e-04
-2.724205926274242363e-04
1.297881525271761224e-04
2.975967124807586510e-04
1.640939920467590608e-04
-9.619585330189181277e-04
-4.621832164026577457e-04
8.696893621360534451e-04
-3.462916580743300365e-04
8.068012406152088581e-04
7.472189152270475917e-05
3.364607170293584283e-04
-4.349946394865128051e-04
1.245788197893440627e-03
1.240130941930039921e-03
9.327114962863731302e-04
-7.264275439568413512e-04
5.997563164605531244e-05
8.962033841268639278e-04
-6.358350808661289650e-04
-8.088424026963997098e-04
-6.045205987480457106e-04
4.417219798478948332e-04
6.746835728886135331e-04
-1.497529980455539287e-04
1.228012100941318135e-03
-5.674737917757374014e-04
3.439479669532358435e-04
5.399272758154687133e-04
4.539477598267529850e-05
-2.690805699506675455e-04
-2.102477148345362039e-04
1.056077602598877934e-04
-2.236358995870820409e-04
2.137026110242505324e-04
4.935146493174600614e-04
3.818248815637831090e-05
-2.290072312916244007e-04
-7.292166203992190643e-04
5.684327300940154176e-04
5.704916397082569713e-04
-5.661663547215632121e-04
1.748137368231192802e-03
2.717329973477083872e-04
-5.159363037422376756e-04
2.646430044737828422e-04
5.091997264541402255e-04
-4.491874264540555344e-04
9.074122516038136488e-04
-3.525741120593593259e-04
-7.893999879113486285e-04
-7.554206278949074285e-04
-2.557609313692107088e-04
1.449598730842535275e-04
-4.298820666656749624e-04
1.520264500722999697e-04
4.373003650273864684e-04
7.587477149707022627e-04
2.226675764213812358e-04
1.685180039492153461e-04
9.731579555675624080e-05
4.226111078618038762e-05
-5.138297401901244059e-04
6.245378604295308885e-04
-2.504516182217822028e-04
-4.909885758737816399e-04
-5.932627635002252409e-05
4.764082632324622454e-04
-3.036565663234662253e-04
-1.627692099886204587e-04
-1.103822484362476732e-05
-3.332679462148791877e-05
-3.324880487466819624e-04
-6.456279610570942753e-05
7.522071145879369748e-04
-2.011955080950217183e-04
5.872340930997054713e-05
-2.370754858963431289e-04
-2.458417469718395866e-04
-2.776623383457271668e-04
-5.205901170983181581e-04
-2.854958601528412906e-04
-6.807800965538723980e-04
1.928297984908372998e-04
-9.306017963654002493e-05
3.900129517794383226e-04
-1.337013468862541092e-04
1.355249310229188740e-04
2.024976465578573253e-04
-7.200830706365208807e-04
9.349967182878176838e-04
-1.761666593326820457e-04
6.168428500319512271e-04
5.465903436739480745e-05
-8.192298346924321286e-04
-3.584091930687468251e-04
5.634144583083082523e-05
-5.985168335675129748e-04
3.059837976401328047e-05
2.443986591256697887e-04
-1.117537728307986230e-04
7.002763192594987224e-04
1.197778572423981625e-04
8.552868687138772243e-04
1.458125598759599847e-04
-1.967569714595800677e-04
3.844761635482013724e-04
2.334663467506035625e-04
-4.651942604797428015e-04
-6.647159555085540824e-04
2.254498567292697643e-04
2.541695799144697219e-05
1.192959826393309199e-03
-3.865751397169165347e-04
1.125533207374735615e-03
6.659456075110606983e-04
-6.291475668907239643e-04
5.656842211554100660e-04
-1.010916873773685509e-03
-2.680942595704590109e-04
-6.578303720567140866e-04
-1.136488633420577226e-03
6.564618094529033618e-04
3.181883294492562431e-04
1.178299250478776936e-04
5.903401669056135325e-04
-3.893197811569089101e-04
-2.602104358146122400e-04
-2.043455781718802114e-03
4.043119716290123535e-04
1.618455659389956463e-03
-9.693769264500509903e-04
6.071002735420121324e-04
-6.809452900522238502e-04
1.526455126565452259e-04
5.563998729632509859e-05
-7.448770833404566236e-04
-6.029182312657700195e-04
-4.977845892166908766e-04
1.972990696402857893e-05
-6.662475395400107789e-04
5.621310845826685623e-04
2.543291918969299841e-05
8.082375500228930693e-04
3.118271188768352228e-04
-2.300846803884168325e-04
-1.954725534552118104e-04
-5.033858663509537239e-04
4.200836778684590876e-04
3.426967563833811673e-05
7.189131897875089029e-04
-3.951793332882010796e-05
5.960151540245380020e-04
8.034067333186525450e-04
-1.107963404492767626e-04
4.192494426494330689e-04
1.938423609457539764e-04
5.780627418848248769e-05
4.885758745000103737e-04
7.231203821415946829e-04
3.522989332691543610e-04
1.786046838325228744e-04
6.471427751886440344e-04
-4.440371059542905794e-04
-1.060075977756320519e-03
-3.111489764955152767e-04
4.487491041427884371e-04
-1.228494920849465153e-03
2.976313301870111118e-04
-7.445384207804818478e-04
-4.748224421092069525e-04
4.028369349521806748e-04
-7.496101466052522986e-04
-3.041210403774016421e-04
-1.536047459814818565e-04
-3.405642532947703721e-04
-1.459069460580750418e-04
-4.754922673582004594e-04
-3.308402629830896205e-04
-2.304618981781435152e-04
2.431847269426448140e-05
-6.503154180836485899e-04
9.934072124280878945e-04
1.165841025180582588e-04
2.317316516102626493e-04
1.288707588403747648e-03
5.118447994124851160e-04
8.284150116760929158e-04
1.755802705699758442e-04
-5.806407472849184044e-04
-1.077414244675855621e-04
-1.160950316385731283e-04
1.406175034893078187e-03
4.067289218063307836e-04
1.035172446041325188e-03
-1.367959740078363744e-04
-3.682026110151931765e-04
-4.494370891320120603e-04
-6.082095255865362787e-04
-4.702095424846024566e-05
-9.548326062523682621e-04
1.708085187931445743e-05
-1.121760290092244707e-04
-2.620496016130382882e-04
-1.129929184544009173e-04
-7.591401874333941627e-04
3.632483065382051271e-04
9.698607310963873289e-04
-6.140028840988656167e-04
-7.901688244369499707e-05
4.167444493328704242e-04
1.806342787152968464e-04
7.174937846722343436e-04
-3.017771339358653088e-04
-6.658575586078196735e-04
-1.084888050164968044e-04
3.871219956006615196e-04
-2.682346801721600840e-04
1.416487384282090868e-03
-9.598214605371539017e-04
-8.038942397827818307e-04
8.721248938133002292e-04
-1.089054404568470195e-03
-7.447448241537047917e-04
-3.310653334590795652e-05
1.591368966805574035e-04
6.784281238528120294e-04
4.280348797316002726e-04
4.913296686593808874e-04
-9.422052148141409718e-04
-1.212671407449600553e-04
-2.193927754723791305e-04
3.872969343966727474e-04
1.044627357546960584e-03
-1.968375072303913417e-04
-5.444742873215238643e-04
7.246114054253108684e-05
3.707653171976195211e-04
-1.389006400375003634e-04
-2.738729982491091165e-04
-3.597977029080006556e-04
8.199649212020937309e-04
-2.292700900175590590e-04
1.022213676643805988e-04
5.270762604416774676e-04
-9.649806092211485114e-04
-1.163166628169419865e-04
-9.483610332479248625e-05
1.876015078056966369e-05
-3.777191313868664404e-04
-3.918547995273857776e-04
-7.474145509183806953e-05
8.766511100950555150e-05
-2.477979364056205375e-04
-7.569038198145131371e-05
-3.910030975141604937e-04
-1.636231691818043914e-04
1.854056455350702542e-04
-2.616925690520496774e-06
9.715582246779222333e-05
-7.915905553854178872e-05
-1.071094053844313259e-04
1.261025279426971208e-05
7.851562157278608295e-05
-1.625949393669576010e-04
9.730912927301861581e-04
3.117937695262673687e-06
2.451700891980993858e-04
4.841237416346627935e-04
-1.501815989353407236e-03
3.612867613836994113e-04
6.246531419160704997e-06
-8.129031781976582820e-05
-8.127417125005825034e-05
-1.721037877292891675e-03
1.173555271669811262e-05
1.343670707897512678e-03
-1.571712361552230278e-03
-1.019301624607046007e-03
1.245030289001636909e-03
2.141762777311083247e-04
6.231204254305044207e-04
1.046564334207584666e-04
1.290773814386572769e-03
-1.812166181796117694e-04
-3.948635743169812509e-05
6.418241753384668966e-06
4.815302096410975920e-05
5.941909821634280353e-04
-6.982907369761496598e-04
9.682987964495529338e-04
-3.328316161564261319e-04
3.748780659610543653e-04
-1.342010299542140909e-03
-8.974462774256277038e-04
-1.048265186213168332e-04
-5.665242619566344430e-04
-2.488155688784636998e-04
2.389911142512028751e-04
3.183869740137049067e-04
3.404238510344981521e-04
-1.481919576433603539e-04
2.265502281639171804e-04
-2.980547148629094441e-04
-3.696826207154071085e-04
-2.197510841053959237e-04
-3.300973496927141378e-04
3.139501789252507153e-04
-2.081670111103875269e-04
5.883518580481757160e-05
-2.052692164316568602e-04
1.479429137266246100e-03
3.823313961881529455e-04
-8.700061899948113246e-04
-6.992679471539784558e-04
-5.697784855503735136e-04
-6.308866880195161328e-04
2.129183653621146303e-05
5.725558304057690867e-04
5.404314076271270022e-04
-9.844740468699944786e-05
-4.421330961481406002e-04
4.180217004858761466e-05
1.061886587054634888e-03
3.677468573570537996e-04
-7.694541904412634627e-05
-1.996579659075245396e-04
-5.488011482284783395e-05
3.117641651965176171e-04
-4.016638527632864376e-06
6.993662841409161303e-05
4.042160690680930897e-04
8.382404521370647376e-04
2.033137477242675086e-04
-7.405771575314844604e-04
-1.772370129984038507e-04
1.181734085277892209e-03
1.370400165758674932e-03
-6.807986435871365288e-04
4.871591389515305412e-04
-7.987302108998388167e-04
3.610627545314329325e-04
