# autogen test
# 
# LAMMPS SNAP coefficients for W

1 1596
W 0.5 1
-5.306035471950247384e+00
2.605652482931114511e-02
2.222549851478307706e-02
5.198937329008383040e-02
-1.543358305797545328e-02
2.782704470714748024e-01
6.575610328383055259e-02
3.071966211647487923e-04
-6.375253875539369300e-03
1.271133916548681242e-01
1.002799568480695069e-01
5.174272081417566338e-02
9.895777525556319343e-02
2.651616750096474819e-03
-2.039531935662826020e-02
2.983504719183251511e-02
-6.858803821540325474e-03
6.774424035450646309e-02
8.997830362268322002e-02
9.492918717343258941e-03
3.631089742566790540e-02
8.986172623711495382e-04
9.934126733350541472e-03
-1.678187416427108546e-03
6.765710560377213856e-02
1.077723923071399748e-01
7.027997302403773960e-02
6.137154592577837714e-02
-2.758476889782979918e-02
3.608692706481683721e-02
5.050354841942879952e-02
6.797273937324056423e-03
-1.029020757183972748e-02
-2.038359956904437290e-02
2.394941650838766645e-02
1.011149692991581694e-01
2.900950199349001946e-03
1.146657453417940925e-02
5.586332414873794450e-02
6.729371214299069426e-03
3.032750078567454308e-02
2.072095687459601585e-02
1.265134825332355113e-02
4.206314231185846351e-04
7.396176358538814923e-03
4.045742141279593668e-02
-6.451040016344648624e-03
1.275794935076766034e-03
-1.440856637236945085e-04
-2.391176029734558631e-03
-2.540419738640599129e-03
2.190776795417001760e-04
9.375755949696784261e-03
1.735101163279486117e-02
-5.561153969344788568e-03
7.743506654935923897e-03
-1.621305699152002049e-04
5.495382746573603547e-04
-1.048584496416803255e-03
9.847755515194674819e-04
2.973342376421867547e-04
9.150918863243556354e-04
5.781871390015273283e-05
6.032616551978214631e-04
5.461671926848306194e-04
-1.159006942706880842e-03
2.908545835602183540e-05
4.884480864358805305e-04
-4.847007664139653502e-04
7.278737990801002408e-04
-1.219610083349577715e-04
-5.287618025992297946e-04
-2.951379812753600167e-04
-3.321033097677147223e-04
-4.873897343232338575e-04
-2.456229304006791081e-04
6.629009418543453419e-05
-2.862314745591618961e-04
1.629642962590445389e-04
-2.921726991529395297e-04
-2.074864481643001843e-04
7.533066492481437729e-04
-8.324753731134229443e-05
-4.905881044038828097e-04
-6.179123550055092310e-04
-7.355160509988174430e-04
-2.213041722240055315e-04
-2.580362338423658345e-04
-3.554354089863815059e-05
-6.290618823552132947e-04
8.070598473757191254e-04
-2.590852911809555988e-06
-3.447877816045491397e-04
-5.610435455517382266e-04
-4.391085121725214193e-04
-2.295754402681121048e-05
-5.590759476756063063e-04
3.178462883966121663e-05
-6.796126335805743011e-05
4.654338065099898288e-04
4.953060286334954676e-04
3.714590607250093128e-04
1.490879675097876223e-04
2.199273648418606313e-04
1.000577332038072871e-04
-2.821033555812894758e-05
-5.089941964639813131e-05
4.400325191784568764e-04
-9.947993953747944688e-05
-8.767209699664792015e-05
1.666516533188777574e-04
-5.890689100602904647e-04
2.681668075049375576e-04
4.539521974269610980e-04
-4.953915084478565181e-05
3.930163093017394324e-04
2.234383448924521129e-05
-8.356511367890624709e-04
1.437689681856465737e-04
-8.252569870235001645e-04
-7.490418030834645970e-05
-1.497438011190693904e-04
-4.357860148937023380e-04
2.072876548273602597e-04
-6.338902216817052368e-05
8.063691682195068232e-04
3.891932574596206518e-04
6.344295713341448640e-04
-5.413691636041155931e-04
-8.926152219388686819e-04
-3.419557559633317162e-04
-4.782448679040426443e-04
-6.030907078207635094e-04
-9.107891100018897148e-04
4.898442542213029931e-04
1.561839375401157242e-04
-3.452928988078013796e-04
6.584597041074901052e-04
5.965819646351043243e-04
6.988069272731762703e-04
-1.693365459732066875e-04
-3.265434352339436058e-04
4.248881563795704004e-05
-3.859469041858996767e-04
-2.114354564021340738e-04
-3.442460735831799786e-05
8.135161646960713646e-04
-1.659521890846646393e-05
5.578019941364879960e-04
-4.354545368567375543e-04
-7.986138334165705571e-04
-1.392249956943039917e-03
-1.637696950043842541e-04
-8.910385772236396841e-04
4.903734732741865535e-04
-5.018479742922390442e-04
-5.972496947129936210e-04
5.381206561610890095e-04
1.175871960551982346e-03
-6.053861346821559110e-04
2.223095491978385621e-04
-1.408567327780806404e-04
9.350993437385924940e-04
-4.697852441824206643e-04
-8.907972592577082134e-04
-1.524816164037960263e-04
1.334899453876817925e-03
-3.824904215234404257e-04
1.258986052001019942e-04
2.872993276675966977e-04
3.570686809307079142e-04
2.225405876990948546e-05
1.567356331445386654e-04
2.911793978315457810e-04
-1.570774372705740390e-04
-1.034326589390650912e-04
4.486041742187850856e-04
-7.141424470600820631e-04
3.364724449979192506e-04
4.172505663147903823e-05
1.952860785828147415e-05
-1.099656896372867624e-05
-1.995985599559754362e-04
4.115604894061274913e-05
7.115207656632134320e-05
6.586541356257925514e-04
-4.235073899122228933e-04
-7.258112320790617317e-05
5.958943784105974776e-04
1.753478623846440427e-04
-2.899972187759164996e-04
-1.320645723882486570e-04
-1.753977702188651289e-04
-1.187592186807657216e-04
-7.782407462164209601e-05
1.270859546051772426e-03
1.040169983210733934e-04
-4.706593125166329142e-05
3.219645318336332809e-04
-3.778317652439330755e-04
4.344783572095343820e-05
1.673779851699204891e-04
3.234646585563377501e-04
5.560135872354420809e-04
-9.667311718207064776e-05
-2.625882360340943021e-04
-7.173459525162103126e-04
5.827301427244178413e-04
5.392882411982968674e-04
-7.263660954805221069e-05
2.428737533420695499e-05
-7.284274759849980089e-06
9.676805265182307936e-05
1.396223163883980644e-04
4.769175373930961020e-04
8.716985169320319170e-05
5.231630236291201638e-05
-5.650296922660978400e-04
1.780979062636336356e-04
6.239722550331368430e-04
3.531096963414250564e-04
-6.352546916192802111e-04
-5.954413981298769870e-04
4.793168481944942174e-04
-5.110152120860555580e-05
-6.767228873725760711e-04
-2.689766854283211713e-05
1.287511687025825633e-03
4.602116544141561137e-05
-6.472466419090031411e-04
6.189268582941941836e-04
-8.600687345575419281e-04
3.187904009116071915e-04
-3.389515541924084229e-04
1.385093935273815210e-03
-1.322051785774017662e-04
-1.284149104635365097e-03
-5.779668805664424239e-04
1.383271783745986666e-04
-6.311990692370752056e-04
-2.803099103658443568e-05
8.524075543081096251e-04
1.655352806188682994e-03
-4.073031120341178497e-04
1.323117784608479895e-05
9.231621229849976693e-04
9.189375355233142658e-04
-5.492770986051866578e-04
3.049747944701650137e-04
-9.112553138560967403e-04
7.563787249188024366e-04
5.472082767172584174e-06
-1.419915244222171892e-04
-2.077361393725716480e-04
-4.719802760979633304e-04
6.548495892201985566e-04
1.749123558755522479e-04
-5.915662686887561070e-04
2.088282348229925263e-04
1.133402500045055643e-03
-9.217927613575085596e-04
-1.260881361439095645e-05
-6.379552475861154006e-04
1.648586336784130810e-03
9.049375983876050637e-04
-7.718734398441014764e-05
-1.280463976036468358e-03
3.520570816303374389e-04
3.388082987016836261e-04
4.222893964076729714e-04
6.251039055773126632e-05
-8.084288017090577347e-05
-2.960126676426522884e-05
-5.166779016049448777e-05
-2.161957015974139812e-04
1.912173173982015890e-04
6.588876872931378028e-04
-1.465681081580040069e-04
-5.123192336818442865e-04
-5.260832400249404591e-04
3.044383213554350751e-04
-4.844430726070949071e-04
-1.462046199700982199e-04
-5.927455401698127329e-04
-5.251780580812001061e-05
9.868847150182629877e-05
4.703878107455378784e-04
3.288402752953470680e-04
-8.599947220177847455e-04
1.584837635524903392e-04
3.737234703464327131e-04
-5.905734228524979967e-05
-6.239370722529014425e-04
-1.308778453480180406e-04
-1.641824567787386071e-04
-2.965160522864894064e-04
3.190945139933206885e-04
-1.082759016458526279e-04
7.804199105277903419e-05
-1.883251348154473090e-04
6.663375263977804270e-04
1.171669190005438324e-04
-1.844518178927288040e-04
4.264868997995735370e-05
-3.284988065950192218e-04
-1.869312188659381663e-04
-2.381395813945729790e-04
3.222879034392458716e-05
-4.408903258649630400e-04
2.040158103339793515e-04
7.246605511342870700e-05
2.442934764443187041e-05
8.285435847033050319e-05
2.430440848088407898e-04
7.081969815666515474e-04
-2.353411431541095741e-04
9.840655479040753047e-04
1.920294935337780822e-04
-2.603290169583393084e-04
1.309856615165697058e-04
8.775395016191859555e-04
2.399505566101030248e-05
1.930798408563561884e-05
-6.732964594505669873e-05
3.790727430003674949e-04
-1.575796892852916080e-04
3.766194918343596099e-04
-8.533817001631866048e-04
-1.350181792286553856e-05
-7.300334677705840351e-04
-4.262812971560487707e-04
7.675702090672607619e-04
-2.559959186172374715e-04
-3.084624892003942393e-04
-1.746011224510202479e-04
-1.120941553638921187e-06
-6.873891445588878107e-04
-5.176664206888257486e-04
2.072865276472875642e-04
-1.031117490525717282e-04
3.484420282777297355e-04
8.120317324810290152e-04
3.966141999798323300e-04
5.660019528799583189e-04
2.196257365273692711e-04
5.098006074907148686e-05
-7.305067447231453363e-05
9.460158819239374451e-04
9.753092087553561504e-04
1.199128298852515911e-03
-8.416593701486459189e-04
4.933371895403218564e-04
-9.468457566712329193e-04
-2.703944374041954645e-04
2.400554848939868112e-04
-4.312022884184474325e-04
4.703860916708642510e-04
2.659250812717034234e-04
-9.442194175600333644e-04
-8.161069937616350842e-04
4.492259894963542477e-04
7.766140494378739217e-05
-7.850176955974482622e-05
8.580719241796835916e-04
-9.305212020178541769e-05
-7.519056984000087014e-04
-8.461226679177364599e-04
6.030514073595569582e-04
1.038458413468230706e-03
3.487808963606900230e-04
6.989539287558224536e-04
-1.174095488911328360e-04
1.054222623352793486e-03
3.367719907694734943e-04
-2.020977915632532170e-04
-1.083769238461616336e-04
-7.292556004092023872e-05
6.312446969907602352e-04
9.245550380865612218e-04
2.394631989583722052e-05
2.269497907690601758e-04
-1.139894944847061071e-05
7.555096727224146491e-06
2.619992302072401621e-04
7.570698740094029084e-04
-1.361512986745942603e-03
-8.171918021411751949e-04
-1.118005879948115932e-03
-5.024827666540001084e-04
2.755391869690789917e-04
3.923191029767889026e-04
7.336106342765507337e-05
1.664760519314585196e-04
-4.695343118730445548e-04
5.314092273990361320e-05
1.172030681984463976e-04
1.039240557756555437e-03
-1.034054024044079841e-03
5.779384682894620666e-04
-2.513832078119285695e-04
5.514785726937435642e-05
6.344570745588876560e-05
-2.436630182860169619e-04
6.701427949358412014e-04
-3.610476116896692137e-04
9.776050372455472926e-05
5.101333457078125995e-04
2.879279055145766205e-04
-3.158464778197157038e-04
-1.618574800103550238e-05
-3.607315915363342785e-04
4.206282183235201090e-04
-3.451643389416933602e-04
-8.050630916158393316e-04
2.563308272278099409e-05
4.184633230104088880e-04
4.534193281191703265e-06
1.504783895200446312e-03
-3.647131941702763365e-04
1.643737442806816537e-03
6.117680849403961895e-05
-1.651235380647048361e-04
-6.718221995658711860e-04
-8.204685427644706078e-04
2.652663679195358792e-04
1.748036653371078499e-04
-1.828265203829316252e-04
5.067170592499641545e-04
3.344730855297625336e-04
5.451262332501295499e-04
7.740893688474101289e-04
-3.939156332883497107e-05
6.885353548606847757e-05
2.266846464103169836e-04
-3.170342314280689700e-05
-1.042304794954774182e-04
4.291400028616832222e-05
-1.018634177385597346e-03
-6.448312405305178189e-04
4.317431135691000908e-04
5.246012721410849228e-04
1.032708410361034453e-03
3.019725074658663271e-04
-6.144374556853712853e-04
-2.424806289697228987e-04
-2.847203617280970995e-04
2.873522707296925663e-04
1.315862457046174019e-04
6.767027148067358833e-05
-3.326164883311631465e-04
4.649636349521428253e-04
-2.874693847227313150e-04
-1.908273883407945201e-04
2.745237996230079857e-04
7.986141796014431006e-04
-2.027842164543971462e-04
-3.202786393329585754e-05
5.448415286138524080e-05
-2.335017625186711152e-04
-1.244576312311276346e-04
-3.481781298994691780e-05
6.211813533271976330e-04
1.817313623524019072e-04
-6.479395269640894888e-04
-7.878011519715068863e-05
3.521500723096704258e-04
6.823160319429256038e-04
8.905048322923934760e-05
-2.726007999046423731e-04
-2.762477729575225590e-04
-5.470260437749203513e-05
8.577095073037425358e-04
2.222490241787891175e-04
5.853140309530427280e-05
-1.811583139603152679e-04
1.680344668663970341e-04
6.317797124079216732e-04
-2.688462471570178818e-04
5.084555169300782745e-04
-2.318410647666069454e-04
-5.873034070284342432e-04
-3.101457872355808205e-04
6.984546022523496257e-05
-1.775316920918004597e-04
-4.793444623667902915e-04
-8.315803340856189278e-04
-1.429624345208173081e-04
-4.519940259344840485e-04
9.880479699587063798e-05
-6.864192216705373290e-05
-9.611615400885530720e-04
-8.997367528126785615e-04
-5.873501037582279675e-04
-5.878906836361255574e-04
3.903481482455960802e-04
2.614573564297793416e-04
-4.302028756360846084e-04
7.096208554701666010e-04
-4.946963006011239028e-05
1.333377609897671060e-04
-4.187834005583888040e-04
-4.739004636143122774e-04
-2.098929175811606730e-04
-1.341718869169835542e-04
2.375266988627042003e-04
8.990962949742971029e-04
4.662943172908242209e-04
4.389791914351704903e-04
-7.279412344155643949e-04
-1.820171208424967307e-05
2.001316178827325398e-04
-1.201193176668556226e-04
-4.104248988912100006e-04
-7.782259326465875806e-06
-1.186304727820786283e-03
-7.938764147802429485e-05
-5.713159466481125201e-04
1.001688637053338828e-03
-1.513508404395909606e-04
-3.797542456674314355e-04
6.904152336959846516e-05
-1.014213004251534944e-04
4.815835512751932466e-04
5.969578617936348915e-04
7.998244361215648378e-05
-9.391565534565199987e-04
6.160004352531146755e-05
1.824033265341690700e-04
9.616869666622146918e-04
1.969764194160982527e-06
-3.586863080961456970e-04
-2.714263093353318852e-04
4.690754812855405594e-04
-5.337118862511968195e-05
1.130970490981570228e-05
-9.006933726002793697e-05
9.378661151802928839e-05
-1.378004510995734389e-03
5.535343655859939352e-04
-1.143714473264473286e-03
-1.150267105807827076e-05
-6.118031083911925705e-04
1.241829480286208440e-03
-5.849020145694491541e-04
4.015051463878655598e-04
-4.681020912532825166e-04
8.065840567904311370e-04
8.961276092911757613e-05
-7.528085067004353190e-05
3.699623756923175262e-04
-1.717055248384470319e-04
5.578984598857882277e-04
-1.178934578968904041e-03
-4.238105463258600900e-04
1.715215234850109814e-04
-4.049182544820348253e-04
8.669527066628456881e-04
-6.947178641614332444e-04
-7.380877797331564152e-04
-6.073163901949153298e-04
-3.157642784816137534e-04
-2.326567821529089040e-04
2.693477680345710760e-04
4.902564372480229483e-04
-1.887794058163639146e-04
8.563957342644509200e-05
-3.361260156774922500e-04
-2.877385590183992813e-04
1.473831313836923454e-04
-7.727855301264207428e-04
3.914843070859725846e-04
3.680508455565230483e-04
7.221797561519554881e-04
-8.007509084662015194e-05
5.498008283974806319e-04
-6.470872873875497047e-04
-4.579308322651074186e-04
4.882073369621169512e-04
6.879606874369513774e-04
2.106139543447933880e-04
-2.833003280441624737e-04
-2.573036235260427141e-04
-6.559334242689381339e-05
-2.468624875230015516e-04
-2.138172141173154742e-04
-2.757122655058988478e-04
3.186628788369694448e-04
2.309477194573101981e-04
1.745208387788114654e-04
-5.801329185909057280e-04
5.247135839657363380e-04
-5.940774662644892148e-05
3.261565648960531379e-04
3.308166935539337918e-04
1.124705153832130343e-03
-5.523771913106244064e-04
-3.756029836982782157e-04
-3.994099408301010385e-04
8.612024913426211158e-05
5.263934573713773977e-07
-5.566934157651528062e-05
6.032608654458312047e-04
-1.979743779548069666e-06
-7.559084725966333908e-04
2.944467575246888843e-04
5.551977243282379092e-04
-1.211108520388061655e-03
4.398148734367791348e-04
-3.309540779759502982e-04
-4.871770731350952982e-04
9.298011993722227891e-04
-5.881919715470557575e-04
-8.525149824538086720e-05
1.685226664731051625e-04
8.542553553943912697e-04
2.350345567681064857e-04
-2.780160770418614049e-04
1.232393996126150020e-04
3.955591491093586208e-04
3.921670266208277899e-04
9.432717343746419101e-04
-8.949689200202736155e-05
7.535472355993951368e-05
-4.196403813019242124e-04
3.322969381331181637e-04
3.647356689178739286e-04
1.043500987954035957e-04
-8.169972923673738795e-04
9.103829351621600023e-04
8.397413706418635504e-05
-2.246072151541503412e-04
3.935247361639222698e-04
1.638434777354968021e-04
2.648999226781850757e-04
6.160211886388692985e-04
1.754618371263282376e-04
-3.290244302801547402e-04
-4.027031099294802559e-04
-4.684153177828777239e-04
-6.920447612692674083e-05
-1.066500150110058021e-03
1.882209731325530384e-04
-6.742301704210519999e-04
1.448356507956721859e-03
4.337000756672412696e-04
6.692640812335793601e-04
-3.240376605213308558e-05
-5.774762539042925004e-04
2.871846937874380969e-04
2.586249911978423868e-04
5.606687855040813281e-04
-4.647361428216609009e-04
-2.010660953813534391e-04
-4.331092697698856733e-04
-3.131306278335644396e-04
9.328292781142848123e-05
-2.245719803949762635e-04
5.027231216789216630e-04
7.647914432939712090e-04
-4.802306680905696844e-04
5.425690854779985015e-04
-7.296464010887333254e-04
3.813416872409657347e-04
-4.399298940223827451e-05
-3.859415782571889281e-04
-9.439223882435740422e-04
3.127578772606909438e-04
1.287078300001363472e-03
-4.483380605095989074e-04
5.898486759336805767e-04
1.739432758679715580e-05
-3.891290117047769529e-04
1.066417299881457833e-03
9.552647309395391950e-04
-5.305464645995095927e-04
1.464241973368437090e-03
5.086745119878033653e-04
-8.023944736262557300e-04
1.017641826377844094e-04
-2.695072143855956948e-04
3.773250378509439198e-04
-5.227263485286764554e-04
-7.406068808081986659e-05
-2.714427587577098681e-04
7.449992923661869111e-04
5.753448404216308194e-04
-4.123772676542666557e-04
2.453460830138308544e-04
2.054494391132565434e-04
6.788383863981577952e-04
4.880854089238890266e-04
-7.130689959705891747e-04
-7.105399655727857844e-05
-6.792778776187359795e-04
-3.142735821194187536e-04
-1.063439914122477292e-04
-8.267050624476470497e-04
1.788531957070165195e-03
-1.778845139298476327e-04
3.062458592588288768e-04
9.697004760091347672e-04
-1.351848818833945964e-04
-1.653923366723666802e-04
8.125175018750297753e-05
-3.683973893482344426e-04
2.244388778680784233e-04
4.971867208298130954e-04
7.298888672270957339e-04
2.558307343666504658e-04
6.111515378033960996e-04
-2.523465741597944964e-04
5.265554384296873601e-05
-5.928436032413644287e-04
-3.206025531036963251e-04
2.792419547530774386e-04
-6.196070271312416355e-05
1.344103625947434377e-04
6.173173613262441378e-04
2.281578291495947586e-04
-9.299430970251104092e-04
3.841262760046707664e-05
8.990795495429843628e-04
-2.550280309757979071e-04
-2.231228047982045559e-04
9.196521391706529987e-05
2.990543900162592923e-04
-1.654325372878510893e-04
6.187220855943567871e-05
1.116141085643196059e-03
-2.200456098601112620e-04
-2.198952078650155185e-04
-2.017187438032374354e-04
-4.616201011101815762e-04
5.975186562709221619e-04
-4.448553071738013914e-04
1.192673595924805701e-04
1.164234147197373587e-04
2.090337358910237522e-04
1.218060562949224241e-04
-4.653870687809921812e-04
2.512491754563414922e-05
1.686232992284555324e-04
6.530510932042902930e-04
1.659356323418016991e-04
4.297153904872334242e-04
-1.924226197826201185e-04
-2.911789228547563546e-05
-4.309778996809049477e-04
-7.902152749267061117e-05
-4.337789014072764102e-04
-1.447510709049724693e-04
3.294493113356144033e-04
6.050772030597485751e-04
-1.026387295621237827e-04
4.138585857302271454e-04
-4.404464082833488926e-05
-8.958245174980067208e-04
8.168837907210739773e-05
-2.907585682395032048e-04
2.409148901444657371e-04
5.114160496585645841e-04
3.728693435701418025e-04
8.707258816558479742e-04
3.352669180438417506e-05
-1.213528355927560523e-04
-4.946738917617387243e-04
7.133551153395212621e-05
2.611112052132416033e-05
-4.058971226491033370e-04
-1.809156421240704668e-04
3.409331788988239471e-04
8.808310900607440696e-05
1.906765637945229510e-04
1.393554690355597097e-04
-2.983803766256676641e-04
-7.599377447166410279e-04
-6.260461729784307626e-05
-1.644641934068460020e-04
-2.552418109938915878e-05
3.534473660574278110e-04
-3.050127796731768367e-04
-7.446301058281731876e-04
-4.778632474416224509e-05
2.790325220673472734e-04
-2.271740827380559530e-04
-3.325570717501276298e-04
6.489320656616813466e-04
3.717634046303386190e-04
-1.363113270681785795e-03
-2.527912989850456373e-04
9.222065886747460610e-04
-6.494761328328002743e-04
2.189143462000918536e-04
6.836296242258706971e-04
-8.261977812040392603e-04
1.335857892536512336e-03
-4.324258905034093553e-04
-1.580240754939556081e-03
7.581665908460364286e-06
-1.139010909130423917e-03
2.271354602031975743e-06
-3.043229220455711246e-04
1.294996196915063113e-03
1.674008779460216582e-04
2.342040015415769883e-04
5.041710104497730809e-04
6.841208224636633395e-04
-3.352991238451371106e-04
4.746410867890317291e-04
-7.837215891138372753e-04
6.036196190020226083e-04
-1.062079044764657510e-04
-4.816145562555554523e-04
-1.288507586419057127e-04
-2.737064003373399640e-04
5.855024102409686973e-04
-3.521661700930042455e-04
5.083555616452074951e-04
2.002148166156269917e-05
2.210858011316602935e-04
5.909787475312513420e-04
6.504518370871148177e-04
2.823707283832196198e-04
4.885647350252141216e-04
4.001252621763156324e-04
4.557058160550428645e-04
-2.719840103309605506e-04
7.302236517838099801e-04
-5.591143736127741687e-04
1.530836110711898557e-05
5.146318459686963394e-04
-3.046253222675792587e-04
4.235385008428630554e-04
3.844268315518170913e-04
-4.511691381605997852e-04
-5.546404074158296045e-04
4.931168440081921522e-04
-1.129904709325800288e-03
-1.992042593041213868e-04
-2.418792844422205566e-04
-1.795789647588831410e-04
-1.604652615645891774e-04
-1.753238456137426178e-04
5.788318481572991966e-04
-1.373797710571143164e-04
5.338783250129199926e-05
-2.984943659519610141e-04
8.261338413964034778e-05
7.306219391731158877e-04
7.285221086298801583e-04
1.791667875537992735e-04
-2.163403527405149171e-04
8.649436773283258753e-04
-2.087103940662755951e-04
-3.106780517610811484e-04
-4.786043195612881712e-05
8.516690090491774168e-04
3.622623671443166529e-04
-7.344586441325503656e-04
-3.188022630794598838e-04
1.743353533028588556e-04
-5.145546450644936489e-04
3.725803858093838035e-04
6.120955969749397509e-04
-4.849171262128339861e-04
-3.020685595905410687e-04
-7.957718829463369020e-06
-3.011353659943138581e-04
3.111214044596312379e-04
8.592203598838888063e-04
-8.194526978770818888e-04
2.764366989496810315e-04
-6.902143376638070092e-06
-3.473593386433593321e-04
-1.249471927866396778e-05
-5.689532663315341639e-04
3.021248879074573258e-04
-4.151166240307020455e-04
-1.643635660380789556e-04
3.153724799038460074e-04
-5.190256937461462758e-05
-9.730183528699515479e-04
3.920680113702529118e-04
1.492117488983260619e-03
7.511042593187669232e-04
-4.238700172817991664e-04
-6.776406616887189777e-04
-1.080522892186755023e-03
3.966004206529617272e-04
-7.044542076315386727e-04
-7.777213341202163742e-05
-6.169344520714565216e-04
-5.088155854853129278e-04
2.240965375928798977e-04
-2.680901824372429552e-04
-2.273808558068029010e-04
-1.081353688796613021e-03
6.428483553769934666e-04
-7.801134696261531815e-06
-3.346643822335287162e-04
-7.516178161852507837e-05
4.189241716495905807e-04
2.086943725950895384e-04
-7.517654002134206953e-05
2.993775223102485765e-04
-1.944469765573889921e-04
-5.806014507053179358e-04
2.757221534492520034e-04
5.249899332346084175e-04
-3.622507398868381537e-04
2.274818019395041411e-04
-5.005134981123557890e-04
3.167856902105862594e-04
1.098097236107065024e-03
3.848207318723014967e-04
5.823118775502272165e-04
5.274665738991357686e-04
1.468778258728009839e-04
-2.499295076648401503e-04
8.008005305002823242e-04
-3.071936053895083646e-04
-5.782720870057432225e-04
2.896366920011096430e-04
1.132640681847812882e-03
4.136395534108362965e-04
-9.799615670130716453e-05
-2.202145933095762086e-04
5.582539837357193861e-04
-9.262987151516940357e-04
4.286096184077304352e-05
5.506044022302814195e-04
3.298993774952175737e-04
-9.443250131347085807e-04
-8.973840583156834309e-05
-1.168964237409563563e-03
5.456717872997645806e-05
-6.980478745847410339e-04
-1.019204298911954116e-03
4.258684884410616676e-04
-4.395943174098336796e-04
1.001089658095423137e-03
5.719141020292468945e-04
-1.391256451178297633e-03
1.036332040024469359e-04
-1.526379596454786620e-03
3.285083990847507398e-04
1.191192360841405572e-03
7.988588727423859021e-04
4.952076474744678165e-04
5.552026128521409714e-04
5.043202821325645400e-04
5.563954835632612663e-04
-1.266066249917511535e-03
-5.622734710459447241e-05
1.144430481080797911e-03
7.908602203395095507e-04
-6.924888688158122637e-04
1.350221128446417755e-03
1.381539938807570082e-04
-5.301421669436618507e-04
2.403971900297133217e-05
4.640526979729619198e-05
2.587173485606823753e-04
8.748831472732566516e-04
1.070075593283246915e-04
-5.289389497494665282e-04
-3.919375861132819573e-04
-1.293698117671565227e-03
2.527561386572778021e-04
-4.164536078079164702e-05
8.238757141280584814e-05
-7.277893005544503130e-04
-3.500327995830326638e-04
-9.208762290828446506e-04
4.489859584855052641e-04
2.642924793311875447e-04
-4.608226787305994476e-04
-4.030580942138941214e-05
-4.308113193720899373e-04
8.175522985996448288e-04
6.127217049180237914e-04
9.425951206499540679e-05
1.453568711668642283e-04
8.512448595792584905e-04
3.169723599633000530e-04
1.919135773995832956e-04
-2.071946822186495013e-04
3.852307768137995612e-04
-2.689741271047791792e-05
-4.677955723327147661e-04
-1.012368342462060562e-04
3.587531055623876738e-04
7.111785202312576222e-04
-5.414620559109216451e-05
-4.914478738817782463e-04
2.038878629132050273e-06
-4.515144330593490966e-04
-6.685373240435479349e-04
6.893445795795836994e-04
8.031751468461691698e-04
7.476158244670946156e-04
-1.624630217322726717e-04
3.743633205871952252e-05
-1.161928660223028164e-03
1.542345257877432874e-04
-1.311425376330897395e-03
9.894272454022922086e-04
1.349717406799128352e-04
7.103915529041304614e-04
5.066558519116121703e-04
7.861390876296823083e-04
-1.050901066761986699e-03
4.594318968943796196e-04
2.378335364982502693e-04
-8.899015622077824069e-04
2.440231104539811847e-05
5.280438929650043073e-04
-1.820059574268545976e-04
1.316456612594160648e-03
6.298006089669722475e-04
4.664189416532789172e-04
-7.771571814052633149e-04
-5.754048881127774473e-05
3.766871021479972618e-04
2.435900935155848061e-04
-7.522842613117644182e-04
3.426655659436245649e-04
3.169911627611988613e-04
6.246828736020522367e-04
5.595680860084479560e-04
1.274033757983092054e-05
-1.124531682865433048e-03
3.191545947636277667e-04
-3.286396131846628038e-04
-1.279086605461028777e-04
-1.818836234088462805e-04
4.519755916313837173e-04
7.205514997165140384e-05
-1.162056888994231598e-03
-1.912855534966807487e-04
8.218480748594693408e-05
2.708574108152320917e-04
1.040979400268224418e-03
1.674671826208673226e-04
-2.568992657995107596e-05
-2.221177093737134443e-04
9.574574532439418810e-05
-3.001411462458106801e-04
6.058505624467764444e-04
9.035320959669807764e-05
4.754491156211223439e-04
6.656985245741050151e-04
4.595544374893863367e-04
3.070995042731764608e-04
4.902809060540048829e-04
-1.555267899048261879e-04
-3.227408008084289175e-04
-4.172846889563727171e-04
-5.126435934297289451e-05
-1.061517977431545418e-04
-1.849107719993601259e-04
2.087448898158639687e-04
-3.154712912996453776e-04
-1.012710668327924062e-04
-4.118578368716182387e-04
1.226364837170067939e-04
2.517998829077415794e-04
-2.356416106992175168e-04
-2.070133510957281248e-04
3.584737135091546406e-04
-6.773973654250835773e-04
-1.054753402941606638e-04
1.403631606795552741e-05
9.736536952784305833e-05
6.113159964904794040e-04
3.231205789084494267e-04
-8.812300842471003891e-04
4.352606353581352206e-04
-8.545462761741306297e-04
1.001955095058558801e-03
1.031909917633717645e-04
-5.024641452109700852e-04
1.781155138284959850e-04
-2.282902147794315967e-04
1.530536573245607488e-04
6.022924080143665822e-04
-6.314806747290390440e-04
1.017799504651686898e-04
1.582805869244170358e-04
4.774133593731440679e-05
-1.955060574451606293e-04
-4.335908985069147182e-05
1.497262267559325895e-04
-5.086535109943683843e-05
2.778094143220234766e-04
-1.239627976389996397e-04
7.774027424010266762e-04
-1.626701849883001089e-04
2.217576481109791688e-05
-4.596473357796137887e-04
-6.358267977472092545e-04
-1.255244764278990984e-03
1.494066124110637677e-04
3.552007420579718334e-04
-7.533623401272954840e-05
-6.884675425056078265e-04
-1.594299767104260081e-03
-1.033151445529329306e-03
-5.773948049246837449e-05
4.464362269718391975e-04
-4.746662526171232903e-04
1.025228728371592197e-03
-2.756091099870225380e-04
7.168150579140736972e-04
-6.879484829048269868e-04
9.633051193566706180e-04
-1.794229711095082417e-05
-8.787119771643090056e-05
3.714542512799919429e-04
8.373372131116378842e-04
-6.316584709556713820e-04
5.598833451697529748e-04
-1.581009802786303173e-04
4.187474708196278262e-04
5.752535327880243816e-04
5.673860250547577665e-04
3.889994490666853744e-04
1.723063453226012702e-04
-2.631586124501166532e-04
5.090638274733050739e-04
-1.853352751371406234e-04
-4.490353921167222024e-04
4.210570559964903941e-04
4.528269352089373413e-04
1.419087766793167781e-04
5.031410485913948233e-04
-4.662631681172890426e-04
6.853610427970125698e-04
-7.584699684988253866e-05
-6.714162423641304844e-04
-1.054100015814729823e-03
8.833302509663103295e-04
-1.177488325642308013e-03
5.514266421254213459e-04
-1.294277979982849354e-03
4.451024728840367330e-04
-3.298704710397225379e-04
2.423796730146866559e-04
-6.989729716700190108e-05
-8.163083913831854820e-04
1.224223225442178792e-03
-1.462466961452226529e-04
-1.425413262986720720e-04
7.222129013349733086e-04
-7.803116745357952791e-04
-7.044074437472098418e-05
-2.135521127037677232e-04
9.358272481844365066e-06
-1.650561156086045376e-05
2.687038547598704329e-04
1.302288735113434992e-04
3.252605551956394754e-04
3.920655113453021820e-04
5.367002291711793016e-04
-6.892633737546970769e-04
3.343712754370946555e-04
-2.533841912735872452e-04
-4.038308269964695565e-04
-6.773288590470580338e-04
4.327220234077267338e-04
3.554990174420523657e-04
3.659668148082052407e-04
2.571532593192092631e-04
-6.543276603182432384e-04
-5.207193684902841841e-04
-7.230336866919962217e-04
-6.916458337191005480e-04
3.442068840236423791e-04
-6.343593019833039526e-05
-1.867324232943077546e-04
-1.070816103344320990e-03
-3.198279018765731643e-04
-1.613616439352385211e-04
-8.666265409876236286e-04
5.518830691409680987e-04
2.239508986160934786e-04
5.042360430027796429e-04
-2.212488588673344910e-04
1.505603058661449936e-03
-1.680472215759540829e-05
-2.759136957401845321e-05
-3.370611808540052105e-04
-6.703401182054657698e-04
6.857011769319038474e-04
-7.363097007789136178e-04
2.420407781753062095e-04
5.420495440003080846e-04
8.036481791172476324e-04
-3.510929359239971627e-04
-1.700895446225101937e-05
-3.498717791882466647e-04
-6.475498367329070044e-04
-2.918461439140654628e-04
1.255708015234217770e-04
-1.070438808081937247e-03
9.636369178206457393e-05
1.952716611129914535e-05
1.729536046833608128e-05
6.213935275991577540e-04
2.836423235989976067e-04
-7.213723307276690647e-04
-6.242193016879479198e-04
-5.338912512612251657e-05
2.978841789217732809e-04
1.438968597031339510e-04
-1.104429218675774191e-03
-1.033477384528414195e-03
5.714277424112164903e-04
3.083377232610224694e-04
-7.539350826908059449e-06
6.241542184150438647e-05
-4.019030841896820854e-04
-4.992513971251543565e-05
-3.418549786995934243e-04
-1.014422327641132364e-04
-6.363445012350595932e-04
-1.658788957970803123e-04
2.846239319254845922e-05
2.653095372340127326e-04
2.348316327889611111e-04
1.274921703013979753e-03
-1.685850971633648778e-03
8.131239329850428884e-05
3.319930937195750601e-04
-4.800173608061162754e-05
-9.288948052434975195e-04
9.124443379498739168e-04
-5.284726732567587111e-04
-3.956180861894299751e-04
1.093565986490709335e-03
3.289432607361706621e-04
8.160918517745815483e-04
-8.544236372625743563e-06
-5.423031235188569823e-04
8.632745335992187677e-04
4.924933729906284981e-04
-1.043505600106469419e-03
4.581830742419682324e-04
9.767487774750688019e-05
-1.993611262483143516e-04
1.635639754999357450e-04
-3.654551211568723393e-04
-4.352588198768566718e-04
1.146906587923276306e-03
-3.626282557670551434e-04
-2.378724335985088793e-04
-4.658170727032763308e-04
9.213757664753632339e-05
-8.140352407836220258e-05
-6.805105892474786660e-04
4.975834414402178314e-04
-1.281000454618303960e-04
2.748455592315589171e-04
1.274244113070625460e-03
1.113477159511670669e-03
-8.088172921111026455e-04
-6.363846485186287023e-05
9.788817761674877254e-04
-4.106091466967576450e-04
3.642166843685428444e-04
1.649685285456243226e-06
-2.544502755203259872e-04
9.220055837062255451e-04
7.536951509646667654e-05
3.292437615949116527e-04
-7.766561416042386148e-05
2.681386647119217491e-04
2.175628516680359556e-04
-6.369882954673443919e-04
6.081286600098513399e-04
7.181440043906499131e-05
-3.724047895822973388e-04
7.388880958103705328e-04
4.174290416586640172e-04
-6.135712256308062862e-04
2.878190795194113228e-04
6.172945313590588604e-04
-4.681168751396140170e-04
4.779192630613186485e-04
-2.405624748242102696e-04
-6.389681969726034418e-04
-1.393637295477083643e-04
-7.974318337284786460e-04
3.219078063970992891e-04
-8.051724280181892998e-04
-1.665329308312103122e-04
3.408595417295808960e-04
4.749674800306977760e-04
-4.833813755785657104e-04
4.441837510283596323e-04
-5.474568312078891778e-05
-1.361666240140194713e-03
6.792739911788879753e-04
-4.236252529819224764e-04
1.615387310536916469e-04
-5.394630066424232736e-04
-4.434231978650197514e-04
1.107069285807602650e-04
-5.219128497905478527e-04
9.011279861643109045e-05
5.864349790129077871e-04
-1.128304460851572186e-04
3.395785610749138452e-04
4.419034914359331809e-04
5.685427817518951031e-04
-9.285634907602800499e-05
6.457409320476319799e-05
1.082744338090361981e-03
-4.818460058860443316e-04
-4.191849629207015118e-05
2.680687221164242693e-04
5.166911798185182605e-04
-1.010956742605002585e-03
-1.274574489575437859e-04
2.977455148275024704e-05
1.133540932899011668e-04
-3.096423900881065117e-04
2.317340773363381671e-04
5.778769317445133120e-04
-5.143367111349342541e-04
2.185458267929061139e-04
-1.248079360564587981e-04
1.112765984067497129e-04
-6.264008307534718123e-04
-2.881746717588433781e-05
-1.597426946311172099e-04
-6.777051584328563699e-04
5.047475055952785046e-05
3.456471440448620090e-04
1.635932683390097485e-04
9.195315020516253593e-06
-3.768119685959925910e-04
-1.346536867084307198e-04
-7.057288046641967951e-04
9.417078044111154784e-04
-1.629533297307326638e-05
9.974409643516571680e-04
-8.269663142289730793e-04
-4.000502142850531823e-04
-1.650853572685563283e-04
2.503095341223681249e-04
-4.228811516887295624e-04
-3.149086718210326440e-04
3.350438838891965187e-04
-5.160446643095096446e-04
-4.021487183090015393e-04
5.017262324111833706e-04
9.914726211998681259e-05
-2.260714089926919249e-04
3.205916336090771594e-04
3.415341796327511109e-04
2.249494606405162949e-04
5.157762072022691394e-04
-5.272545254456029390e-04
-6.978334555254053989e-05
-2.192692767409785395e-04
1.475895287335932571e-04
-6.060845889237240301e-04
1.159739819893487430e-03
9.410903539237263759e-04
-4.329946866260978521e-04
8.438190191810611375e-04
-5.957667130914548774e-04
-1.780559018130977106e-04
-7.802935890142096310e-04
-7.948724690237878683e-04
7.626831214344971174e-04
3.296270282028555582e-04
-2.658527558649334847e-04
6.347722275038249424e-04
-3.312184607307319803e-04
-4.334885281506001796e-04
-1.259216463869833021e-03
1.072516440609692749e-03
1.070779776839173719e-03
-8.655477321987776682e-04
3.929483495328710231e-04
-5.905498589104239042e-04
6.425576452468930062e-04
1.302055174167501914e-03
-5.701794147660524262e-04
-4.715959036356791420e-04
2.634734861231733823e-05
2.319046757967344172e-04
-7.494673740631257151e-04
-1.935088743519507908e-04
3.905092917095106435e-04
8.524334709216121325e-04
6.541016660132688721e-04
2.334503611825633932e-05
-5.143756586867070327e-04
-5.522651569068937538e-04
9.567877868600223020e-04
-6.956568091068047847e-04
4.650100136575490177e-04
-5.023458793157593817e-04
4.817880535088763959e-04
-2.578699531928827318e-04
2.690389806687492583e-04
5.070255482202922468e-05
-5.908891208764082076e-04
-9.907738580057919801e-04
-5.907841439239563442e-05
8.453247687042500470e-04
-2.245727815885326410e-04
1.110045071943940864e-03
-6.205856791403222895e-05
-6.349106972314711578e-04
3.536175630004882698e-04
-8.203259824130282101e-04
5.626029609981159823e-04
-1.595914396098359117e-03
-1.625123148284409713e-05
-5.102213887785796891e-04
-6.616203995061941019e-04
-8.424642603468651225e-05
3.018738737813724264e-04
-1.115741906529949234e-04
-5.877131786332311612e-04
-1.364842540414350505e-05
5.941440846575293816e-05
-8.929811240001461368e-04
-3.271151397719184871e-04
-4.926209390201955135e-04
-2.209630666558242166e-04
-8.384820765676115036e-04
-2.469600619893739548e-05
5.978504168279377565e-04
-2.110664804305255370e-04
1.262402979296221080e-03
2.886722685414985713e-04
2.315149556670270605e-04
7.755460996552107373e-04
-6.357647392376925780e-04
-1.411140720877174324e-04
2.285230297088468808e-04
8.389541096834790329e-04
1.579942466419707414e-04
1.409684698638424480e-03
-7.656405538935402407e-04
-1.706244009823423803e-04
4.792688161412935236e-04
-4.347474753590459934e-04
4.484964624979705279e-04
-1.311025432888587340e-03
3.151736463082831772e-04
-5.944988082449675351e-04
-1.052772677449035884e-04
-3.617779044212209418e-04
-6.314501675132052185e-04
-2.609761653162165568e-04
3.117911611713175134e-04
-1.185684406608949635e-03
3.491421658848680018e-04
9.418090273205517943e-04
3.722485067148915538e-04
-1.145405430172143757e-04
-5.111698565498171560e-05
-1.299226422615678298e-04
-1.817084584932300112e-05
-3.330725261172677652e-04
6.606464146780604749e-05
2.970110379737300830e-04
5.575062416584680150e-04
-5.247024924997624809e-04
5.103456611050727516e-04
-6.032026755278109380e-04
-3.132244245512147895e-04
-1.031565207114371573e-06
-5.553659593807045515e-05
-3.148465396502942056e-04
3.620871446560268263e-04
-2.455638732066865574e-04
3.565275049791663081e-05
4.426078174379315523e-04
6.916034060046986434e-06
1.758236431034898681e-06
1.200362422326477566e-03
-1.309023948185641961e-04
-5.246417081412898089e-04
-4.254523237350647346e-04
5.585649411395267718e-04
-1.407630260112380249e-04
-3.916889323539399378e-04
-1.232368011035893190e-04
8.641197438356145203e-04
-7.088175270093637070e-05
5.328738741177153904e-04
7.625926627799472233e-04
-1.247535873938785409e-03
-3.946604659105252947e-04
-3.002911285076594310e-04
3.142058826090826803e-04
1.228590563949275569e-04
-1.638428966993893095e-04
2.122520450346701798e-05
-2.842565054863105075e-04
-1.556575195024564786e-04
-2.826671749027245286e-04
-3.641163348241431238e-05
2.256243675796622446e-04
-2.071298422441853534e-04
3.682192870210388054e-04
3.944560514399658453e-05
-9.511367228095899274e-05
8.180857968485717713e-05
-7.288764483255307175e-05
-6.042335724373158648e-05
-3.261723578792335250e-04
2.985749661042305420e-04
1.310962363274917352e-04
-2.200735750051462721e-04
2.758571323720283353e-04
1.203487170611121550e-04
1.358441041666150266e-05
-2.526784584950187752e-05
-4.188819394220158888e-04
-1.869017280535378996e-04
-1.352285763175798110e-03
7.082349015062875579e-04
1.259210573426368645e-03
-1.904189260346140675e-04
-3.338341253960405860e-04
1.089207148587078644e-03
-6.748959052917531372e-04
5.942387985442725614e-04
-4.055262724023053766e-04
5.179438937554967873e-04
-4.891403296117105342e-04
8.565189924565485169e-06
-9.025637648653100833e-04
-1.644299723618976858e-04
3.236319794730332846e-04
1.456388384953210993e-04
1.471784652580566477e-03
-2.915129066858484813e-04
2.898055521912606199e-04
-1.678902442699857153e-03
-1.422348329388162616e-04
4.829271454173583505e-04
-7.766165049641903277e-05
-4.230786865312561917e-05
2.492414204522464590e-04
-3.711410174847221285e-04
3.308341865014395198e-04
7.341170151855803917e-05
2.822471640334049247e-04
-1.189449686148289420e-03
-1.244148446209511656e-03
3.717031301528572165e-04
3.393065250871472589e-04
-9.295990256375278281e-05
-5.722403177747118277e-04
3.440581365051989814e-05
2.474444999601357214e-04
8.730147936761088572e-04
-2.491768322322981456e-04
-5.145829038063966677e-04
4.080822030850432894e-05
-7.391828134191283980e-04
-6.062502146216180218e-04
-1.721671388717885601e-05
3.227625604161583959e-04
1.088344105114048095e-03
2.576362211522504274e-04
-4.387501625247182510e-04
2.094478495721499643e-04
1.766025797883607768e-03
9.233571181713731615e-04
-4.576943877598217822e-04
-1.837796970841199906e-04
1.148316307384712574e-04
-2.031504011389563395e-04
-1.723061315867198190e-04
-1.898432884855255935e-04
1.116792283344689531e-04
1.752449701155058492e-04
4.043744036050578371e-04
-3.749622128019675137e-04
-2.804157590057353828e-04
6.833759055393150367e-04
1.523886127669744689e-03
1.774555842870308685e-04
3.188805015389004267e-04
-2.000854302247717892e-04
3.131504449602922398e-04
