# autogen test
# 
# LAMMPS SNAP coefficients for W

1 1596
W 0.5 1
-5.306028852280551433e+00
2.566855830920513129e-02
2.218993434233402021e-02
5.193555538461609028e-02
-1.528984778774568690e-02
2.782481831234157044e-01
6.574367537135206163e-02
3.588636083122630389e-04
-6.442811844330435106e-03
1.271179161981546291e-01
1.002752582302616768e-01
5.176131353856737449e-02
9.901772134734837527e-02
2.605021047784913078e-03
-2.030214286601018242e-02
2.982304022036969676e-02
-6.823132436121405464e-03
6.773658562693235519e-02
8.993231136360818612e-02
9.562782020968571203e-03
3.627473253589959951e-02
9.753841991210032529e-04
9.928292822617805491e-03
-1.719783286818178268e-03
6.765653907739785367e-02
1.077721457078344297e-01
7.036649689496153603e-02
6.136881748845317980e-02
-2.768826374440178442e-02
3.611197017774589457e-02
5.050808853056206610e-02
6.707364453002204706e-03
-1.026906047653456007e-02
-2.039926934233555339e-02
2.387650229563391402e-02
1.011031362299436437e-01
2.937552017392232144e-03
1.151137820468602427e-02
5.584927382910504640e-02
6.747200390231096641e-03
3.038961972957057375e-02
2.077489879103911960e-02
1.256181398574862836e-02
6.696995384967158052e-04
7.316755165118224956e-03
4.057498224642300255e-02
-6.426888766223290070e-03
1.356004068412640850e-03
-1.122572664616335801e-04
-2.288190662289634001e-03
-2.565858168152294026e-03
-2.804055822899645736e-04
9.459099374882963540e-03
1.738509118608630444e-02
-5.708210057744240833e-03
7.607402531209945910e-03
-3.089598282568977805e-04
-4.655641181342235846e-05
-2.954862033508245787e-05
2.034892630808989738e-04
-1.725007956573368354e-05
-4.693970668221522820e-04
-6.477958595829326385e-05
1.239272109995033999e-04
-9.459669048155400000e-04
3.177694143106698913e-04
5.607534297515184320e-04
-2.931074947232473107e-04
-2.235395673824078504e-04
4.286650761540093712e-04
-1.328693760281797953e-03
-5.665849297749312764e-04
-4.119958507499750673e-05
5.702933813636658898e-05
6.745295922146617423e-04
8.417456560119810369e-05
-2.540846256076232843e-05
-6.174500379088468166e-04
9.828569297727117265e-05
-1.721568369855138521e-04
2.798626771190162641e-04
-3.452479475517456950e-04
-1.508339576194112205e-03
-5.188251126336066452e-04
-3.446057816410652932e-04
-5.415044983100413944e-05
3.621497988546883238e-04
-3.735197539769036430e-04
2.312786998251420271e-04
1.074058044547986090e-03
8.989876527882864968e-04
-5.653485934030240065e-04
-5.528365064266041473e-05
-6.405801356108610511e-04
1.636072046569322100e-04
-2.446470603919762140e-05
-1.913547531204738868e-04
-1.539382444065082449e-04
4.511184871421458490e-05
9.987400056735123554e-04
-5.382102259155194853e-04
3.647954468193707889e-04
-7.719471617789492191e-04
6.255477544270717644e-04
-2.015560181926025684e-04
1.844868280390166214e-04
1.139257738431906624e-04
7.292835300843246915e-04
-4.342050224837794943e-04
-3.174447351221185653e-04
4.695949951791610196e-04
-3.118088593055340168e-04
2.548485514499456133e-04
-6.813027641714644459e-04
-6.839849053325486230e-05
-4.377442939576149791e-04
-7.886205141453512342e-05
9.944220909897463507e-04
4.867006821881735305e-04
-9.106340635177276538e-05
-2.121389083566815740e-04
-9.050705816083388889e-05
-3.863270192043254700e-04
-2.301459698531895795e-04
-4.632032407096959670e-04
7.617958685172220154e-04
-2.506914536429037752e-04
1.793382905380247941e-05
1.333189722394868999e-03
-9.014324092763905272e-04
5.782352263151544245e-05
5.062210673337203632e-05
-1.715158006356507544e-04
1.432207506478423448e-03
8.313836767613564738e-05
-2.713386370858589854e-04
2.743711708195838801e-04
-4.147143499591070599e-06
1.879760720168092004e-04
2.571352287461293215e-04
-7.807914304306076865e-04
3.687765936724239049e-04
-1.047464251971589724e-05
4.376588840073861761e-04
-1.525718329017792304e-03
-2.828230109398007408e-04
1.200939955561043529e-03
-1.106050214038222865e-05
1.112072677681308179e-03
6.390052321605039273e-04
-6.902509275138116315e-04
-6.845700112418631397e-04
-3.305917346897567109e-04
-1.304828271666922746e-03
-3.357879649858618769e-04
-3.421517915637249511e-04
-5.168480039057294544e-04
3.339671489631143141e-04
-3.313794448973124310e-04
7.309769359724334174e-05
-1.679925331690905563e-04
4.681583483939473576e-05
8.117769672100829141e-05
9.384867528284159119e-04
9.646791530260913350e-05
-5.975399716255097339e-06
-1.075145855108502134e-04
-2.751996128526407659e-04
8.121787143061464471e-06
1.149389790178130294e-04
3.304126074784206283e-04
-8.729713321013358529e-05
4.543124004369963431e-04
1.873549924481322565e-04
-3.647747637240994251e-04
2.441961995857003611e-04
-4.708958455574688068e-04
-3.110482934461977550e-04
-2.929510362571463274e-04
9.175902201812427604e-05
2.204282071380142852e-04
-5.482073953044793542e-04
-3.000718723186406684e-04
-1.297686546538191863e-04
-2.544574209239987609e-04
-6.717981133673774780e-04
-5.760076658140394438e-04
1.350010018774371609e-04
5.949971742516255889e-05
1.083508849616849647e-04
3.823193576028590507e-04
-1.763440992603246683e-04
-4.870818583954000022e-04
3.614805129208558689e-04
-6.689029311653663578e-04
7.913193312105163064e-05
4.072804598210760622e-04
2.156325099317944608e-04
-7.493405110493240222e-06
-3.355235452578418133e-04
-2.670345189898002238e-04
-5.773782987177277729e-04
-2.164192101448976339e-05
-4.131194478122391539e-04
3.162961576732995828e-04
1.550706115965344481e-05
1.577655973590593851e-04
-6.693140198674064759e-05
5.845050917345251699e-04
1.624285118317812197e-04
2.401666052604662760e-05
-7.192151507496284289e-04
3.088682460222892494e-04
2.853136045991819551e-04
1.820367037195178559e-04
-6.941453549953867808e-04
3.707761388912310515e-04
-1.031042659813975049e-04
-1.295082076961359295e-03
-3.501400679517228400e-04
-4.830225911486424589e-04
3.578361179869251691e-05
1.490930769547978575e-04
1.259763242971477851e-04
7.504073428203586081e-04
-6.346636007402953097e-05
2.122365685732675476e-04
7.598757092848392207e-05
3.302924870844502355e-04
5.304009193109098311e-04
-3.753893130028699947e-04
-7.310733240150467252e-04
6.307395922842827692e-04
-5.558510224583561397e-04
-3.594233965322665399e-04
-3.579532392230896812e-04
-1.443900602835469175e-03
-8.153252404069670023e-04
3.991741996135981900e-04
-5.035498917621802125e-04
4.669785465734163014e-04
1.350472280431607970e-03
1.141408319030643055e-03
5.759132473054519958e-04
1.321369324071763266e-04
4.507164605994503845e-04
7.310314709998208928e-04
-2.197469688263125167e-04
-4.108705254489897945e-04
-9.043313492635702937e-04
-1.273587735225134533e-03
1.755647176524916203e-04
-2.016523328721549701e-04
7.953500450943259579e-04
8.787549659884217766e-04
-1.153340536419717279e-04
-6.941626957036499748e-04
-4.952752651429124717e-05
-1.200147563032220958e-04
-6.168425380494947023e-05
-1.407926093470869815e-03
6.894950295747720318e-04
-1.039968687825747369e-03
1.432007035361729339e-04
-4.067086949953171385e-04
3.215063606708311403e-04
1.556776624476867736e-04
6.595625434429265490e-04
1.216881184431764545e-05
-6.116698375637811495e-04
2.852102555383320194e-04
4.144011821297741041e-04
-4.080102721926687323e-04
1.105220472584232238e-03
-3.114915568595246409e-04
-5.730156807700976986e-04
2.988629108025849697e-05
2.540008944881980504e-05
-4.060100180640776289e-04
-3.326033253263195946e-04
3.069307773886440350e-04
-6.333819551454059364e-04
1.634212290898560732e-04
3.925381791661734896e-04
8.153518754900617609e-05
1.237732801714761975e-04
2.403575589202843930e-04
2.091854427993530081e-04
-1.369758387087125699e-04
2.063558609214539443e-04
-1.217793430672773188e-04
-7.634654404746345864e-04
-6.809559188378575944e-04
1.273882577765423610e-04
-5.297275624373714350e-04
3.272645244776853650e-04
6.031470814584001961e-04
-3.159447951980921300e-04
-3.567042882831029070e-04
-3.912561857778466476e-04
-3.225471544404022667e-04
-4.247034942360958048e-04
3.526954622114102426e-04
-2.999369964013381702e-04
-1.478117426686163544e-04
-3.072769492362196738e-04
5.654732244166328853e-04
-5.245683603030092124e-04
-7.063705546774075219e-04
3.713999175015442081e-04
6.560789742346079061e-05
-3.931576238295673661e-04
-5.987200882385461631e-05
-3.460106448215461501e-04
1.034750574468496073e-03
-8.091533867183013260e-04
7.758494555251711907e-04
-4.022232640847706541e-04
3.033004167021424637e-04
2.162787726318685642e-04
1.180941942199910264e-04
-3.231284050298081955e-04
1.725375606896261077e-04
6.825717815259406233e-04
2.965709128231540479e-04
-2.553469644808167090e-04
-4.101723501608413921e-04
-2.579518156714978713e-04
2.699395926829273860e-04
-8.168366150466987215e-04
-4.614165749637490850e-05
3.964832721668976262e-04
1.646148612289384994e-04
-1.483963008096967522e-04
1.338462804920072069e-05
-4.208215692051787472e-04
4.207542459573929789e-04
-3.320359060043552536e-04
7.030180736907685720e-05
4.109456974528968853e-04
-2.281569864662785112e-04
7.867393514470393890e-05
2.884139915342825815e-04
4.022992130300251032e-04
6.184416343900398048e-04
-6.115346182275710821e-04
-2.925874523404910416e-04
-4.023857505424556090e-04
5.689514726156277803e-04
5.952706597195670185e-04
-3.867490811837373380e-04
-4.655823883114816315e-04
4.880330730109376492e-04
-9.142752534243372715e-04
1.517641539162016486e-04
3.712535561502618343e-05
7.377054252305691390e-04
5.279582586675974623e-04
-3.932252455674374548e-04
7.661361033062933680e-04
6.059096629746206931e-04
-5.973489823720576705e-05
7.406324265203772508e-04
6.393478053446008651e-04
-5.394851119706926216e-04
3.427096297421701552e-04
2.147496754336889325e-04
-1.033847463937163219e-04
-9.163675177167547104e-05
-5.593734663150986761e-04
-4.501757615115564281e-04
5.808269713957612586e-05
-2.659758655567423286e-04
-4.533519176194407223e-04
3.031190618563233091e-04
2.253508991262706453e-04
2.131757535516046648e-05
9.069141296501458550e-04
3.559245061954726666e-04
-8.469919313294523423e-05
1.504626531525208894e-04
8.093494902141788261e-05
-4.563932358378861996e-04
-2.299913455781069842e-04
-2.683026503715336942e-04
-6.589839629555772861e-05
-1.325801404052749525e-03
-6.348773262149290386e-04
-8.011933007243594342e-04
8.506614568157555239e-06
6.425770483638724474e-04
-1.137969719902639441e-04
-4.810775302367004146e-04
-5.466183595226440945e-04
-6.237466305828256487e-04
-1.021212511953699452e-04
2.635307456985681537e-04
-5.270237060474778062e-04
-1.574733781191468753e-04
1.219741159767562776e-03
-1.246025457325797563e-04
-1.082557506491083147e-04
-1.456604584720286094e-04
1.958120101358490708e-04
-3.097328175305432675e-06
-4.638950372547534571e-04
1.014010920928735265e-03
3.290809869935885164e-04
-3.161254612821007325e-04
-4.841962738366762590e-04
-3.425706201064413424e-04
-2.321228145250744479e-04
-4.748906863244257873e-04
-1.184881289239748080e-03
2.218800224167221888e-04
9.265986104506848415e-04
-3.103343575361788322e-04
-8.933447887851822620e-04
-1.240142967741220993e-03
1.071049248692273505e-03
3.523863636314114914e-04
6.558569578789627975e-04
-7.332738487146220167e-04
-8.737414557730753496e-04
2.617775977191562180e-04
3.980899656939155835e-04
-5.636280650246518057e-05
-1.590113637018819787e-04
1.215127661862986221e-04
5.527789667401710686e-04
7.606238161459912689e-04
6.599172226668106531e-04
1.179358318872862936e-03
7.863360763190272709e-04
-9.411249308088099090e-04
-2.944412744025452777e-04
7.741922871174416283e-04
5.273125441159921128e-04
-5.479595235330405852e-04
7.962334334213410584e-04
3.751898501934877164e-04
-8.890780042043558722e-05
5.742856426121932837e-04
-2.294719211655938079e-04
3.410785938750678049e-04
-7.874186710149619264e-05
5.049207989403376720e-04
-6.773395095434858564e-04
8.227509643409416495e-04
-4.163645977593200291e-04
-1.556123933873406742e-04
3.572382179154130473e-04
-8.345854535212688177e-04
-3.238714886858851507e-04
6.924296349827095817e-04
1.183068693535374702e-05
5.491729288265847705e-04
-1.512695379955190293e-04
-6.387599944529607620e-04
1.865944523731281294e-04
-2.838344152894904660e-04
-1.764429340523639535e-04
-3.757569349098565476e-04
-2.197842773844598517e-04
2.668786318629739324e-05
-1.237721461495724993e-04
1.258773234333944479e-04
4.231796738314798530e-04
2.418299319429263587e-04
3.285680851907633003e-04
-1.676240188213819866e-04
-3.740944591835815118e-04
6.091146843555968323e-05
7.703856560363459656e-04
-6.463714618738922906e-04
-7.640738402687107184e-04
2.936437757217742577e-04
6.751859210133976221e-04
4.271475258544535228e-04
-1.646926742831402563e-04
-7.151478360143240275e-04
-1.239385189691343003e-04
3.935591670625179848e-04
-1.844965393370526425e-04
-1.845811390311774265e-04
-5.375926501897719621e-04
9.473169676649664068e-04
1.617367317390427017e-05
-3.809918605442957733e-04
-6.451077593694474381e-04
-3.633360586441680999e-04
-1.347560471953201380e-03
1.388341959401470616e-04
3.390826884948348646e-04
7.151352141528709901e-04
3.515564229717599862e-04
-1.300705969907639320e-03
9.932419217628175086e-05
6.048944706101204525e-04
8.600912298545441731e-05
8.585853175666872819e-04
1.690485074056790899e-04
1.956088330889092471e-04
-2.088750421419041648e-04
-1.090820674944547458e-03
3.158653564957306396e-04
-2.660781323163008156e-04
-3.990549506103352722e-04
-3.417245654567060997e-04
5.876846033363644092e-05
3.168258051721542273e-04
2.462998953151536745e-04
-5.951778915274926829e-04
-5.715242301810761431e-04
1.299521753402119000e-03
2.703474862365060202e-04
2.383278746600260375e-05
5.196741045565087674e-04
5.029100338732575733e-04
-2.182438489390714427e-05
-6.343204720539071786e-05
5.804272847549953041e-04
-2.467827134012508033e-04
-6.696720541453241374e-04
4.390048681913888981e-04
-2.326216350117590447e-04
-1.127979334297231264e-03
4.045221064100057939e-04
-1.419006840968898469e-04
-4.058135480575800983e-04
9.810083588038277238e-05
4.422167240318071609e-04
5.531940967064009331e-04
-8.770981859151810202e-04
1.259124178730986691e-04
-7.229674668438756556e-04
2.536240833902732392e-04
3.011740175109264383e-04
-3.549449135206766883e-04
-1.281740773800691996e-04
8.800210919400077271e-04
4.447268504310252944e-04
7.284102170761614899e-04
2.419202212731193626e-04
5.715526799864303550e-04
3.026337282815535134e-04
-6.807838232833425584e-04
-3.698138017146785630e-04
2.183073060235053600e-05
2.601292524638031006e-05
-3.946582942225951144e-04
3.864955686839033046e-05
-1.353126173016832917e-03
-6.534451983702504584e-04
-5.392924877879963280e-04
7.694391954820298859e-04
3.884784995056553064e-04
-1.292867358641540030e-04
-3.025008432383857813e-04
1.253012847638011068e-04
-1.436200589372198342e-04
-2.056348886738750920e-05
7.047674534514519751e-04
3.655161065074061678e-04
-7.044022007159569700e-06
-1.149077815478345769e-04
1.980800583899841735e-04
-4.872941971278418823e-05
-8.809131415650901494e-04
-6.802471884276879569e-05
1.354303557851676155e-03
3.224101451168660316e-04
4.089328801162416937e-04
-2.116566156174444805e-04
3.704843057400498941e-04
-5.051308956583682288e-04
3.820311123679885189e-04
-2.249538872272787186e-04
-2.883720358277626415e-04
8.158459375364725480e-04
8.920524185893642644e-05
-7.365754857756649744e-04
-9.861639811914484815e-05
-7.522259403907820925e-04
-5.130219105664368196e-04
3.896811576010132520e-04
-1.696525967081705132e-04
8.943016011612217294e-04
-2.746668339803456276e-04
-9.987890407976213929e-05
-3.158373117893307006e-04
5.791928078478411060e-04
-4.669460152258709498e-04
2.872491271422377107e-05
6.150971680017101959e-04
4.037829645368442655e-04
2.994225355401621507e-05
7.728017993877599147e-04
8.028910424377394333e-04
7.337155954522446046e-04
-1.154256263305573080e-03
2.756481681112372528e-04
7.897955703710619684e-05
5.908621476425303040e-04
-8.402663534406892539e-05
-1.671743689949815002e-03
-6.212207984394705913e-04
1.384506164865985096e-04
4.627765453529413968e-05
-1.353772370915294892e-04
2.061176569263313855e-04
5.551852500160787268e-04
-8.997527960057592191e-04
-7.175277129284691113e-04
-5.107398363731098382e-04
5.246891257534834225e-04
-6.215803620251168565e-04
-6.218042923142113546e-05
6.287115002464445336e-04
-5.945955419491930133e-06
1.478751063412226145e-04
8.564708655629530354e-04
4.646130604178641847e-04
1.640849374372482013e-03
1.080411498383239280e-03
-5.613465591737028942e-04
1.168214787687966386e-03
-3.352984547194713194e-04
-7.423601964559068409e-04
-1.043602274277999212e-03
2.075498087180749980e-04
3.114970600935110890e-05
-9.857918692576721578e-05
2.564726339127750216e-04
4.259326217019376799e-05
-1.103235341498872519e-03
-5.752978862800945661e-04
3.490084152899439163e-04
-1.211979629713203204e-03
1.102765565060114710e-03
-5.325979601119236635e-04
9.421453090181576605e-04
8.222039460547395139e-04
6.159811559392981868e-04
-1.276977242319731875e-03
4.018238309608821259e-04
-3.473451882394431190e-04
-1.649348243416582597e-03
3.983414186064606656e-04
-1.654587285164547364e-04
3.678740265478457039e-04
4.235072828504346932e-04
4.141204685583291527e-04
8.108670587310966467e-04
-1.302427434045592535e-03
4.936372314603952333e-04
2.177767479299131900e-04
-1.442859124162142051e-03
-2.416546231374496812e-04
5.781270811900728968e-04
4.207388325675859818e-04
-1.096013439061531772e-03
7.099946492891801800e-04
1.232090169848342994e-03
2.194390384440606358e-04
-1.587487378963184077e-04
-1.591446182995841403e-03
6.760066475792551313e-04
5.364470313077991355e-04
7.817057853294223397e-05
-2.192115306383525118e-04
-9.775243062052239515e-04
7.926788725158277651e-05
3.120971756070255068e-04
1.685809999723461810e-04
-1.341681390527228615e-04
-7.914100241095679529e-04
2.106590776650152917e-04
4.830794222850868635e-04
-4.121760633868002495e-04
1.170407897591522854e-04
3.594143825444011701e-05
3.648754829880447603e-04
4.043282626268577835e-04
-2.944617150036437877e-04
-2.166059396357307453e-04
-2.287375250041833043e-05
5.087992887015741405e-04
-1.114312785330329528e-04
4.077776010989104562e-04
6.445418428596889383e-04
1.101145108094624819e-03
-1.601980542178392433e-04
7.541816201416414432e-05
5.222980073807823248e-04
-2.446360275116788146e-04
-5.525775048716940986e-04
8.531743645419236121e-04
-1.892022248379558388e-04
5.494763650872771642e-04
6.881045870774038726e-04
-2.763783924256479961e-04
2.636001751598523448e-04
-2.325648300891350881e-04
1.151606833411903189e-03
7.456194265930035344e-04
1.215497521606778231e-03
-2.947494668870221735e-04
-3.287585367830034755e-04
1.365716118713261552e-03
-5.254816599590736697e-04
-7.827613049546729054e-05
-3.075577477870399955e-04
-9.928287389169008267e-04
4.073657642051693338e-05
8.763699922468119480e-04
4.062506167428177675e-04
-6.244367964257716008e-04
1.155937506205169580e-04
-4.312971230068884487e-04
4.352177352713592642e-04
9.176704906310792628e-04
-3.667217271712525485e-04
4.684786181134065241e-04
2.391641646756819338e-04
6.128272692881347929e-04
1.769970353652036850e-04
7.180244321617847061e-04
5.691294697573492630e-04
2.178925855100872935e-04
-3.675939976600781285e-04
2.547429335950561024e-04
1.433589378536673990e-04
1.548976183308556245e-04
-5.204877311110870687e-04
-8.540280005197006048e-05
5.185710458555692392e-04
6.800184110886451196e-04
-5.922272609383289615e-04
-5.064766391619067313e-04
1.062086532285932625e-03
-2.511322573860848783e-04
3.699918591403610828e-04
1.567520436828465091e-03
5.374711179685045170e-04
-6.240726179276353137e-04
5.199205143308773631e-04
-2.254052645321478153e-04
-1.048016772912032908e-03
-2.737372535816682217e-04
3.939637398666052059e-04
-2.938202840322983074e-04
-4.046784979711294506e-04
4.798634306876969013e-04
-9.357107985706470798e-04
6.037106576079913139e-04
-6.976402391499310005e-04
1.522672925130770039e-03
6.348045268678238805e-04
-1.757668954540593965e-04
5.272461243095689183e-04
1.885923778286717099e-05
4.656239003809418118e-04
2.363469855387522411e-04
-9.151422728382358916e-05
-4.117231077482567838e-04
-9.964341231131412444e-04
-9.701408532227932856e-04
-3.327238386463974369e-04
1.086956840142616534e-03
1.532695216327996845e-04
7.101655620777687025e-05
4.403117574981911596e-05
7.698827472285777319e-05
1.178564756033408811e-04
-8.942891284536578014e-04
-1.876267833305511222e-04
-6.806720395782257923e-04
5.111771738142311576e-04
-7.709048765794373906e-04
2.634994779451857536e-04
-8.396486464917566077e-05
-2.063408453224864947e-04
-3.806270663215674597e-04
-3.155437398551630803e-04
-1.063703679751564895e-04
-3.084866440505666901e-04
-2.996280180544197468e-04
-7.688360938050799783e-04
-1.135349181837750059e-03
2.693031407333406507e-04
-3.951064200567790683e-04
-7.283032207648458805e-04
-2.082401535822822256e-04
-5.514742776730572216e-04
-1.200355361029527802e-05
2.415297553905425598e-06
-1.298115983509637089e-03
2.416035542562684421e-04
-2.513082970199957298e-04
-5.227780170844278408e-05
1.322595608030733162e-03
1.155312644686450193e-03
1.549212448229571847e-04
-8.756407309971343637e-04
-1.546244343589542292e-04
7.987214430124713917e-04
-5.576384318322729055e-04
5.557094085011295175e-05
1.417452069195910660e-05
1.833928494706807768e-04
5.366459991970188356e-04
-4.589007096534226016e-04
2.796859914796910487e-04
-5.296570404655376058e-04
-4.518876833649485502e-04
-3.221472780677212509e-04
1.176034849541662776e-03
9.712654108585473981e-04
-2.142407366433116253e-04
1.027375315253291105e-04
2.467938405599711077e-04
2.163903375458828531e-04
5.215407158337065710e-04
6.605363743348068375e-04
-1.362185590081613044e-03
-2.180288022208815956e-04
1.012769887666875503e-03
-8.052499597928548542e-04
-1.819463537748516673e-04
4.902850340001991668e-04
1.475094029729452823e-04
8.615825177529810375e-05
-1.160305450237297055e-04
-1.552366669886063189e-03
-2.848512775967522399e-05
4.379338977599104622e-04
-4.031585127131269777e-04
2.487625262086289854e-05
7.857044265445883033e-04
1.317550581920177207e-04
1.464520185326603427e-03
-7.608988455232621145e-05
3.962140728554391141e-04
-3.469365532453506278e-04
-3.285418038014349418e-05
9.611939047795400783e-04
-2.376748630924588595e-04
2.453308328054818951e-04
1.153967958075710881e-03
-6.481059339602149956e-04
5.328693043185113052e-04
2.183627474869259742e-04
-4.620226162806241100e-04
1.043092347425318787e-03
9.186876934903850803e-04
1.868122183069859999e-04
8.849539662477920194e-04
-6.614776881049063296e-04
-1.817588178292026731e-03
-4.297215515249546000e-04
-6.886345509502746947e-04
6.381098484300979723e-04
-2.756677915663289786e-04
-3.597969210589155612e-04
1.164699764745940561e-03
1.194539080887136367e-04
1.663261381314648773e-03
1.045575282590463593e-03
5.054964706855096922e-04
-8.232982855774250742e-04
1.356620923312577874e-03
-1.391709578670575305e-03
5.399647684322300472e-05
-8.195719470166344407e-04
5.849103740448792802e-04
5.364839994131858150e-04
-3.503740442722529406e-04
-9.358598771703603535e-06
1.127965815164555864e-05
7.574712887027049840e-04
1.617941051889899948e-04
1.176564053978199466e-03
8.609194324273146881e-04
-1.063341381238159114e-05
-2.983425455436895389e-04
-1.323285214178405913e-03
7.993030088275918836e-04
-1.343845882294754704e-04
1.462762360914530622e-04
-4.601471484528617088e-04
-1.613518373731363765e-03
1.566862795301920486e-03
1.832308474413470078e-05
8.591079950943409250e-04
-4.074823297796674676e-04
-1.248087297682600242e-04
-8.038760742017322415e-04
8.001427777910444586e-04
-1.602370906735367442e-04
-1.194561230081510447e-04
1.099902395792296602e-04
1.724910005731804859e-04
-7.119859810216778951e-04
2.442942317453901738e-04
6.848059700824491846e-05
-7.926260070214764418e-04
1.285737540961764031e-05
2.365157990288736052e-04
-4.947359386540447351e-04
-5.118555456008594114e-05
2.051694264260702904e-04
-1.391619756210256394e-05
1.659259214828967934e-03
-2.295271463066085788e-04
-3.202852048998455856e-04
-2.148770100476469960e-03
-1.678055467509093415e-04
1.160156260753850230e-03
3.730585900488709336e-04
-1.385104626109012738e-04
-9.366560540343648038e-05
2.438834015931143362e-04
-1.306321936515987200e-03
1.740756879341285538e-03
-3.250701422813585730e-04
3.815465263462394568e-04
1.095801433073423457e-03
5.053820630217275602e-04
5.219652111937917512e-05
-4.568282228370263353e-04
-2.460705337600897422e-03
-1.491303968816570184e-04
-5.289708047893150770e-04
-1.825164189403671779e-03
-5.803905325487866088e-04
5.910568845522096507e-04
8.685309210090674673e-04
1.072018343291876149e-03
-8.620906536558131054e-04
7.882754282261556639e-04
6.813375083227526637e-04
1.307330386408476390e-03
-2.800507186337786888e-05
-4.872605697946229904e-04
-9.239302303226513578e-05
-7.894799558419168415e-04
2.407134923281761493e-04
-2.374114475640808326e-06
8.869939050531135995e-04
1.236802828381055545e-03
-4.279664621950796826e-04
-6.074293851587028248e-04
-5.636773467955985897e-04
6.126767029234396564e-04
6.677915940283255967e-04
3.739540004589682765e-04
7.734561850002251568e-04
-1.497406341119919158e-03
1.528271708046982690e-03
-2.271438736756927358e-04
-1.463435846686744822e-04
-1.374154148565827599e-04
7.600550620452801954e-04
9.596298982866003063e-04
-5.638710859562238374e-05
-7.281300424833342432e-04
3.763284959449197812e-04
-5.903347809125785014e-04
7.355365796163577984e-04
-4.305085286551444735e-04
-1.477374872541226006e-04
-1.540002156212028723e-03
7.201835671331286532e-04
2.821896516402791358e-04
-6.049403796083460509e-04
-2.590391724087982004e-04
-4.268642214067299703e-04
-7.474857999104817007e-04
1.793202477042563959e-04
7.035942739498353502e-04
5.333813057917547460e-04
1.861204029390475253e-05
6.340701640778486714e-04
3.989951579924905884e-04
1.099952828906604124e-03
1.390923691607506905e-04
3.092632951606428312e-04
1.715766139308599512e-04
-1.860546219544097777e-03
-5.623042556417431415e-04
-1.993698967672997632e-03
3.725085257014389421e-04
-9.352944321100350707e-04
-1.455574104034513378e-06
-6.292669307061170628e-04
2.085860711320795813e-04
-7.102344793952505104e-04
1.214864903186135651e-03
-5.053392474106627522e-04
1.129180099018480508e-03
-1.760617691887551774e-04
3.067991336241250718e-04
-2.963087820988761232e-04
1.064680363211056058e-05
-3.432692940580872295e-04
8.581271495065912218e-04
3.792063372923732995e-05
8.965026658636896829e-04
-1.238165900115295289e-03
-8.001558179648171750e-04
-6.142749286479046080e-04
3.153545407805272410e-04
1.006571598322817881e-03
-7.914795687975857350e-04
-1.806592959992624062e-04
8.132203977487997403e-04
2.896750493482579906e-04
-3.049895726209930790e-04
2.853940631185535276e-04
-1.031410624907588532e-03
-3.583392827538064247e-04
6.315663199147093787e-04
8.517021198658785873e-04
-3.538180411807489620e-04
-9.105824386603915974e-05
-3.328083594708611476e-04
-7.788966363879812164e-04
-5.948693975603511078e-04
-8.387533720224735071e-04
4.157455186352719068e-04
-3.139644304583322459e-04
-1.958797405023597474e-04
1.415279460361596907e-03
-9.983385942650669330e-04
-1.137202106178901689e-04
1.025290127041083915e-03
-7.250570479640281287e-04
5.209940673479630281e-04
8.316390509049165778e-04
1.360409921535204244e-04
8.458173865741769760e-04
-5.325468751829611023e-04
-6.914681242986145740e-04
8.686242817033879352e-05
1.832170270654132830e-05
-2.968939442432134632e-04
-7.072322847776987310e-04
6.355468406773845478e-04
8.538297029845484079e-05
1.848647156625584005e-04
8.458546363193292553e-05
8.725051728213918363e-04
-1.514541053276804734e-04
2.695793762757097973e-04
-2.309421174281720842e-05
-9.678784573550837421e-04
2.508416486777491220e-04
-4.712047574723609005e-04
9.502771434393620005e-05
-3.139464753338733422e-04
1.445183334681320964e-04
-4.603822874904196110e-04
-4.982619909387884149e-05
-3.079183610606686292e-04
4.404119570629543549e-05
-1.986515597122295732e-04
-6.749862791771367085e-05
-1.200085423878656526e-04
-2.972717854860895226e-04
-1.299043714946749098e-03
-6.559622891016893709e-04
-8.164776974183263463e-04
-8.139526656847971640e-04
-1.098554120878844029e-04
6.071763118968012077e-04
-1.088596405985421575e-04
-5.114443402466668917e-04
1.131806934014682612e-03
2.845487625092168733e-04
3.461700614727955235e-04
-3.405923006651684023e-04
-7.637615072200251579e-04
-6.873830411362255718e-04
-2.731806053840829616e-04
1.778919290818186272e-03
-6.768169145355907093e-04
6.168827310545321437e-04
1.938052257929259606e-04
6.068754564488385813e-06
-1.296738650683869495e-04
3.600634725916346474e-04
-1.460617679525700457e-03
-1.552480526800952432e-03
9.816830983175495087e-05
-2.161226333921399136e-04
-9.591476679781351907e-04
-1.378076506525416009e-04
2.391097894705305517e-04
9.921874000484416992e-04
-3.913157429010505079e-04
-1.956777625266420385e-04
4.701138485578407774e-04
-2.512800143663252475e-05
1.125867407088171996e-03
6.580248235016341804e-04
-1.556719063861512244e-03
-4.476507674972974985e-04
-6.238920914642676063e-04
1.585775254003306332e-04
6.996756969612856394e-04
-2.154268185396699710e-04
-1.374446064208819989e-03
1.620897315054795887e-04
1.027616541813735230e-03
5.140773993389096417e-04
-8.941064052124207001e-05
-1.353970161251241765e-04
8.575237620920421239e-05
5.796832212609505331e-04
-8.258846221247582130e-04
7.333975053710618374e-04
-4.090984748143022478e-05
-2.969853454465918945e-04
-4.241996525929103701e-04
-1.045616163419413932e-03
-1.969301244330377127e-04
6.145242357069580479e-04
1.080855814228534454e-04
-4.020229389313709472e-04
4.932777394014758923e-04
7.642604649619154367e-05
-6.161405551169641618e-04
4.994637379601358281e-04
4.124474508998665742e-04
-2.066646706386281607e-03
6.934442617901222510e-05
-7.634449834630405553e-05
2.020216377289292173e-04
2.067026955621836565e-04
1.248314037398078058e-03
-3.663867616241751028e-05
-5.417105137842086887e-04
1.021816344955532065e-03
-2.372794191311336520e-04
-5.006776817445702382e-04
-2.261690174321795562e-04
-6.139443250695901175e-04
7.484293251474273740e-05
-1.469704489755723018e-03
-1.449231866679142071e-04
4.088531939590195102e-04
-4.355656567036380916e-04
8.844795586340393903e-04
9.026015367744397297e-05
-6.132476969460016753e-05
-3.525544110352543756e-04
4.205597642435580488e-06
7.469831602029659108e-04
-2.889107486557434884e-04
-3.066734230634462913e-04
1.051358929965081219e-04
-7.398303379724360850e-04
-1.380872551923250811e-03
-9.630874529669436338e-04
6.010653884603705524e-04
-6.709425083932644453e-04
-1.875167162040307725e-04
-1.714666890027473811e-04
5.270062132370211688e-05
1.552538448310262402e-03
1.278776149767985254e-03
1.157109641206385375e-04
4.875037400140906662e-04
-7.464582207570578986e-04
4.493642149163489885e-04
-8.502396452102051715e-04
4.555048303854656515e-04
1.096657705764898794e-03
-2.499321502738405362e-04
-7.811601323153463238e-04
-5.985293955437700347e-04
-4.052278360922403921e-04
8.373694170046279027e-04
6.788986816889668215e-04
6.569144562855916457e-04
-3.410334121682409700e-04
6.874615303095249139e-04
-2.103099387955598132e-04
2.870240988630726035e-04
7.925792548301709237e-04
-1.234854057844407655e-05
-3.319292959703413473e-04
1.957753897251353521e-03
1.789486878528699269e-05
-5.463949147529627493e-05
2.424145833267457801e-04
5.281853477296826393e-04
8.098972278767715581e-05
6.269001747143371868e-04
-1.363754322348140376e-03
5.283202378254606970e-04
-7.282436171358076804e-04
9.020947378387575259e-04
-2.883857665055645841e-04
-5.191724093146984095e-05
-6.343247864948568923e-04
-3.862481529657433221e-04
7.379595848477291109e-04
-3.554611606497741949e-04
5.097636607807250501e-04
1.043595593370306041e-03
8.288300202826368078e-04
4.145573411908620980e-04
4.696240570965499561e-04
-1.003315936882753518e-03
-5.675302594286188961e-04
-1.718489703796498150e-04
-7.867135249345875254e-04
-1.097257380658362173e-03
7.221998696499016537e-04
-9.871554543924589663e-04
2.723289956125517783e-04
-1.982495795608323281e-04
1.254163394633438970e-03
1.145443015339191103e-04
-3.164678110141977657e-04
-5.752179426985765814e-04
-1.150647062515574182e-03
-2.755846680058280577e-04
-6.246081973922279094e-04
-3.763921446238045472e-04
5.885496898234604578e-04
5.290597080571316077e-04
-1.134315193256218209e-03
-7.983222192459669129e-05
1.540987713159494793e-04
-1.116480544826225357e-03
-8.829491221087615305e-04
1.343792848568335944e-03
-6.493984845672581233e-05
-4.594876032007779148e-04
-7.832729983301462036e-04
7.997833384497873843e-04
9.741778589168656986e-04
-5.392107690710611035e-04
3.987488740670377539e-04
-3.392255104571068329e-04
-1.331435769081910523e-03
1.737138468695601260e-03
-1.394979520899914099e-03
1.063232372204922374e-03
-1.848007858236746896e-03
1.612122897874048073e-04
1.311595887951288867e-04
-6.654940766777572240e-04
1.873968736384763658e-03
1.843876110843860718e-03
6.176430546181329011e-04
-1.498730393137930397e-03
-3.846982406503245328e-04
-6.489008655850957846e-04
4.712805594597838121e-04
-2.046814758861718192e-04
-1.024048083133745823e-03
-4.272743396754259725e-04
1.286845713440808278e-04
1.187028775786364964e-03
6.005700586686016926e-04
-1.733727045834732071e-03
1.456333950393697311e-03
6.561079930934779611e-04
-5.420996305973637840e-05
-1.591002730435263379e-04
-3.174959383191150019e-04
8.033293764906739021e-04
3.583659402237205239e-04
3.176779737651207170e-04
-7.111949386087018914e-05
1.130251882816929400e-04
3.747680769043509842e-04
-9.389871603097791914e-04
4.575829044642170610e-05
-5.498697887343674336e-06
-4.039387762655648022e-04
8.618227012718809952e-04
-4.141907593791180624e-04
-3.789149952755237915e-05
-5.161162819357461825e-04
2.725637051434797657e-04
9.369272897215746897e-04
3.926126817227013218e-05
4.566318949830011474e-05
4.639953796045424936e-04
5.096407340912350713e-04
-3.147305437138577812e-04
-5.512419121900943506e-04
2.499550529861064435e-04
1.240038338410127776e-03
4.326273298989873495e-04
-9.017588448947276483e-04
9.936569660153410041e-05
3.169189650142316818e-04
-3.467436425681968905e-04
3.725936613517839943e-04
-2.838172704448658937e-04
-1.019791644459722276e-03
-8.614893701894910181e-05
-6.455260475949731007e-04
6.965971661472371073e-04
-8.335322512339775249e-04
8.489136185519356595e-04
6.063138474694296275e-04
-3.305194771428940272e-04
6.637139555206505244e-05
9.013312273718368333e-05
-9.478208745366663258e-04
2.765115675072086078e-04
9.405163068802681239e-04
5.793061804817071885e-04
-2.119321877971980564e-04
-5.768628437164616393e-04
-4.123356199304399378e-04
-1.338666400291368486e-05
-5.375115262391204872e-04
6.103721927825813244e-04
-2.967638382069737375e-04
-1.595646943395144924e-05
5.994681711175179695e-04
2.924754445207744318e-05
2.927937723917658488e-05
-1.044953193591034420e-03
-2.421306725276018194e-04
-2.482020665265054888e-04
8.965109788071056731e-04
-5.620933564056558021e-04
-4.773131210850230189e-04
-1.589818643114751073e-04
3.604142849600465215e-05
1.470611013116316171e-04
9.077105965698296908e-05
-9.539171794474671207e-05
-2.576065803585641709e-04
-1.016280847554027931e-04
5.332516686222865459e-04
-1.010316975082224472e-04
-1.266005865180055371e-03
-6.580694377850220510e-04
3.783310966544246238e-04
-2.626716358447556653e-04
-3.319401735441416461e-04
-2.631651237816070806e-04
-1.847976858541799808e-04
-7.539415826923637036e-04
-2.153849541365232805e-03
6.872661553425724263e-04
-1.466501382371068014e-03
-7.178218855860109878e-04
1.677900615793825184e-03
-5.501964712654325773e-04
-5.160288907151864765e-04
-1.101391889346700842e-04
-3.373094117085789507e-04
8.759087491785961166e-04
5.599889688197945501e-04
1.249586305385453049e-04
-2.075817705348053440e-04
1.821114064894397344e-03
-4.550568903309558941e-04
-2.055425899502913174e-03
-7.922399535669596895e-04
-7.175437766281819144e-05
-3.692129233870769940e-05
-3.792044911278633231e-04
-1.547205682659166998e-04
6.786451781249964981e-06
-6.332524768352741206e-04
9.031211983417865730e-04
1.530368096490189803e-03
-3.200988690716553495e-04
4.363537965209992377e-07
3.738626237168165092e-04
3.198348882881285604e-04
-5.589498990130204858e-04
-8.913826561161766054e-04
1.172840817374500629e-03
5.276827239010055664e-04
-1.111381890901909147e-03
-6.755831549805129061e-04
1.066712990569213719e-03
-2.311460080319802991e-04
7.888165816487195496e-04
-2.746099524976958282e-04
3.458288554882042124e-04
3.044127476363568479e-04
-5.155941302796481504e-04
-4.542477211271130099e-04
6.176273991497066010e-04
1.037400680487353134e-04
-5.322699654444135783e-04
-1.500220062923586940e-03
-3.769285303751437671e-04
5.559514675912123356e-04
-1.503611820539761538e-03
2.692268949015930017e-04
1.654118365544870626e-03
-2.495162771919809852e-05
1.636357799894988963e-03
1.424043242701374676e-03
1.430180087643660638e-03
-3.999748526342613610e-04
9.188692606037108124e-04
4.469819771568358559e-05
-1.146535427118045535e-03
-2.616120502547189400e-04
6.628062105700003974e-04
-4.989135477908866788e-04
-5.872818239389992123e-04
5.978184329770902311e-04
2.768259426087977854e-04
-1.738654419320186117e-04
-6.481863530003341813e-04
3.099708749498046264e-04
-1.218417222922509729e-03
7.220103695950474184e-04
3.618484275180319440e-04
7.088909948063213014e-04
1.891073071102656483e-04
-1.942063831468345946e-03
-1.335139839197452142e-03
2.342184102745729002e-04
-2.899987837220043647e-04
9.706632735205859277e-04
-1.660221882117414189e-03
-1.179134742593681076e-03
-1.143487820736125869e-04
5.676931374392913668e-05
2.884588053260329194e-04
4.118852568164992371e-04
6.169807914834853513e-04
7.612486744401760841e-04
3.935240732171314901e-04
6.369427526712425399e-04
-6.725205991400155054e-04
-1.886798355050300219e-03
-6.301322786613066935e-05
9.097863788120182050e-04
-5.080372535044972620e-04
1.273104928032233038e-03
1.261118869327695858e-03
9.865558181139091811e-05
7.136694153567188547e-04
2.216338978260386369e-04
2.442584619320925304e-04
4.629645601090397232e-04
-1.778724958245365192e-04
6.525073540298755980e-04
-8.484268280841299106e-04
7.295596656396672588e-04
-8.654553049417462252e-06
-3.649656740142046647e-04
3.052427808750129284e-04
-9.915417047867388159e-05
2.253522982017587030e-04
1.719001576024885942e-03
5.474749726798996746e-04
1.376336356286060527e-04
-2.302545399273109718e-04
-7.162408579525777292e-04
1.655333107032772025e-05
4.940482918937735531e-04
-4.247555658308627634e-05
2.091834042604040348e-04
1.517651269889980063e-04
1.405071953517492752e-03
1.477717495708016872e-04
-8.678488055711020693e-04
-3.663624456376853500e-04
9.879043249531996090e-05
1.717141979579553694e-04
-5.944128371846835570e-04
2.565014036292715695e-04
-8.361645116484853245e-04
-5.637871940519648736e-04
5.295167945138757552e-04
-6.291902758273179206e-05
2.857105970891497164e-05
-1.050262002818493209e-03
9.944307679065460812e-05
6.779644288288819935e-05
3.842207477579981031e-04
1.838190182842108116e-04
-1.124681661390116951e-04
-2.318978929671745479e-04
9.182559231911699774e-04
2.084337622555185196e-05
-6.980090481951224581e-04
1.379305618769995469e-03
4.087747583592782471e-04
3.702324734503000306e-04
-3.912332170758256846e-04
-1.025966116703515242e-03
-8.343234670128730492e-05
1.434793494782510390e-04
7.353324762103125023e-04
-8.175084120033955049e-05
-3.698003732089002396e-06
7.365891372687637974e-05
5.113035244067486368e-05
1.687106395453425226e-04
-2.471817406845198658e-04
3.450242356418619077e-04
9.112934849508553289e-05
8.726305450873212053e-06
-3.406930322040167824e-04
2.187966207642807418e-04
3.279291649061412840e-04
-2.568841449917873775e-04
-8.516773306292018710e-04
-7.654891940670037346e-04
-1.103222081548310262e-03
-6.441606019691482334e-07
-1.099963389672823982e-03
-3.625022824348213594e-04
3.617580318283092496e-04
-2.092582758769351281e-04
9.551171297130715658e-04
9.668191790849958028e-05
-1.352417403601578879e-03
3.179049272018054438e-04
1.476496380337438891e-04
-8.113059416973128057e-04
9.049009144854244650e-05
-5.082819989661417626e-04
8.268183414174832581e-04
-8.287835408914309655e-04
7.901620580801961037e-05
1.156265651924739659e-04
-2.250096432781068889e-04
-1.075733724219549506e-03
1.283655745151817502e-03
-1.199775600900093069e-03
-5.850425219309413104e-04
-1.842714863405315521e-04
-7.982888429738509584e-04
6.345453714963489051e-04
2.091217513691866149e-04
-7.997961091791912659e-04
-3.421346758200026765e-04
-3.238220582178667566e-04
1.385641169458914474e-05
-7.706705553495223288e-04
-4.767263759031447820e-04
-5.847499669536013580e-04
5.917409031106079945e-04
2.319618756519522716e-04
-1.435568532599136040e-04
-1.485310708542383722e-03
-1.617960270085815793e-03
7.601589163022217429e-04
-3.750551827014920168e-04
3.132410860733081674e-04
2.535777073586274028e-04
-2.903228614375807492e-04
-2.011305269954860348e-04
6.861670768189547399e-04
1.183624310641878875e-04
9.655656942391934111e-05
3.281497720269786604e-04
-6.178561985193062062e-04
1.030226185426005116e-04
-7.388142917705036632e-04
-2.238922201631522529e-04
-2.081071837472321835e-04
1.518833896135293824e-04
-5.292687648193059253e-04
-2.643661996285626321e-04
6.885190907817681288e-04
8.911512679385447165e-05
9.918700537096501735e-04
9.209605987590776567e-04
4.720924770465053451e-05
-4.138405295390007108e-04
3.043980401241487088e-05
-1.090152429037090679e-04
-1.345135045452363514e-04
-2.926434302797217206e-04
-1.925225969115971201e-04
-2.589178294871420335e-05
5.327100575843986621e-04
2.548807113841703473e-04
7.122023796712701133e-04
-4.264155725917310579e-05
-1.535085855948911410e-03
2.891731429196245850e-04
2.583608214466450934e-04
