# autogen test
# 
# LAMMPS SNAP coefficients for W

1 1596
W 0.5 1
-5.306020940351207749e+00
2.607494905768857618e-02
2.225226569134183124e-02
5.191530163849317897e-02
-1.527761675703928623e-02
2.782312318817727337e-01
6.576087656559957695e-02
3.490112209722092090e-04
-6.232933605171852263e-03
1.270745484027911709e-01
1.002908762868665038e-01
5.178635463959298246e-02
9.896839836840085058e-02
2.647369252741152770e-03
-2.028274627763014537e-02
2.978680754212785844e-02
-6.880326936424765831e-03
6.776836226739779701e-02
8.996028178898228533e-02
9.523697722748839314e-03
3.622454504636325734e-02
9.316308185397751546e-04
9.935449082331630072e-03
-1.549217326154115086e-03
6.760897293648374107e-02
1.077632139620700730e-01
7.031256038142078002e-02
6.137318234802704997e-02
-2.767969622430282994e-02
3.610261533451616933e-02
5.047756722953728598e-02
6.764811388399532069e-03
-1.032927102522795092e-02
-2.014632713385643842e-02
2.387292268698919251e-02
1.012129119215132156e-01
2.899941873507060584e-03
1.144194878074435151e-02
5.584114159485909640e-02
6.653154582028824107e-03
3.039983124060511438e-02
2.079236006691521574e-02
1.259633958374142305e-02
8.382517674372256741e-04
7.361173547769360621e-03
4.049130672811222104e-02
-6.350949623408902456e-03
1.271685602378552250e-03
-1.476132494663334391e-04
-2.316981539664419130e-03
-2.532687191630723922e-03
4.092543315691630579e-05
9.445478696424560588e-03
1.728059943535889542e-02
-5.663358741211590650e-03
7.666617206436843017e-03
-6.873170811049370628e-05
-2.936107117703482027e-04
-5.607540142819767700e-05
6.029653651821428916e-04
5.290160576768496972e-05
-1.827628471211939346e-04
-3.620484421239651652e-04
2.479003612855868507e-04
2.030529613068925480e-04
3.186588596251353810e-04
2.898906782033808022e-05
3.113258250225008289e-04
2.152453496278130055e-05
-1.255390212472288895e-04
4.979966781179205338e-05
-3.733709159472778068e-04
-2.867606217858289326e-04
-4.460007553947142677e-05
-2.488773605945781187e-04
3.333329122525416138e-04
7.019623551168552864e-04
-4.324022558456864585e-04
7.766863622206811400e-05
-4.051114415833056656e-04
-5.419252260969736760e-04
9.266690991632952246e-05
-3.484321629269396541e-04
-1.792922890777047030e-04
-2.786934108279504854e-04
3.858400226164942679e-04
-8.128282779331916024e-05
4.857760664316064102e-04
1.707688103502731463e-04
2.825615032114592849e-04
-5.399414782973103403e-04
4.532309190806340228e-04
2.905762723131434608e-04
-2.044373377711276309e-04
6.303957031602636964e-04
-3.637000796750426636e-05
-2.130089328912847203e-04
7.887130354763354607e-06
-1.484611382227904865e-04
4.277260543187039036e-04
1.235830922612149430e-04
-5.022665485962110935e-05
1.093735803868228551e-04
8.481223626058959205e-04
-2.171992096695615643e-05
7.863950316832282066e-05
-1.212877122113296588e-04
-2.927543901416338119e-05
-3.865721805138123783e-05
-2.339382630449933346e-04
1.287741792293937884e-04
4.827210529186390636e-04
-6.481851722700192728e-06
-1.672639787012728169e-04
-2.210063552792912748e-04
-4.344084089424626080e-05
2.449054715743022455e-04
-3.740030037213890046e-04
5.063894672803337773e-04
1.083256033949557491e-04
-1.405837917819498521e-04
-5.860588590179851946e-04
9.384482822491922098e-05
4.597171041617409220e-04
1.911979822244962287e-05
1.400048473419290406e-05
2.928981726890198494e-05
-3.256394522118144529e-04
2.149022930241627921e-04
-2.238282164513340417e-04
1.426190147888856358e-04
-7.073211587519736025e-04
3.753506021282908473e-04
4.418542607670864061e-04
6.043813412960802773e-05
3.939493572808157101e-04
-1.778335487848311798e-04
-3.992250585399218931e-04
3.343755630082619014e-05
5.656876705812290476e-04
-3.246742617222242986e-04
-7.489185718817869359e-04
5.598906336104151737e-04
5.202700184830789769e-04
7.060560593022450170e-04
-3.128417160113902695e-04
4.286446212295773805e-04
9.923789471394377389e-05
-1.803729273457716658e-04
7.183205064856773396e-04
-6.371850278984860037e-04
-2.538135828335301132e-05
6.741509719890397261e-05
3.433122547553129505e-04
-8.655567960535171228e-04
4.887701727387679758e-04
5.264595675266963825e-05
2.905864444539983031e-04
-5.894218717308608024e-04
-5.808905078333645835e-05
-1.880794086461888949e-04
1.103950032878382931e-05
-1.049252651569392491e-03
1.713136812418262470e-04
3.876301259460623091e-04
1.652319940553652412e-05
1.328173554941208746e-04
-5.001811736397496471e-05
-3.331866410909954261e-05
7.414401869994067288e-06
-3.123690839423716665e-04
-9.204840110243422242e-05
1.275011022732764883e-04
-3.268588546894343050e-05
2.104427119257717751e-05
-5.759474050425873948e-05
2.237866543355657265e-04
-6.335200505380013749e-05
-6.077028754670160949e-06
1.066877395870682274e-04
3.627453703078764282e-05
6.452224126605950226e-05
2.698552659390171158e-04
7.125617792309790960e-05
-9.126964231305606501e-06
-2.785070531538195028e-04
-6.683288977723072220e-05
-4.726515627514832151e-05
2.910952745592124054e-05
-1.493142631232037543e-04
-7.196638754658267023e-05
-2.569422787866012473e-04
-4.143403548221298284e-05
-1.001464241593281624e-06
-9.140462650335853118e-05
-5.393261169361516453e-05
-1.132529523914147619e-04
-2.743032377242431694e-06
3.033775412200708681e-05
2.449982691805667944e-04
5.718446576338773934e-06
1.519122399148273219e-04
4.378697707057348053e-05
-7.505952951831777113e-05
-7.032514953857961384e-05
1.137275872781807882e-04
-1.169439594742722446e-04
2.060188793695116752e-04
-2.435009871960942492e-04
1.163740067390146003e-04
-1.674518522705139483e-04
4.682254657228932036e-05
6.733945529481396252e-05
5.356455940892082193e-05
-2.164860874853013388e-06
2.226351908250349579e-05
1.120612711875157045e-04
-2.062324957733181643e-04
1.619524102849365153e-04
4.602837034824996541e-04
-5.356338333414251487e-04
-1.834068590021596310e-04
-3.189330909756910959e-04
-3.190117898121836034e-04
-1.284891027405394605e-04
2.617910497747717486e-04
4.817389602546247318e-04
4.046178974400415165e-04
-4.880784837659283290e-04
2.483590835320029005e-04
-3.788769981863364801e-04
1.494876858828835431e-04
1.488495466951932631e-04
-2.254574811186878648e-04
-3.420850837468092397e-04
6.305200419655694480e-04
-1.440372367456700415e-04
-5.261260576121076001e-04
-8.609771185147759758e-05
4.922417651006072512e-04
-6.631013184348298617e-04
-5.838993524109746709e-04
3.867306313838894585e-04
-1.208519865564400151e-05
4.674782717297522642e-04
2.341809047263613305e-04
6.739475978421740308e-04
-8.370177967109849310e-05
1.540112114852038201e-04
-3.901122538616045026e-04
3.137562953170456616e-04
-6.667108078474652923e-04
1.631874799071903978e-04
-6.261791230108773457e-04
-5.463952184369484091e-04
1.588184943658180811e-04
-1.383920492785162845e-04
-9.305743238092708310e-05
1.709694571627047013e-04
1.514693970636653904e-04
9.802592121216312758e-04
-7.333248169347675966e-04
4.163434249970825651e-04
-8.547247077257368584e-05
5.860505253362534089e-04
-1.617043711116107163e-04
8.688976093242105391e-04
4.222610880408033410e-05
-5.426541971381630518e-04
5.545504819658162235e-04
-2.533703034353612643e-05
2.514688436906465600e-04
-2.482822290749757909e-04
-4.210646472343395480e-04
-1.515130318946725696e-04
1.180339457932019144e-05
9.706862854962632775e-05
5.350535691945880164e-04
-1.284813913322709012e-04
-1.980039300759624081e-05
-7.004873790229268580e-05
7.755280606867067912e-05
-6.511107102709257048e-06
-2.176180245923130653e-04
4.801275050300895756e-07
1.978457283908634538e-04
1.155813085475069786e-04
-5.169428330470849254e-05
1.356079435640416154e-04
-3.057272414217271687e-04
3.744607260980535525e-05
-1.935411182814712695e-04
-1.144021873160828176e-04
-2.179333053262777042e-04
-3.044688898002717798e-04
1.418473342854873890e-05
2.247978166467922865e-04
-1.949775596294414074e-04
-2.839443876600555362e-04
-1.224269091151076810e-04
-3.861043018302381729e-04
3.658899316202258892e-04
1.794335704516246324e-04
5.101083248430597888e-04
6.599985001973617395e-05
-3.926642485663084663e-04
-9.996644001532669016e-05
9.768999438028080006e-05
1.990112810853800109e-04
-8.107241163856005644e-05
1.619526165673259059e-04
-3.305808688386371267e-04
2.340118358323828047e-04
-2.455800129472588013e-05
2.190892173945158572e-04
-1.427302649530127197e-04
5.084598323736083854e-05
-1.070777774305906391e-04
-8.270509294473726272e-05
-4.955294767538979484e-04
5.315553052603000313e-05
-1.232889146516857870e-05
-5.155993184300094735e-05
5.611112615098677852e-04
2.880504212974177233e-04
-3.919616562530547975e-04
-2.400936868457251316e-04
1.785403601819162561e-04
-6.561509732091670743e-05
-2.748091600919611087e-04
2.845254966611475292e-04
-3.341700831893179498e-05
-1.697981815693711948e-04
-6.884828621167094279e-05
2.516458649253660229e-04
-1.034671854475663648e-04
2.921098227062366505e-05
-1.167223146145971900e-04
5.665977248355830035e-04
4.582298296852775599e-04
-1.596079996296005633e-04
-2.208049268286945571e-04
2.572822264388576353e-04
-1.745981834040404739e-04
1.274081478754884628e-04
1.744861040034648126e-04
-3.913054491190464046e-05
-2.702538840888926255e-05
-6.958982789354146937e-05
2.029455217300393550e-04
-3.394313358570674277e-04
-4.856128612677059289e-04
2.366914943842460533e-04
-7.956359583352030993e-05
1.691822531716265606e-05
2.504117728183158912e-05
-2.205186220431203602e-04
5.036326097664056136e-04
-6.699855699045858203e-05
2.655138587705536827e-04
-1.008721010893805518e-04
1.653672224440538087e-05
-1.391736644044450934e-04
2.824316830977041410e-04
2.262843900176163107e-04
2.334218218729119444e-04
-1.010360021789083798e-04
-1.934130039753571254e-04
-3.069166373298142089e-04
-8.480594030680409863e-05
-6.575819852010267351e-04
6.123181044199504572e-05
4.257900326855624282e-04
-4.966703833105991494e-05
3.850815832105628595e-04
1.842913980915821407e-05
-2.637483835217821590e-04
2.791077766426748228e-04
5.403622368633490989e-04
-1.137631190548320074e-04
-2.137027218654683283e-04
3.947840824075001285e-05
2.170030567815750295e-04
-1.256012890647175621e-04
4.573452476817034410e-05
-1.699012652481672332e-04
-1.139048199703426005e-04
-5.719350034375055751e-04
-1.360664876762175863e-04
-4.248233499441402835e-05
1.870590899089127792e-04
-2.341082706503786978e-04
2.115014549874534816e-04
-4.525999606595963406e-04
-2.678656233469193810e-04
2.617319379097918426e-04
-2.962321314297307112e-04
-4.215491927897852876e-04
-1.801916328626670938e-04
4.728570817797396941e-04
-1.688296790782207991e-04
4.114724987317274320e-04
-1.602044616371575637e-04
1.469201286611757713e-04
2.373881493008097232e-04
-2.503967797863369620e-04
-2.144906715471650051e-04
2.535212935041938095e-04
-1.146879831704832265e-04
-5.313049596738420423e-04
2.020295832018978801e-04
2.915027451899422661e-04
-5.604194690627111331e-04
-9.538810507929829216e-05
2.490915385234218236e-04
3.056743942902658299e-04
9.497758299379899748e-05
-3.182138035878811578e-04
3.836284633870657595e-04
-8.228191146761596516e-04
2.432185369365957150e-06
-4.999482664748112429e-04
2.602776177170570591e-06
-3.673155536521449389e-05
1.041581626786358033e-03
-7.185588451627288379e-05
8.119845095113318581e-04
2.109077795769426645e-04
1.179999066399590785e-04
1.422821205600989091e-04
1.895072110431340862e-04
-4.504230550894713220e-04
2.653145152463623415e-04
-2.463884186050171858e-04
-1.275254520240482473e-06
-1.507843424514329861e-04
-1.335831270229362756e-04
-2.421502380597771837e-05
6.794840428064018167e-06
-1.035825632862041916e-04
8.077154970852118334e-04
-5.328160375879796877e-04
3.877353685629690848e-05
3.714680238394578481e-05
-6.867599369595150764e-04
-6.887601957998863537e-04
-1.577342523872351122e-04
-7.075074802010057097e-04
-2.809436174585605421e-04
8.400215679537725941e-05
5.385832457823204163e-04
1.630518841559097762e-04
-7.829486956246138997e-05
3.579556505611574324e-04
4.657717369058086412e-04
-6.050073837675662175e-05
6.035955259124134008e-04
-2.759012483090170654e-04
2.936674770819374379e-04
7.808752598779430791e-05
-3.585967280466149996e-04
-1.514662430597910200e-04
-1.083224482003327071e-04
-5.261510323795186875e-05
-4.938791370512965462e-04
-7.806222310224762359e-04
8.107800849277669805e-06
-2.020492314386065230e-04
2.782362730930244555e-05
-2.960810481168178962e-05
-9.388580768859044784e-05
2.608260976022655974e-04
-1.565970551784550584e-04
1.071620379401313171e-04
5.571385410183351573e-05
-1.731053284108402470e-04
-1.707261232017079008e-04
2.838130489318348225e-04
-1.476219953366563723e-04
-2.389994903119894347e-04
4.867747257447758383e-04
7.235927678108665969e-05
-1.000873677386199430e-04
-2.466579069116517408e-04
2.374011007837204662e-04
-1.865917447249248789e-04
-2.282675506214352351e-04
-1.485595311199160444e-04
-2.742325837654360689e-04
1.330906485316135450e-04
-1.627764105271340984e-04
-1.684860022125670429e-04
1.543792727932779640e-04
6.281734420635439646e-04
-3.505116675670838251e-04
1.059628873536503968e-04
-1.647138347247643052e-04
-3.067379714111029927e-04
-3.564056373876134468e-05
-1.502082822903014409e-04
5.423991950460689722e-04
2.463702407217608715e-04
1.493474738566864519e-04
1.593579549142582613e-04
-2.875555814639696320e-04
3.984189289743318057e-04
9.705138895916935998e-05
5.712344141187423085e-05
-3.583082249825411680e-04
-1.714248278596793181e-04
-3.341769390429574272e-04
-3.921389748010251563e-04
3.944481936512024838e-04
-3.840895583395890285e-04
1.035963420326793541e-03
7.890688027646839656e-05
1.716212073161480563e-04
-6.116870063837323828e-04
1.394771992311314769e-04
-2.004127255163840358e-05
-1.399984238888318691e-04
-2.206713373398428834e-04
3.476546970769127098e-06
9.295697616692568982e-05
2.437717280739624417e-04
3.669416518456535404e-04
-2.102661567289652238e-04
-1.517088896731604852e-05
1.781281272277913171e-04
2.940809725741816210e-04
-2.787471661518759825e-05
3.347689165148488139e-04
-3.826126105799250009e-04
3.701264927903948347e-04
1.713785591753767357e-04
-2.051741381231458124e-04
1.591850551611991639e-05
-3.185729152496338790e-04
1.247663302139323202e-04
-2.614205860133451639e-04
4.974674507632953144e-04
-2.308541669528935494e-04
3.336098919237759494e-04
-6.473026284253240300e-04
-1.443141775911942334e-04
2.342470124706739164e-04
-1.218347599274672254e-04
-2.764724030769203571e-04
-3.359055960515849371e-04
-1.211029202700690863e-04
3.741562811620617319e-04
2.191661597791262313e-04
2.880990499075484113e-04
-2.242681577872025964e-05
1.813518565504153995e-04
-1.350583859538821013e-04
-2.201369368450588945e-04
5.250465363628500090e-05
-4.603588107693986389e-06
-3.380532408787444246e-05
4.157975365323714049e-04
-1.262161915541047441e-05
-1.486919327905277107e-04
3.273349566175375513e-04
-2.612237781239651937e-05
1.968521897485378102e-04
-2.494033248679468177e-04
1.541797526005615919e-05
4.012734655511665787e-04
-1.940927519091112114e-04
1.608422239737389043e-05
7.510073831507640334e-05
-3.013766448030561190e-04
-2.549341544783822165e-05
-1.955034438632508975e-04
6.960103270071579232e-05
-1.234044016738929312e-04
1.908435732973213475e-04
-1.238238870483313102e-04
1.610179948060672551e-04
1.081639033997473445e-04
-2.221039353774270414e-04
6.386675197787437981e-04
-3.948316655955870025e-04
5.367194222936136881e-05
-1.577320936682456590e-04
-2.048826527624305423e-05
1.023323547935671540e-05
-2.304304465881438536e-04
-2.869468646127033189e-04
-1.548631848023736648e-04
7.722569275771816769e-05
5.271535304322525232e-04
2.384978040417082984e-04
1.121300044178916969e-04
2.022828058951233116e-04
-5.272507353562869798e-04
-1.924871175231683638e-04
3.314478151527907668e-04
4.982798227756955745e-04
3.819268506911716824e-04
1.902312974885248507e-04
1.055160617897212048e-04
1.029776278226484970e-04
-2.573420691309189021e-04
4.811780044691803628e-04
3.069360512250431995e-04
-6.973536979289832183e-04
-7.743865934053397945e-04
1.794250454988581642e-04
5.004243914053693428e-04
5.889190278572668444e-05
-8.283582480744060283e-04
5.472894334357267200e-05
-8.285784729677368688e-04
2.546966696025800914e-04
-2.108170215405563914e-04
-3.964204448492199902e-04
1.144800720800726929e-04
-1.667010113906133080e-04
-2.974738468151414964e-05
1.113290918181257224e-03
-2.681576801122586532e-04
7.000301642925494316e-04
4.427299876163633065e-04
-8.581136436978382520e-05
8.538625281045143746e-04
1.445059681087023208e-04
4.137023468195956703e-04
-2.115857518050778558e-04
3.553351690871197114e-04
-1.031359622698034117e-03
-3.337940794513474612e-04
-1.015672501838068973e-04
-7.114998331208337540e-05
7.007644380464510964e-04
-6.637516450264319742e-04
3.897503955304508266e-05
3.754392277697525841e-04
-3.818726270227138669e-04
2.085972550691598669e-04
-7.314541790734523357e-04
1.962254311494404354e-04
-1.352680433091674162e-04
-9.321521971649782481e-05
-4.316829106228870644e-04
1.077861316710790893e-03
5.716780271766324154e-04
8.614775529082858117e-04
1.107701003104296983e-03
3.732557318331350166e-04
-2.237841096009250805e-04
-1.655960970161816871e-04
4.555911213362953227e-04
3.115553512748045809e-04
-8.166071253252560423e-05
-3.569361654827105687e-04
7.472358978279065953e-04
-4.488200186427016426e-04
-2.796094124092384317e-04
1.795021764160701781e-04
6.297272136668157774e-05
3.301169251875174130e-05
1.452449174878352384e-05
1.173042126797471321e-04
5.008839936914118510e-04
3.965085547932596785e-04
-1.343556023847382113e-04
9.298644319022927385e-05
2.736166527572910000e-04
2.316412229159294628e-04
-4.362868576206912233e-05
3.952513606830614350e-04
4.838954747008529273e-04
-6.462995168770504107e-04
-1.431420010972808958e-04
5.155052272286994846e-04
-4.217742817197934666e-04
-3.782290656789580948e-04
3.515118316751283858e-04
3.092730463689091921e-04
5.285813623683570817e-04
1.410380737971666880e-04
-1.200884710673664628e-04
3.785513231385353268e-04
3.716188509331816566e-04
2.996496190097662190e-04
1.435171664225660915e-04
-3.328258959821849558e-04
6.124749072095501089e-04
4.371331876057283467e-04
-5.336964646371508648e-04
4.071504621211786208e-04
6.868073553506517893e-04
4.002240296918882392e-04
-1.035133347934412439e-04
5.164354722734687975e-04
-4.902687670622544016e-04
7.835381119695181487e-05
-1.046920952514007947e-04
-4.346517474078719578e-04
-2.518404923195297898e-04
-9.974094184213328645e-06
-1.690203180962662104e-04
-2.027807472914790838e-04
-6.101331722432207791e-04
-2.783713434670036669e-04
3.172404893874332930e-04
-1.697681155457256752e-04
-1.018850718258963554e-03
-4.224849127269401862e-04
-2.384115527685438875e-04
-1.941476321394641563e-04
-2.181566673751216131e-04
6.714096564559346230e-04
1.462753343031665478e-04
-5.531986701078557859e-04
-1.833398725293848173e-04
6.536553969299632922e-05
8.706897325405571692e-05
-1.902126268699854870e-04
1.593151010861719463e-04
-1.030688616924103744e-04
-2.419415676709372413e-05
4.395490859910313689e-04
-4.453043945974166358e-04
2.561578426128107637e-04
-2.125822939030915936e-04
4.677653721607236571e-04
6.573750654933299437e-05
-1.055504359970434181e-05
3.736102318676785090e-05
-2.697998647484556593e-04
3.944036598204508112e-04
-2.020472342118150748e-04
6.590173854868412826e-05
-4.118468323719660039e-05
-4.108510698926861758e-05
-1.541144576521037224e-04
-1.420383523654611207e-04
1.927349085259772300e-04
-1.058298300172786689e-04
-2.468478359590139427e-04
-6.050731018288302244e-05
-3.365299718210342525e-04
8.098362106000499890e-05
-5.789700119641541493e-05
3.205037405854828359e-04
-1.248734091630030753e-04
-4.370085952315012147e-05
-1.952517471429747041e-04
-5.345325034467988516e-06
5.037372404067391989e-04
-2.445065755752907368e-04
2.332909969348807963e-04
-1.803467132817951845e-04
3.028043842042910452e-04
3.830584015324759063e-05
7.380673558427971971e-04
1.290326684128612273e-04
1.096870440686090816e-04
-4.314801645500403507e-04
3.105786814679978698e-05
1.585007793887331889e-04
-1.480401801867538085e-04
-2.449828447316030602e-04
-2.925220571965493925e-04
4.515592865308325123e-04
-1.153015193228788891e-04
1.452786810164950282e-04
3.679891437678432689e-04
-1.652005205874863716e-04
5.135927926792207497e-05
-4.879925681708368484e-04
6.009769283192997410e-06
-2.814762980162573559e-04
7.348384146914475770e-05
9.466239366834229162e-05
-5.325071087145974669e-05
2.770879914253278190e-04
-1.819628155844632230e-04
-1.666853733862611942e-05
-1.027821562206460582e-04
5.921733302800243418e-04
1.223140725999025656e-04
8.282373626538819191e-05
-2.535779568795679876e-04
-3.734223800291476265e-04
-5.438909663751724012e-05
-3.553612924589009026e-04
6.106405409921412432e-04
-3.094691298300525123e-04
-4.952804839370719085e-05
4.235866846572602408e-04
-2.783321222740930766e-05
-1.686271079026462603e-04
-4.106186912385505206e-04
3.940225343040546570e-05
4.365076690507992867e-04
3.621091201828337898e-04
2.145370353976482417e-04
7.712741962026619345e-04
-4.121153545433897170e-04
-8.147829100089087288e-05
-1.755257282828863062e-04
-1.579113032628989507e-04
3.012728758745998429e-04
8.418059391831800601e-05
-1.102554784987964369e-05
-8.774250288508146775e-04
-1.353866279041955514e-04
-1.951939572468875230e-04
-3.972420495620785242e-04
8.745628833929322164e-05
-5.294165723469218109e-04
-3.196032602047661634e-04
5.139398522866137070e-05
-3.460840644657377360e-04
4.270416137587640468e-04
2.231666106259036931e-04
-5.460548577326707238e-04
-6.150239969734319753e-05
3.946898447215944189e-04
2.654725639473891623e-04
-2.764563731273733021e-04
8.473735829107433893e-05
-3.721994568174359077e-04
2.846980564844380618e-04
-4.647351627821178920e-04
5.250980975385896110e-04
8.501184585579477928e-05
-3.818905337170521255e-04
-2.304506111273538183e-04
-5.097746911054924432e-04
5.867104984202763497e-04
-7.857296932307301289e-05
3.520994769972106420e-04
6.412715405759037085e-04
3.534643839079702223e-05
5.889883761088179513e-04
-3.638129460082457304e-04
-6.007864317127097065e-04
5.520202477437617748e-04
-1.616884063775168704e-04
2.133652024715382886e-04
-1.084975411741636262e-05
2.421630561460493361e-04
-1.550632518408707648e-04
-7.360670561433747512e-04
9.385608236435481527e-05
-1.467155838681409900e-04
-3.254983342200118749e-05
9.578296166683305157e-05
5.250732050923488442e-04
-3.044072409835528025e-04
1.173429111737336888e-04
-4.314136145501176202e-04
-1.966701512805966914e-04
-5.153774650287053038e-05
9.035372988649640735e-04
1.225060365183283011e-04
3.464318699981089232e-06
1.935394370622141704e-04
2.990384069614527695e-04
-7.356327453603771585e-05
4.750283563870205954e-04
2.599819791834305223e-04
-6.900443946111054112e-04
6.265843219387966017e-04
3.415129766870382989e-04
3.694617493389912126e-06
-3.173802831613339805e-04
1.698023310903148985e-04
5.455639338153614026e-04
-5.070586565209226102e-05
-1.939010899011545401e-04
-8.073490670914054137e-04
-3.546691996450135765e-04
-3.219625619596386723e-04
-1.516128473390225399e-05
2.578081256157466411e-04
1.048546746700369830e-04
4.836715851477259255e-04
6.958956542476748663e-05
-4.507486164550355114e-04
-1.394683179714567415e-04
4.346082274325952823e-04
-1.425498251843585677e-04
1.349321993155490795e-04
1.047737312656010187e-04
-6.170838416957816902e-04
-7.700378105307059207e-04
3.034922476098121441e-04
6.425102408874450003e-05
-4.245657606069971023e-04
-4.671483710685416370e-04
1.878217759246702352e-04
9.516853166999071504e-04
2.174647784748718899e-04
-3.281902128663187154e-04
5.504631296883792625e-05
-5.503627829851425292e-04
-1.198925941377975373e-05
-6.680228028041181000e-04
5.215294614918412425e-05
1.006869704594257964e-04
-4.990540578756261355e-04
2.603626356748755155e-04
1.285762365864580358e-04
1.001409528357039740e-04
-2.987119307951835575e-04
6.131500751846591943e-04
-1.173965267548604730e-04
-9.934022087341225975e-05
9.599934194584444549e-04
4.025760593243679847e-05
3.544889557165266142e-04
1.162043378688969235e-04
-5.492408784385912832e-04
-5.842042967247841265e-04
6.977941908969831786e-04
-2.719824890359033923e-04
-6.851072527238679950e-04
-3.079236916294065098e-04
-8.092978035781095989e-04
-1.104576017811665544e-04
-3.035899148633071777e-04
-2.003780332237930996e-04
-4.100975632935452588e-05
-3.074461870750126637e-04
3.556901298524141721e-04
2.890738493244170452e-04
8.400415799120144892e-04
-1.079285339418585012e-04
1.542738899507506444e-04
-5.429048684057766281e-04
-4.606514338718170187e-04
-3.082454788816191608e-04
7.532534853474372140e-04
-9.473390368875990724e-05
-9.089399186573544984e-04
3.122738711651832960e-04
8.135678951846218084e-04
-1.500358280823758592e-04
-6.298454156927382318e-04
5.336385413256132569e-04
4.741553365704854334e-04
1.103996647111156563e-04
3.118215319370105476e-04
3.490836319688734777e-04
1.595462390541652639e-04
-3.014978039410394625e-04
5.580291935642558846e-05
-1.552281210101305847e-04
2.178013597936574838e-04
2.861644068132152149e-04
-4.060034892284260493e-04
8.218118965602617238e-05
5.783563118068987992e-04
2.896146322474928538e-04
1.108828539534680892e-03
-4.239837941660478749e-04
3.723605050115321238e-04
-3.705447118728217936e-05
7.120837484165160091e-04
1.332385882365961489e-05
5.361816073645907449e-04
-3.704311703737742838e-04
1.502296290826749948e-05
-5.235160144734274682e-04
5.828086017197847647e-04
4.443560969198182258e-04
-3.009499209835098143e-05
-3.546552945579051924e-04
5.207900295786119455e-04
9.140312647578327813e-04
5.496176607459984627e-04
-5.568544216763973232e-04
-6.670803763907506964e-05
5.709558131895271609e-04
-4.019474556149220845e-04
1.977729018114769311e-05
-1.113055431541436647e-03
1.098267757413506473e-04
6.792811417038734111e-05
-4.687253884415313503e-04
3.384951672487946381e-04
7.576652333473992958e-05
2.337773610392670403e-05
6.883147732380326140e-04
-7.634439475534673730e-04
1.506731096309967249e-03
-6.184916586032335661e-04
1.314779498184697945e-04
4.336005480106016555e-05
-7.026920381571503862e-05
-4.693556402075611941e-04
5.137422810533044107e-04
2.164577988296842361e-04
-7.713239133402372905e-04
1.025531564678184952e-03
3.897158758952487512e-04
3.333434365699251183e-04
-4.084466973377675529e-05
-1.114985340420751109e-04
2.662447282131212133e-04
-4.268368540393137063e-04
2.378645194349867883e-04
-3.714281825347528110e-04
-3.500880062164202547e-04
-2.740090094923877991e-06
-9.462375635811894685e-06
4.205122467180812422e-04
-8.855537401804039173e-04
2.521656307614871992e-04
-7.963402304835249341e-04
3.644018379515030358e-04
-8.334279483190319183e-06
4.362611248330966213e-04
5.567385522857831140e-05
-4.501174037714006327e-04
-1.957681341776198341e-04
-4.477227312474169280e-05
-3.643262433751672902e-04
6.090896531808336891e-04
7.569638135457542921e-05
1.425197613240162015e-05
-4.279262288322986626e-06
2.009943883566856708e-04
-1.423866833950021430e-04
7.861776521805647797e-05
-5.205931429504384545e-04
-5.657194979113449760e-04
-2.529697493619820496e-04
-6.726505088479664812e-04
-1.585160546148336362e-04
7.554358344870243424e-04
1.180117510665350613e-04
9.505392824780936311e-06
4.492749514420377264e-04
-7.974584630553157108e-05
2.631601045060039156e-04
-4.896106365850172535e-04
3.850811625892338464e-05
3.364800482450475009e-04
-1.857639732644585651e-05
8.778128625442400566e-05
3.402522155199898561e-04
2.534185751706385394e-04
-3.571852669283358695e-04
3.558943320733829970e-04
-1.450052589019180775e-04
6.229704413050070300e-05
-7.014278100306227826e-05
-1.970862458473263731e-04
8.008053078518700821e-05
-3.399109102053194981e-04
-4.982318056335336472e-04
1.772343220119756415e-04
-3.334732438349558448e-04
-9.496574940888073213e-05
-2.440836494251797848e-04
2.940596760089466877e-05
-7.831200615148296715e-06
3.547283075456564587e-05
-1.620262641968734342e-05
-1.467986372177700180e-04
6.105325253704069026e-05
1.591303711074472382e-04
-1.014202551965360101e-04
1.778932162833433527e-04
-8.161910698174528909e-04
2.539580770528856481e-04
-1.275490075852105413e-03
-1.506001526115022807e-05
4.028064080398191288e-04
-1.355935589056616371e-03
-2.890693605690859073e-04
-2.764658729914274012e-04
1.034633020141678201e-04
-2.330851634990726878e-04
1.357324696345052831e-03
8.768166140990106723e-04
1.743279850799570312e-04
6.265092674119283498e-04
-4.191652029271349914e-04
4.387395788857847279e-05
1.703675288445799616e-04
-5.480374943756687912e-04
-7.564303122013701095e-04
4.212541777141493612e-04
1.433356953265397767e-04
-4.086785351410816142e-04
-4.494994629160144542e-04
-3.456852956916429184e-04
3.162061293647034938e-04
-2.785346455259833480e-04
-2.989215803443340106e-04
-1.105128107213962407e-04
-1.465745942925622742e-04
-9.914607609065745895e-05
-1.129738992877167938e-04
4.725818000246674111e-04
2.463293169881566359e-04
3.240295066046723670e-04
5.512553273583188987e-04
-1.754662362500212993e-04
4.463394878072528808e-05
3.737881670928312229e-04
3.844966588613928115e-04
-5.191845498124854786e-04
4.127366310974171369e-04
-7.653883434814128927e-04
1.616760947389697363e-04
-4.625451057334988036e-04
-4.652828798009464193e-04
8.123183532909947907e-04
6.175768337774895393e-04
3.731168167802897213e-04
2.176403867926408409e-04
4.984618560586305145e-04
5.873018836516188165e-04
-7.995840777661383575e-04
8.562846539458811865e-04
4.269985435148355621e-04
2.403083982212493824e-04
-1.174767152626584666e-04
4.243065443105798981e-04
5.105390130926781584e-04
-2.805335302037429627e-05
2.044931252075225271e-04
-2.922556367629844626e-04
-4.035519155413074661e-04
2.116494265348749443e-04
3.445669051576942207e-04
-9.900221947646472426e-04
-1.228547669643741309e-04
6.305485649184359043e-04
9.912776041992384817e-05
2.088233064500760250e-04
-9.803917648754436069e-06
1.304984602456102827e-04
6.513323106438641654e-05
-3.822162308300545617e-04
-4.259576191405532671e-05
-8.018524154820135463e-05
-3.060269421171477912e-04
-5.394770497258119133e-04
-5.674527292626969162e-05
-4.830194868700608195e-04
4.311237069359602362e-04
-3.753642413271936272e-04
4.330034104146726799e-04
-1.081322666570749076e-05
-3.095202329844036655e-04
-7.360897523285992589e-04
2.208552016374087544e-04
-4.383318697399712070e-04
-3.037613432988997184e-04
-7.228941846564981215e-05
-1.473484610121622823e-04
1.997265580409410713e-04
1.856099782091908662e-05
1.325041919283524738e-04
8.115487838960903358e-04
1.316324722646866564e-04
-3.448601383249640876e-05
2.030275127017455532e-04
7.778387283371557932e-05
-2.334026775091474569e-04
4.344162680776687699e-05
2.014178155086170563e-04
-3.000967189847995073e-04
4.751412763992528742e-04
-5.032993091731398014e-04
3.706985926488959760e-04
2.391465620434189709e-05
1.893610382167356082e-04
7.526891020627215177e-04
-4.961542186340174186e-04
-5.297166667859974643e-04
3.452738603064022510e-06
-4.666129364112157641e-05
3.293443536715530591e-04
-3.388980368198821246e-04
-7.399704091297391254e-05
-5.133137835620908045e-04
-3.600002539796643081e-04
1.498369380163651365e-04
9.534313898199927185e-04
6.169519126579182293e-04
-1.143520842597996911e-04
9.512025242929945219e-05
-2.933491507636094278e-04
3.843911682623942384e-04
-1.547355351010133598e-04
-2.966734836021080223e-04
-5.488990901376879401e-04
-1.171328445304838513e-04
5.181642862425888708e-04
-3.094294087522831142e-04
1.342132579812862060e-04
6.045812564487012273e-04
4.497955430230560583e-04
-5.633889266502044389e-04
-6.844383946909526591e-05
-9.572942124481153333e-04
8.308000201063466287e-04
-9.935205809891043890e-04
3.212377460905481083e-04
1.071787230046989937e-04
3.033660007973812129e-04
-5.264105161298448599e-04
-2.050839030579489780e-04
-5.983910159363458139e-05
4.667163519675833830e-04
8.546637725073928790e-04
-3.674477806612158138e-04
-2.999522208776955593e-04
1.525289240452236232e-03
4.366052387510165815e-04
-1.216653891627973109e-03
-1.558346491583505948e-04
2.954803803134137198e-04
-4.000665401629064028e-04
-3.906066445478406039e-04
6.906210403329376057e-04
-8.487442396365381695e-04
7.890983685619092493e-05
-3.205118518017171549e-04
4.364619317446239680e-04
7.604265928378145924e-05
4.173697130559958219e-04
-8.585951791703665603e-05
-5.314832465630933136e-04
3.064245366984292077e-04
4.373003746574303011e-04
-5.925163763823936393e-04
-6.971629498841492873e-04
-4.973450379130653224e-04
1.665506180000609119e-04
-3.445438276747388564e-04
-4.986835073224120082e-05
1.658043488748866894e-04
-2.070959558155580711e-04
2.905104858964332592e-06
-1.048124636191209193e-03
6.799613219503579517e-04
6.877233952790549052e-05
7.974003053936481707e-04
-1.078175463225790201e-03
5.348263668308949432e-04
-1.647256639247448749e-03
4.476269688942008320e-04
5.302416629567096923e-04
-1.029882340050614596e-03
5.660436273556939931e-04
4.542519702340594065e-04
2.915531119362165945e-04
4.297029397403059848e-04
7.244829450368723319e-05
2.067057427725682041e-04
-4.150801905956229059e-04
1.599169568220577689e-03
-4.384376992633916195e-04
3.844984300971361190e-04
-2.479423312712193510e-04
1.334403255433914970e-03
5.960909029831787560e-04
-4.082854604391377026e-04
2.738097034110711643e-04
3.381642376359042914e-04
1.706530258081293634e-04
-2.735326713661624074e-05
-5.545622936618705172e-04
-3.630327578050814388e-04
-4.711817415034863120e-04
7.736486154385031552e-04
-6.983178575720794593e-05
-8.513322344375705937e-04
2.439981901145983438e-04
-2.454767760218406515e-04
4.870125319816906244e-04
-3.098368495902553720e-04
-5.656116860983147069e-04
4.313174135582084211e-04
-7.775930483890540826e-04
2.821270072073776163e-04
-4.835241111342395071e-05
7.251554797566013132e-04
2.356907499041231615e-04
3.099071209290408689e-04
4.747014102429200459e-04
3.064529203642034415e-05
2.403832427173357579e-05
-3.312560369275896087e-04
-2.782102775658516314e-04
-3.268051506397444926e-04
-3.498172371824143220e-04
-2.477111292816876304e-05
-2.717156485731024064e-04
8.375734732192527225e-04
6.501688697739256388e-04
7.411483587496114651e-04
1.869523298129578909e-04
3.390367466950137878e-04
1.864708713374682917e-04
-1.124803531440741035e-04
3.944513962992763625e-04
-4.561410431546172720e-04
1.448300358919298573e-05
2.693388977474767154e-04
-1.240141929222399327e-04
2.615213993142793204e-05
-1.804155801143684753e-04
-2.497052590560867717e-04
6.990312894896772615e-05
3.290556280846388499e-04
-2.965386847419355151e-04
6.331198458429169963e-04
-1.564480051482222385e-04
6.398032412415730367e-05
7.789670502205179410e-05
-7.033612829737055606e-05
7.534988574429229665e-05
2.026205207707100920e-04
-5.256761224643740227e-04
8.729390022456163568e-05
4.918017254054957659e-05
2.222049293754048568e-04
1.073864746593807885e-04
-3.852994007899988166e-04
-2.684756864324623648e-04
4.440630592025157403e-04
-2.324104920057205946e-04
-3.796866769957729822e-04
-3.599778545223082595e-04
9.655299720985588939e-05
8.698699622410892740e-05
-2.968576893334621994e-05
4.696955540636140890e-05
1.105199151856055387e-05
-1.107080978029418227e-04
3.853972226740428838e-04
-4.478809289943881449e-04
4.252808887723403316e-05
-9.229982621896080659e-05
-4.465901412940734652e-04
-1.041438922936400400e-04
-2.539305455572152649e-04
5.205720430951597810e-04
1.993982719324731119e-04
-2.033993899254055713e-04
7.160932886538717498e-04
-9.236046101494666655e-05
4.686521043872688059e-04
9.731845743399983697e-05
5.437743030272900163e-04
-5.800628687947040427e-04
4.492653341603638378e-04
-1.301489050685351065e-04
-1.001673537115683001e-04
1.692772505871855901e-04
-2.531734677949025697e-04
5.561709255264931555e-04
2.471885142507723016e-04
-1.332744322123499605e-04
2.280523704116940384e-04
3.434363166428917261e-04
-6.695375892993286242e-05
2.757318328768615877e-04
-3.423005631888978331e-04
6.957540910098199670e-05
2.851404190743310344e-04
-1.246059807920126732e-04
-1.222626370845498989e-04
2.200249252620775197e-04
1.431965367135662253e-04
-6.155278080480088389e-05
2.286868979160147067e-04
-7.302919158018144740e-04
2.538943616366088479e-04
1.690308399851989368e-04
1.090613160090244543e-04
-3.693201477078867419e-04
-2.835310560374851513e-04
-1.687223165221385046e-05
-7.235104645317230005e-04
4.788247946112974239e-04
-2.920842895962132385e-04
1.353086514673646726e-04
-2.215092390549930823e-04
3.512621001674640846e-04
-2.948306715859068893e-04
8.487058448571355856e-04
-4.736389908889055084e-04
9.087046400014309536e-04
2.284230297033586741e-04
3.394740058651802314e-04
2.674500900341905750e-04
6.001435430892773561e-04
-3.556443521744141007e-04
5.331603456906657337e-04
-6.740281231309569465e-04
1.064890942583564536e-04
2.880081808945685347e-05
-1.926781334873407022e-04
-1.406002347912264211e-04
9.568287261604163652e-05
9.953538983928046299e-04
3.221149088463344805e-04
-2.896494044289317548e-04
-5.862428733196037561e-05
-1.164408660903041952e-03
6.573747211928244929e-04
-4.552010100372961567e-04
-2.130065730418744365e-04
-3.107384911842375622e-04
4.167054004855579269e-04
-2.395424414294469013e-04
1.763652200821966512e-05
-1.041009285084363092e-03
2.064951648719183985e-04
4.001037706314137317e-04
-3.961462456931667239e-05
-3.564271206331536207e-04
-4.022348956333292856e-04
-2.316205871160443208e-04
1.178426005049819229e-04
-2.116431473559265530e-04
5.234334741169341089e-05
-5.225973759817850777e-05
-4.211998957428326942e-04
-7.548754946342880762e-04
2.113697573063747707e-04
2.575606966357496769e-04
5.129728090515638019e-04
-4.426753218695234516e-05
-9.415017434530331556e-05
5.716806897337475216e-04
3.084485581074093122e-04
5.419074594209409611e-04
3.625767642228410218e-04
-6.674911248752917305e-05
-2.101874267148841563e-04
6.979370479740531520e-04
3.029627498037017024e-04
-2.608452621249269620e-04
-2.159150658403134076e-04
3.432566170375406451e-04
-6.178017099120544512e-04
1.778783523227530782e-05
2.907836447314148193e-04
3.680323952243076159e-04
3.135676472677542616e-04
-3.604612989721596005e-04
2.405876682414445457e-05
3.338970136090004199e-04
2.376919145175194364e-04
4.979076157481522429e-04
-4.007255570314384951e-04
1.940286288817773892e-04
1.332843570105698495e-04
-3.310335779787992069e-04
-2.764094193118650988e-04
6.006059241586264022e-04
-6.288709637622229287e-04
2.640444007942433424e-04
-2.922423286774411240e-04
1.629681495021244276e-04
3.592251268791099919e-04
1.787037051517986329e-04
-6.084756927194679733e-04
-6.709099669893855067e-04
6.216647617608528180e-04
-2.845681078857196893e-04
2.891790257665290782e-04
-3.579303302744771568e-04
8.289898581366991791e-05
-2.896835850527664847e-04
-1.457537022798951652e-04
-4.262289215195939353e-04
4.583081715291792240e-05
-2.911806795001390313e-04
-2.853683121629512864e-04
-3.763631619933196929e-04
6.827329242767891601e-05
1.412098301739932930e-04
2.376262073117856358e-04
-2.162235391606069548e-04
6.003258348997885148e-05
-7.651614848780212939e-04
-2.613417426694032470e-04
7.609051510718468794e-06
2.857213949728869273e-04
-2.471670469420715545e-04
3.004775259608988131e-05
2.926251542212584015e-04
4.168380497959756612e-04
2.657934357887973631e-04
6.559273401215920133e-07
5.601157258124705909e-04
-7.453599624780083885e-05
-2.157435835161986416e-04
1.789057859558651237e-04
1.221120337014970636e-04
-2.752764263306414967e-04
-2.309914590565533205e-05
-6.732840269517404407e-05
3.945686719847827945e-05
-1.023489356460736429e-04
-4.750508799857081901e-05
5.531414578634247681e-05
2.242731276173414844e-05
9.440883193595925814e-05
3.977315835510934240e-04
3.522120806875981723e-04
-7.930096434673514607e-05
4.804863218225601174e-05
-6.519434294095561872e-04
5.803103314842928198e-04
-8.110828922990122910e-05
1.994325502688802502e-04
1.265096568765491849e-06
2.617922033732150819e-04
-9.213587150299406355e-05
2.870907632501277633e-05
3.229890745126367093e-04
3.133864982110283519e-05
6.393799263790620347e-04
1.289988750380753786e-04
-1.168483411915642220e-04
3.206598161113494464e-04
-6.580024573603578987e-04
-3.663967107211374939e-04
3.654429145420378050e-04
1.935539792419489031e-04
-2.986163146583231350e-04
-3.094477533375541425e-04
-5.990121082223217328e-04
1.304430267739591055e-04
4.681269349733080550e-04
-1.052671057510991444e-03
4.074461369953357587e-04
-5.768220695393091535e-04
7.305565697231012050e-04
-1.339714959020109244e-04
2.833702256334663032e-04
-1.474635213207629468e-04
1.371204819450663357e-04
2.339620747392630036e-04
2.389810715502376664e-04
2.884918187480861877e-04
9.254096830736847218e-04
1.339551402014428497e-04
2.137937332378092462e-04
3.611547657958446840e-04
-2.231697549727128227e-04
2.051437420056577063e-04
-4.578857570107024936e-04
-1.529515619803835001e-04
-2.193868558088784789e-04
3.885915913989751273e-04
-3.938880508143733326e-04
4.886020845534522612e-05
1.630958115058302085e-04
2.758171789103358519e-04
1.258147264879560276e-04
1.007996447963790048e-04
-3.539801122455957347e-04
2.710743213278636772e-04
-3.650535762327994824e-06
-7.627242792335312601e-04
-1.354344113655811489e-03
4.658622361952878760e-04
3.696429825345292101e-04
-1.633804345883250141e-04
-1.454812518255012190e-04
-1.668929560647695355e-04
-9.994506559528296315e-04
6.457511077860633502e-04
2.425110411988434594e-04
7.108245662180999230e-05
9.668622159676002760e-05
-1.412364582066155682e-04
-1.449701368931772031e-04
8.398767715914803042e-05
-2.629430600501292772e-04
-3.542746432542720220e-04
-4.762522917295110248e-04
-2.405316995870977975e-04
7.073795151700686644e-06
2.581407059012249161e-04
4.219678767796894133e-04
1.210906817687022784e-04
3.250000435941223292e-04
