# autogen test
# 
# LAMMPS SNAP coefficients for W

1 1596
W 0.5 1
-5.306034790239336552e+00
2.639748543478510207e-02
2.220115398483869101e-02
5.198197732428200268e-02
-1.546237526179178312e-02
2.782403533178340327e-01
6.572841390342810952e-02
2.185563223114343637e-04
-6.207090444055365572e-03
1.270221408529287610e-01
1.003036015338283488e-01
5.170823798909313096e-02
9.899793224178095319e-02
2.765324295729896728e-03
-2.014440953589012942e-02
2.977764751984668043e-02
-6.843472993109875335e-03
6.775063346552594179e-02
9.000678358242984733e-02
9.541215751922620114e-03
3.629703716367700672e-02
9.499359944559476613e-04
9.896821582349368471e-03
-1.669553286804795894e-03
6.758945781310839174e-02
1.077257363669665846e-01
7.026003207348893720e-02
6.142794717743842170e-02
-2.755601880904906542e-02
3.600370564147222646e-02
5.049314793013896796e-02
6.781752806176048060e-03
-1.032810685974522823e-02
-1.987521835192623820e-02
2.395365681078331227e-02
1.010663511941693460e-01
2.932315751834198205e-03
1.155995530156494512e-02
5.592123978665885370e-02
6.799206855173824463e-03
3.032934709798708328e-02
2.085010414172580595e-02
1.266645619677914635e-02
1.073114978228087088e-03
7.333719889900666873e-03
4.047233830552445649e-02
-6.415490307006859426e-03
1.316914480440044277e-03
-1.334060397394581736e-04
-2.228815019600880690e-03
-2.459005952136232489e-03
3.746831141726144547e-04
9.326785765500559405e-03
1.734074726965473615e-02
-5.519079750253176077e-03
7.741302537810260120e-03
-4.686316933355947809e-05
8.619965827541032927e-05
-1.233522888453956372e-03
8.599803580692756081e-04
3.203566570523684668e-05
6.419224117685247248e-04
2.513896050076313703e-04
5.598760032250303274e-04
1.459960083507441143e-03
-7.406856805122299416e-04
3.849683411147605881e-04
3.909980315445119969e-04
-6.986463601005789455e-04
8.657867610604397203e-04
2.570287085974206688e-04
-1.457287897138361031e-03
7.933438430635591327e-04
-6.900552979764297372e-04
-6.878556437217006386e-04
1.887894958822261348e-05
-4.275696144807260529e-04
2.523000960182631715e-04
2.536755889382897645e-04
-2.895798092512319845e-04
-3.274951213185578686e-04
-1.372813245599748184e-04
-2.202805279564108200e-04
-2.694313703655212540e-05
-5.872264185875099686e-04
-1.103724342074162553e-03
-3.930300981195359298e-04
-4.803612177261934154e-04
-1.781320735544468840e-04
-3.430727756185537967e-04
7.342789769014623855e-04
-3.073007241553008711e-04
-4.660561904675754796e-04
-3.721676346946191437e-04
-7.615894628571968136e-04
2.227566841876691458e-04
-4.388519130542949077e-04
7.941962346986568006e-05
6.630459625093775033e-05
4.228882486576173447e-04
8.716402843201194461e-04
2.959896677821868350e-04
-1.001441518503593897e-04
-2.477966624243550580e-04
2.026774054965461557e-04
-3.086827103704010760e-04
-1.229583415951732064e-04
3.647407873659754864e-04
-2.064806443079070643e-04
-1.756955869317708625e-04
2.578265956826026988e-04
-1.009929713369816682e-03
4.533873941808381179e-04
-3.354775892960210385e-04
2.705673884981500319e-04
-4.946385430064238455e-05
-4.273397895548328596e-04
-5.884851000387803475e-04
-5.477151429856884444e-04
-3.816779992000627762e-04
-9.255880513245642567e-04
4.372983666122419477e-04
9.451934591641726006e-04
6.388821666762952833e-04
-1.653203181918716372e-04
5.692154532537053242e-05
1.107737046503179477e-03
7.709500531484290813e-04
-7.785685170362708837e-04
-1.012552452728591058e-03
2.481145473429316830e-04
-1.471908455827238872e-03
-6.400117782714071814e-04
-1.349977987402096753e-03
-9.496508589792449818e-05
6.364233279758904800e-04
2.561182539625142703e-04
7.840568391243055114e-04
3.307528857896209267e-04
2.690889659027908653e-04
-8.461178081686753904e-04
3.570171995107762272e-04
-2.197741396752226888e-05
4.866017239630271668e-05
-8.644305556348128071e-04
2.119675327612491778e-04
5.804968659270321255e-04
3.211825926750447183e-04
1.392014901978936648e-03
-8.913112749744116128e-04
-7.430649258681937307e-04
-2.207551625801430079e-03
-3.268138660871230971e-04
-1.243058526371207699e-03
6.012668036607273078e-04
-8.669457222400773566e-04
-1.287579809779581565e-03
1.438160262788034348e-03
1.960384209168812390e-03
3.065646987129121278e-04
2.624286733434324321e-04
-3.138182849002044443e-04
2.186735772809850816e-03
-9.972697518276362350e-04
-1.569704685997844141e-03
-1.833362737599880481e-04
1.535851097300989067e-03
-4.756226942597558392e-04
1.465683996932121180e-04
5.137843972475959146e-04
4.297535702752554071e-04
2.629002160153893802e-04
1.035797407423321836e-04
3.249761343442085417e-04
-1.815790043219779062e-04
-3.779364711619990591e-04
4.969047324995157396e-04
-7.339782399828039591e-04
3.193133635967764362e-04
1.287535630316725055e-04
-2.223588954592795627e-04
8.164985935914092629e-05
3.301336815895711653e-04
1.001544864374375208e-04
7.898609918823282011e-04
3.324456240129475488e-04
-2.169049739586785411e-04
-6.458813863368878332e-05
7.488062879399439960e-04
-2.286965312816371129e-04
-6.456448400345347850e-04
-2.484363788291716365e-04
-1.118139632388132917e-04
1.850147548666172944e-04
-2.170873406795188873e-04
1.504732543721000676e-03
1.082238733608286005e-04
1.815121251051748019e-04
7.722370278419467922e-05
-3.390877193102624643e-04
-8.158082141449297139e-05
1.614969051539906465e-04
1.982852948942851281e-04
-3.107158420109086246e-04
2.561127622264314035e-04
-6.625243417971544372e-04
-5.031374151786704866e-04
7.919131824250431623e-04
8.566122710973153630e-04
2.462034416895227530e-04
-1.466558369154439677e-04
-1.115254257998452258e-04
5.881239016000917787e-05
6.781374346362925489e-04
5.140918267564082832e-04
-3.742900927713382013e-05
-1.355044502962775288e-04
-3.506502851162290597e-04
-3.332454593881296130e-04
1.042758484420511483e-03
-5.194958773701041123e-04
-1.456719415165500485e-03
-8.701531452152465405e-04
-7.505351975067545318e-04
5.837666628613993360e-04
-1.028917108474808198e-03
-1.581218704024270208e-03
1.312962740643426347e-03
-6.049775155067211235e-05
-7.392141959348932836e-04
1.335673758929235974e-03
-1.003969466021926949e-03
3.252024004700978057e-04
-4.248858752102934887e-05
9.806153625060859153e-04
-4.924425140354292928e-04
-3.092314479732282198e-03
-4.504316503379915187e-04
6.018276053276064904e-04
-1.501261593570032580e-03
6.587218053850599914e-04
2.851589422730206060e-04
1.063224366380342715e-03
-6.726907996284593521e-04
-5.243563147353685373e-04
9.727794179040090373e-04
1.566942511706907954e-03
-1.468622416166661185e-04
1.229968681664779864e-03
-9.421182954341812774e-04
6.374219000631727505e-04
-1.060252729431556144e-04
7.509446497110217164e-05
3.297642832765489964e-04
2.959096388637485944e-04
-5.248586388633529618e-04
6.044392942403945456e-04
-3.941073477502838500e-04
1.261857469038949516e-03
5.246434729215490199e-04
-9.012819283168167338e-04
-2.853005107450355346e-05
-7.320218684978658727e-04
9.652691302639167768e-04
1.061533012860478445e-03
6.629230240413583905e-05
6.365999094393991762e-04
8.846245470615976070e-04
-7.374346825178523758e-04
5.836860743560601901e-04
2.444777265622736129e-04
-1.195541590561585986e-04
3.286777966744255778e-04
1.636894561877327690e-05
1.571513873867031602e-04
-3.218761693327101998e-04
6.490357799327384648e-04
-1.935804880344174642e-05
-8.318227765965820371e-04
-1.357380677915845033e-03
3.172883633264865066e-04
6.535765507469375353e-05
-2.500267436611429547e-04
-3.023835509937937037e-04
2.435354984380062198e-04
-3.517327326189614677e-05
8.728967047225204235e-04
6.220882957815695091e-04
-1.246707267109023595e-03
6.549408064788370685e-04
3.187220839640231957e-04
-4.130718303156259230e-04
-1.228982729198813953e-03
-6.362471679832431420e-04
4.540959379550247471e-04
-2.150120097692153514e-04
1.071082023620436040e-05
-1.509393546525234669e-04
-1.030339242745548017e-04
-2.251882227518752129e-04
-1.975243199861349009e-05
-4.197962697883896981e-05
-2.273350750616139114e-04
-1.692287747149981533e-04
-2.565093025851433901e-04
-2.508234984327324863e-04
4.504241285389125825e-04
2.296369133574639016e-04
-3.957763467546557778e-04
3.877163412537907683e-05
3.790465099292779100e-04
4.812539766134082075e-04
-1.686086056291225314e-04
4.404283114642588764e-04
1.395333495338420358e-03
-6.906031109776422519e-04
1.322283528304746790e-03
2.925751960634613070e-04
3.024962947878556337e-06
4.710211476097383044e-04
9.404541647245853904e-04
1.064177949056619452e-04
4.065480603686622696e-05
-1.209538947183109471e-04
2.907186923150669052e-04
-4.375979276839073043e-04
5.311392220269168423e-04
-8.994692716667452691e-04
4.015794442529338633e-04
-6.022301990906408229e-04
-4.758506701974083049e-04
6.562191962473420395e-04
-7.824631050450380496e-05
-3.545378390085494684e-04
-8.478280116391926627e-04
-1.565457218284447400e-04
-5.945702287713623083e-04
-4.191308849337465952e-04
6.007304957333215291e-04
-2.593378705935540693e-05
5.343809509193024913e-04
3.000808198424347582e-04
8.471638525064477659e-04
7.418276551633644486e-04
-5.127942699028325158e-04
6.588424841977288731e-04
2.610617446385497006e-04
8.303051391838563210e-04
1.048560366787250992e-03
1.093867474435732774e-03
-1.461553723057681855e-03
9.900043578634088858e-04
-1.455594715406336543e-03
7.627562917394345443e-04
-2.182214209169797885e-04
-2.723000509756150645e-04
7.772150618887564266e-04
-5.572686723502973767e-04
-9.884415544373428841e-04
-9.807336370089914709e-04
8.256569405701798172e-04
4.831011890345133521e-04
7.031487258513979593e-05
8.601981902432801743e-04
1.992125824870008425e-04
-1.063879696470177317e-03
-5.048192003857325224e-04
4.276786961549192134e-04
-9.498094377193388831e-04
-2.939465544584425724e-05
1.130208851251814865e-03
-5.010258851167451915e-04
8.922205540567162974e-04
8.882267403942094731e-04
-2.085143180501557137e-04
8.757964432131708314e-07
-1.358053490835755682e-04
1.158013482121112022e-04
-1.751896196973108471e-04
2.114831773955764128e-04
-7.425957695815538391e-04
2.540095266350451161e-04
1.201027572716786964e-04
1.265226098476009186e-04
8.728482142708087399e-04
-2.424126085958793874e-03
-2.376344880930113864e-03
-8.309691353536628267e-04
-7.706631419467343050e-04
7.599683745530819894e-04
-4.110668280191958767e-05
9.505702612874208186e-04
8.796624856676800311e-04
-8.682771996425715528e-04
1.663346909710954416e-04
8.388188744806909488e-04
1.166200774453491186e-03
-7.913052681788239427e-04
1.282813784172014485e-03
-4.382416795463011955e-04
-1.667214929681344040e-04
-5.000613993061160537e-04
6.015873714682515023e-05
4.720628080716904340e-04
-6.297495772234690866e-04
-3.773149862533945582e-04
7.023659143764669462e-04
2.910807024593776516e-04
5.838984860880199997e-04
5.024245099158378657e-04
-2.198496619011639397e-04
1.024520727940201887e-04
-4.601881978966673617e-04
-1.891226640003689343e-03
4.694155087453534526e-04
7.908325697173287537e-04
-1.055163213517582759e-03
1.722094338619426304e-03
-2.508082125660395195e-04
1.523516323748159290e-03
1.344921534598195851e-04
-8.729430575013661297e-04
-9.581146091729875885e-04
-7.187010244338676648e-04
3.149173891044995503e-04
1.368392545243537779e-04
-2.724472679852111862e-05
3.162896762395469782e-04
1.073116877327183385e-03
5.074308453284316145e-04
7.925781333902718641e-04
7.861058352072683051e-04
4.020760895410263039e-04
-6.821885477971248489e-04
-5.419422317843149497e-04
-7.819874774452639267e-04
1.143711786775792764e-04
-1.348297837134295948e-03
4.059890969875226056e-04
8.082462209909931777e-04
9.185343959047184443e-04
3.814238780042717011e-04
-9.043236845111363121e-05
5.125852749232042913e-05
2.967059449847923207e-04
-1.727085594149104864e-04
1.279628103265959091e-04
-7.412417572813901430e-05
1.031477619468937562e-03
-4.761617839016663543e-04
1.552819206150899453e-04
-7.112199679959788599e-05
4.651594702333743028e-04
1.456982744046327917e-04
7.932982751589043487e-04
-1.583993852425935080e-04
5.024757732045445017e-04
-2.950074558241853797e-04
-5.783118065480556376e-04
-4.303080923336099562e-04
1.672823250871745618e-04
1.918895256708199617e-04
4.545170786771374899e-04
-4.033913439331929750e-04
5.022171542817879808e-04
6.815082873646321386e-04
4.440397654721627832e-04
1.901587527242406357e-04
-3.447330465462864727e-04
-6.160818910138446142e-04
-3.431005140465975974e-04
1.270984400149137742e-03
-3.592748662908256166e-04
-1.999026221901309170e-04
9.824137434490481068e-04
-2.475229161988159446e-04
4.805515379291273089e-04
3.422315261151453834e-05
2.568867877317331481e-04
-6.589493698626484658e-04
4.891326916692794737e-05
-3.926346211911763465e-04
-1.633159252234822243e-04
1.203571741434130007e-04
-6.895767921327100244e-04
-9.255922458908893936e-04
-4.050963554021045276e-04
-3.938003559835025810e-04
-5.415452093130467464e-05
3.282181462037458405e-05
-9.544077126542352104e-04
-1.014826835285233264e-03
-7.829717794248555306e-04
-1.140115570741708374e-03
-1.933035209858408152e-04
1.259726193675114541e-04
-3.835484553913660498e-04
8.833791579875270323e-04
9.128399534775599874e-05
8.162000542489250120e-04
-5.660612385178730686e-04
-9.497356940568074148e-04
-3.744290491669478730e-04
8.038193326251120204e-04
-4.073852169160781071e-04
-1.980284330127378303e-04
7.887578351445243474e-04
9.950267571290640715e-04
-1.292414992348179734e-03
-4.638667069246781721e-05
1.751732880424781730e-04
7.754865688228924697e-04
-5.713054103542553833e-04
-6.019236266917878499e-04
-9.127854639172357318e-04
2.559060360045255591e-04
-8.494609139455244198e-04
6.370119366914540459e-04
-6.119012572378925352e-04
-6.030699405137260587e-04
8.577009471161982715e-05
-2.887352014046218004e-04
8.109918687246956423e-04
2.230585969682496452e-04
2.869293471272123404e-04
-1.455487579051938226e-03
-5.642005578579825176e-04
3.867882814246880754e-04
3.573460900491054102e-04
2.149872477495430286e-04
-5.042166003606450260e-04
9.207414353317968552e-05
5.351867869143817416e-04
3.123249820170601173e-04
9.180623505170332384e-04
-4.470820298831079372e-04
-7.099760523578823191e-04
-1.555784727221824152e-03
5.828667923126194025e-04
-9.094829238536190170e-04
9.235509951304607607e-04
-7.876903454918582825e-04
1.462033598154101289e-03
-4.658361190734528292e-04
5.642509501687412946e-04
-6.513029994044088186e-04
4.868469287847729753e-04
-8.419449452487870271e-05
-3.370199343417362302e-04
1.863560290078613148e-04
-1.198576616165047070e-04
-5.780269976049182004e-05
-1.596364498672569890e-03
1.275840252326671692e-04
7.207228389951046482e-04
2.741786582408693934e-04
8.146011419445361784e-04
-9.487900067401219438e-04
4.186175293419996295e-04
-6.939352599578255728e-04
-7.373428295909666033e-05
-2.118702268212587045e-04
4.515602275184453745e-04
5.524563489804068528e-04
-2.972417682059359659e-05
9.533669508829807323e-04
-8.720056382030984588e-06
-2.889527938697337116e-04
-7.645494983757713170e-04
-1.065031042098075597e-03
4.629014908482142251e-04
8.655537040606643955e-04
1.517473688643953579e-03
7.101672007298584543e-04
5.012358558724916337e-04
-9.260086877207212739e-04
-3.948362858791674783e-04
3.221608927400601997e-04
5.706453880735718083e-04
6.049935889761387606e-05
2.234999212113943535e-04
-1.301867976170754048e-04
-2.071038680073507960e-04
-5.286403752827487047e-04
-2.173043300866696456e-04
-8.572320457129720443e-05
2.994066912611882095e-04
1.069861975523726761e-04
-5.298545969361695071e-04
-5.043390295760461720e-04
8.979382041508055618e-04
1.400020597341359620e-03
-4.240606564884257705e-04
1.584549316568313376e-04
1.439562871978971800e-03
-9.556945253637201803e-04
-3.314144001142964400e-04
1.717997983341302615e-04
-6.516458222528911405e-05
8.330323048005513781e-04
-9.425073230809430554e-04
1.453647039548894835e-04
4.905937493011233155e-04
-1.262890065472473382e-03
3.371738563098166937e-04
9.645665389868160423e-04
-1.762302368155713259e-03
9.041353344672760622e-04
-7.421343726346995521e-05
-1.700108475811894964e-03
1.767366273615634739e-03
-1.807504489031216272e-03
2.972069448183779945e-04
3.710513595811215063e-04
8.504395342323915405e-04
2.110438602335586806e-04
1.822631253142131076e-04
7.186187367716384599e-04
1.202580446593406755e-03
-1.981364414223485589e-04
1.930910003974463862e-03
-2.833937218233852453e-04
1.271847072437606201e-04
6.569146739199365718e-05
-3.354450787153133722e-04
4.279553651522203009e-04
2.519598232286487743e-04
-6.037573377616471150e-04
1.513115687457315022e-03
-4.097774716065113879e-04
-1.345010838554915934e-04
8.916071711064796693e-04
-6.244951284805176509e-04
-6.255532581601392543e-05
2.261364968695835813e-04
4.896023408423626677e-05
-5.742952622877807445e-04
-5.982126351137842480e-04
-1.376641729254656074e-03
-1.228769402194241072e-04
-1.157068755230871143e-03
3.084649760604621024e-04
-4.231790127400769327e-04
1.704931432852344487e-03
6.351084715513783535e-04
3.020546795709769163e-04
5.377109401630829648e-04
-8.514857480805969499e-04
-1.353937550695063867e-04
-2.217868938893773339e-04
1.382918190828739220e-03
-4.678743701684962377e-04
-4.835988276712131556e-04
-1.328867859577221916e-04
-4.871142661159337311e-04
1.043258795186034293e-04
-3.017232803459477886e-04
1.323745977319418406e-03
1.637299585694244452e-03
-2.829584116217197248e-05
1.149973455747389794e-03
-8.155305922336265802e-04
-3.308884215302638674e-04
-2.785374993936706560e-04
7.602676877004096024e-05
-1.421144059271677897e-03
-4.914109907767811062e-04
1.138716039337135232e-03
6.178817879439696490e-04
1.226404367798820212e-03
2.192781596060832294e-04
-5.357582642139152888e-04
1.258366056850716971e-03
1.288601773281319082e-03
-1.966863380522582312e-04
7.721692371506185459e-04
5.656524113870250699e-04
-1.035108173617336081e-03
1.232552181537515041e-04
-3.528858371290915174e-04
2.966300418206282703e-04
-3.562033627380798394e-04
-1.834565226113473997e-05
3.638840111416009079e-04
9.278269663675891166e-04
1.537992122971170751e-03
-1.150660828630876986e-03
6.741071908516619096e-04
-2.694540019418499729e-04
-4.620069534196704643e-04
-1.811347759513073355e-04
-2.320582400621208912e-04
2.309853623195421717e-05
-4.469194163514992246e-04
-7.199871692888536092e-04
1.509629281827476899e-03
-1.539411194539242649e-03
1.780067237470483793e-03
1.638679458286091946e-04
5.883071271600571594e-04
1.033014450409872227e-03
1.068455937770045999e-04
-6.146384348579829893e-04
-2.629298691226684363e-04
-1.359797911909253233e-03
8.462185615521960547e-04
6.620631132988922477e-04
1.111006085710908959e-03
-9.924740221702434226e-05
3.048150207087556751e-04
4.095124775930029655e-04
3.110917575524482282e-04
-9.407301204057224751e-04
-5.734233663835354780e-04
2.597632485566330526e-04
4.790135471773056654e-04
6.265815902556075984e-04
2.337373282506452271e-04
3.169629875087905926e-05
-7.983088176295834648e-04
4.328193619488637073e-04
1.208233100158449423e-03
-5.474303567275702349e-04
-3.978874818840539619e-04
-5.460305501124954617e-04
8.105712447445272454e-05
-3.520235065843562512e-04
5.931532173956697348e-04
1.141794102197062457e-03
-3.844196679784367984e-05
-1.487843598326010297e-04
-4.966584554083408945e-04
-9.697085170609421375e-04
7.194972099286362551e-04
-9.569136102797480602e-04
3.341353091210553573e-04
7.127771208077336316e-05
-3.071879097525573570e-04
-3.543954891975257203e-04
-1.403340516075789407e-03
5.562799743801695446e-05
-8.106264269349317984e-04
8.216303517501808004e-04
6.703912318400825042e-04
3.444114503261823021e-04
-6.566514968644213092e-05
3.503955841054301836e-04
-1.898875548262663306e-04
7.901924708974546012e-04
5.988483994164691066e-04
-2.715166665433580177e-04
6.324579316746925875e-04
1.002447890440323532e-03
3.686155378589460550e-04
3.893464508088483630e-04
1.218687189860663414e-03
-1.170080554634301368e-03
-4.527945571929627914e-04
3.021545290135859286e-04
-2.565325970588234594e-04
1.244011167137438817e-03
-9.070259123726703582e-04
1.355296985175170150e-03
1.531838871061122964e-04
5.495176110788665622e-04
-1.697663661179336404e-03
9.048815183940985202e-06
1.309301409644794776e-03
-1.160171967818829841e-03
-1.335729974498809248e-03
2.447996315803883829e-04
-2.302522680989141260e-04
1.271310793700401948e-03
-6.102410494231044714e-04
-1.054709155921243935e-04
-8.252976972797744027e-04
-3.049498917558797484e-04
-2.609750395241350915e-04
2.467606074533709184e-04
6.134656254621183996e-04
2.886856083253869221e-04
-8.387363972255100541e-04
-8.951949688166738932e-04
1.369363481086049213e-03
-1.030011064619689104e-03
-1.407521526568181051e-04
4.542746437668966240e-04
3.655176703162743741e-04
-2.099033602719973472e-03
-1.933553976346405381e-03
9.231917009617597375e-04
-1.461326443153589225e-04
-7.017220818634149196e-04
6.987956163708758817e-04
-1.235375489502173098e-03
6.559140152385655722e-04
-1.285528071462888966e-03
-1.126144542199657497e-03
6.247295045170565787e-04
-2.483776324148463861e-04
-5.835335271580321904e-04
4.253807425994562616e-04
1.281011796731357406e-03
2.989453887670751373e-05
4.447437943589784373e-04
1.286559439243896517e-03
8.206609970323599590e-04
-1.811786998057544071e-04
4.214591099251646243e-04
-1.429247018043439382e-03
-1.046792368750210003e-04
-2.846289957612824976e-04
-9.325767520544822305e-04
-5.198341043029912085e-04
-1.181186909133691808e-03
3.612485151707637361e-04
-5.268062995909439557e-04
1.356715027982778512e-03
-4.476046340788440020e-04
-3.465575521616706569e-04
1.361457800256471711e-03
5.047461319327520854e-04
-4.034208687082683348e-04
5.005675232149967664e-04
1.075557359083301277e-03
2.620805245675968099e-04
-1.226218218866287997e-04
1.339675713209396296e-03
-4.286971580639021011e-04
-1.019584797312127590e-03
2.963670540935866692e-04
5.873503875357679541e-04
-2.257931469324949504e-05
1.657396222089567548e-04
-3.135671590279683670e-04
-3.754241891330952147e-04
3.660809869780059611e-06
-1.487495247731447688e-03
-6.949546031798457119e-04
-3.763364561741200267e-04
2.728810849281151506e-04
1.556599811671175999e-04
-3.143200736949026508e-04
5.533388070981917805e-04
-6.108668112884715722e-04
-5.383249841565572111e-04
-3.082289171840970265e-04
-3.997433876240341459e-04
-2.943873473813122589e-04
1.515404679448279683e-03
6.105128494446459826e-05
-1.788981908739536671e-04
1.154999151584094755e-03
1.926044055909148045e-04
-3.442026238780915173e-05
-4.497538853684503358e-05
1.076912643318545101e-03
1.193112862037229438e-03
-9.638562013510378621e-04
5.809942633710238162e-04
1.584988514599067633e-03
-3.862557097037496064e-04
1.225138782305796930e-03
-1.665054996098910074e-05
1.704978060088206443e-04
-2.564387011485977862e-04
7.451691896393536525e-04
-7.733290985842299807e-04
-1.086047537306873126e-04
1.468676490582925551e-03
-9.223726319473739580e-04
4.983215681449641547e-04
-6.567265532648920712e-04
-4.289308025421983885e-04
1.034354508725410861e-04
-6.858912748951501506e-05
2.128575395913603343e-04
1.321325216709063168e-04
6.478272246750977703e-04
1.277341754547432545e-03
4.611026224494561994e-04
-6.531645191529066681e-04
4.986947517177415948e-04
2.287066955831574839e-03
8.206853556998835628e-05
-4.394596282591822084e-04
-6.791936236450000358e-04
-1.694821390258765409e-03
-4.584355678092448647e-04
-1.809541126958373733e-03
6.092011967956712003e-04
-5.529780032716647082e-04
-7.946073263816194479e-04
3.424655205592412426e-04
-1.520921660129695050e-04
-1.507094799582284986e-04
-1.492319476635478679e-03
2.892857877020739432e-04
1.446875433025985268e-04
-7.360861991805078613e-04
-1.952739519910875088e-04
5.758437905834569177e-04
3.115459868220483248e-04
2.398395240188643440e-04
8.273098818126906062e-04
1.946619721274702093e-04
2.992228453846363474e-04
3.930066237487873189e-04
6.068254827757484874e-04
-5.259673862563499442e-04
1.046465131964421057e-03
-1.068786805922098326e-03
-3.036765141700748546e-04
1.158631137907866144e-03
4.063502054775780786e-04
4.002530863338169312e-04
-1.307254270627209271e-04
1.409719122906260343e-04
-2.389524126157107893e-05
8.445584577119663377e-04
-9.773856961742604862e-04
-6.374173737741744119e-04
4.449783630461937554e-04
1.094493341533223996e-03
5.777065949036928102e-04
-9.781884314452395676e-05
4.666510231461655413e-04
5.189889864584986117e-04
-8.853282718407960803e-04
2.732494751345740857e-04
1.217352959353221317e-04
8.119915316704983971e-04
-1.091825149085959117e-03
-2.222568320768194682e-04
-3.744134758815863967e-04
-4.694555925781926484e-04
-6.482087207136562335e-04
-1.522214810438876414e-03
-5.503669229286946730e-04
-8.436050582370227188e-04
1.219525859799547697e-03
3.380454584016011625e-04
-3.045053436409550464e-04
-1.290647903534328971e-04
-2.378343776763130156e-03
3.595507661900201597e-04
1.177166418408294663e-03
3.038429409993874831e-04
7.670049648891769708e-04
1.219113891720196620e-04
1.100014487562095584e-03
1.162384439285872031e-04
-1.246573237839444272e-03
-2.823672006212252011e-04
5.841794456011859736e-05
2.620261691957736583e-04
-9.357241071710101048e-04
1.798654444104461113e-03
1.454486440706782109e-03
-4.356568407092550649e-04
3.613866365991805956e-04
-2.658434445420350010e-04
6.382717911627750927e-04
1.760613944486475423e-03
-4.313105816247281049e-04
-1.893487154182757720e-05
-1.126731907730855716e-04
-2.481890051419469861e-03
5.394841448254113344e-04
-1.321003326262841406e-04
6.966398538222855338e-04
-1.049410524494170070e-03
-4.593738984716873568e-04
-1.003151814367246250e-03
5.221494483039541444e-04
3.395665575937103207e-04
-1.083650812288195278e-03
-6.858517782275829790e-04
2.366875364038973934e-04
1.202502616925207575e-03
6.162678977706211774e-04
1.141733200622562427e-03
7.092755620649544629e-04
1.380306866474433633e-04
5.327894868724678901e-04
4.817096279202597660e-04
-6.589021110167033726e-04
1.045973664433979796e-04
4.517039049889328274e-04
3.791961366920236189e-05
-1.809146898933318166e-05
6.393193564573901441e-04
8.451038575967163412e-04
1.732721116153974298e-04
-1.889486218358130088e-03
1.716156337208926458e-04
-3.553430280524547710e-04
-1.862207711159526559e-05
8.949842446563066427e-04
7.102310796298660391e-04
9.305033982366787190e-04
-1.044576427921125586e-03
5.428861462983469103e-05
-2.215226803806782246e-03
2.069364774665759460e-04
-8.248054856408564830e-04
1.463169411099342777e-03
-6.858656461928823726e-05
-9.038363646342438985e-04
-1.579529180079351531e-04
2.138056140365255167e-03
-1.582696012485611259e-03
6.076834165637154091e-04
2.156060664310456912e-04
-8.009162143030645930e-04
-3.318702703401786613e-05
5.757847366981225918e-05
-5.903343815750672005e-04
2.709634525743591718e-03
1.021200381694886304e-03
-5.708746801497474051e-05
-1.970179280141520946e-03
-3.990767431874107539e-04
-4.816012697002941740e-04
6.101062210459425256e-05
-1.124692056887223040e-05
-1.136317098277863898e-03
3.296387297437671947e-04
9.889762362070969853e-04
8.605000648709185780e-04
-3.075879930359154955e-04
-1.118802232269389824e-03
2.601796400783147633e-04
-2.904332693685225935e-04
1.731487369764096233e-06
-5.618901428096623185e-04
7.251864833247756068e-05
-1.086654326356004037e-05
-6.706829993911827929e-04
3.267817629760814578e-04
2.361918368866343626e-04
6.894203258684081541e-04
1.310765578571901737e-03
4.111099269254923591e-04
-1.704523466051987798e-04
2.754291929731415031e-05
-3.123215937914941716e-04
-8.786816758359272325e-04
3.224249491738730459e-04
5.672790580450665435e-04
5.891529074545897833e-04
9.538571739644561339e-04
3.270352939088339993e-04
1.877235719245451425e-05
-1.235923203481203774e-04
-2.221560724238061477e-04
-3.346395042231147237e-04
-5.049176153972183365e-04
2.959690079233504912e-04
-6.497868032745641228e-05
1.777127136881456455e-04
-1.678219063941250298e-04
1.556936519492340071e-04
1.680225697746193296e-05
-3.103548333504109664e-04
2.422815431176272676e-04
6.538421092257504252e-05
-4.164113360011231324e-04
-5.263194970029158462e-04
8.587766471885831124e-04
-1.204239919353265135e-03
3.236450354572223994e-04
3.373612233291964965e-04
2.671557617143851832e-04
4.101394864418715495e-04
-7.998239814332193777e-04
-3.577460566703399565e-04
2.722091328272818159e-04
-9.124911609307421231e-04
6.898360927465865475e-04
5.161167076732868899e-04
-3.333808016334630434e-04
-6.764417474957332361e-05
-4.159879500291449659e-04
3.542023173829992439e-04
1.021076907086019029e-03
-1.276553214268013638e-04
2.425626517198705949e-05
5.472350585072328596e-05
-2.328884407704675662e-04
-7.670927859968740660e-04
-1.807177668916416595e-04
4.043890707057503980e-04
8.631852450690997351e-05
-6.902260626240622416e-04
2.590314042223879911e-04
3.355211252511792488e-04
9.280291161379563766e-04
-9.461177934681435741e-05
-1.541540233429539901e-03
-6.006997598882568134e-04
-1.610562219676582542e-03
3.755703664270573544e-04
6.180908253136967916e-04
-1.027373702672416175e-03
-3.569109199976477215e-04
-1.898809968737380461e-03
-8.439655708482524717e-04
1.413841592865960797e-04
3.301323988305247207e-04
-1.742878674811060985e-03
1.251526939984186175e-03
-9.460421411503361225e-04
8.401233048127110074e-04
-9.611201019758283757e-04
1.593883115433228012e-03
6.912838728921735830e-04
-1.565932667332432229e-04
5.619973553744164784e-04
2.732409995529733291e-04
-2.887798227582836705e-04
5.252646388179197908e-04
-8.340718365653812354e-04
3.619699521393925741e-05
1.480052089459665300e-03
3.482450635846872901e-05
8.859172735508609540e-04
1.385035489646384483e-04
-4.771968228540203168e-04
-2.817630743981186666e-04
2.127723558073436731e-04
1.681685047332288788e-04
-1.705032331759238586e-05
-1.898934489306587127e-04
-8.943075278392396575e-04
4.463864583665306629e-04
-4.492534010308929992e-04
-1.298435144555475898e-04
9.049122117271203320e-05
7.110249388511124006e-04
-9.364572996821843645e-04
-3.127165241464954586e-04
-3.871030706932636041e-04
8.528259239733960387e-04
-1.038127033112389800e-03
1.491227497447049181e-04
-5.732728523197197891e-04
2.124073291362013811e-04
1.096187416783630733e-04
9.736525711321637874e-05
1.586045513625904081e-03
-6.198087946318050307e-04
-1.536555317023727415e-04
1.606393849780332487e-03
-2.052401674441339287e-03
-8.511553873749530292e-05
-6.245401256540202906e-05
7.493549439690834913e-04
3.047123295825472948e-04
2.623432995840622615e-04
-2.190164127830831510e-04
1.996656097072854326e-05
4.291809105159801385e-04
8.826795141590770052e-04
2.046582561271194367e-04
1.270754196959098740e-04
9.967111848114870829e-05
-2.602162474859912988e-04
-8.467603324807808666e-04
1.472521286564263657e-04
-2.814507200214732780e-06
-3.670171451043908236e-05
2.726818299922722719e-04
-8.502906716902529707e-04
-3.888320714038772026e-04
-1.023551528745781465e-03
-7.968548524169956565e-04
2.872870096348855568e-04
-4.553626339578754618e-04
-8.342537998403240420e-04
-1.047748643027775380e-03
-3.891983009508486022e-04
-1.642603895715778804e-04
-9.807002675753615385e-04
3.030570630874989519e-04
-7.824109221305636241e-05
8.361972917733136298e-04
-8.442359490457378678e-04
1.134629865832932974e-03
-3.529861227582147920e-04
5.338084813133976486e-04
-8.289820010923770830e-04
-1.221505640077959719e-03
9.791973616878467835e-04
-1.356068069738627837e-03
-5.817792349223282686e-04
6.366281074388587848e-04
1.297813259386033794e-03
2.674551956795424412e-04
-8.908209808358456610e-04
-2.617283757012954580e-04
-1.068489626695784183e-03
-2.207016757712870867e-04
-5.646403713363169351e-05
3.315299695692865687e-04
2.133895598830385038e-05
-9.946422696346561912e-04
-1.447493970177982277e-04
-2.465035296840564034e-04
-2.425476097643565140e-04
-1.588437200098371301e-03
3.697099550575336756e-04
-8.976115098971436954e-04
1.971354805411416303e-04
-4.996071508860511603e-04
-1.641162663454182697e-03
-3.268746543992909963e-04
6.232268978424949576e-04
1.214701002388825354e-03
-1.293205907168353528e-04
3.110069347081544197e-04
-7.658033328980318535e-04
1.388446987116408464e-04
2.089114695870936491e-04
7.094324528403037414e-04
-7.338600311343472949e-04
-4.602897546996232271e-04
-1.233530949322999377e-03
6.279840065498456777e-04
3.841458064745392384e-04
-4.202839522299751831e-04
-1.225180039200483764e-04
2.022250671398715663e-04
8.899201912814516061e-04
-3.494135407695048829e-04
-9.485181674207207071e-04
1.158956969726729737e-03
-7.626571609443803541e-04
8.236102882494919942e-04
-1.146479145043978020e-04
3.056300711713553619e-04
-1.553608267075728988e-04
2.404565099853391724e-04
-4.073851348394790634e-04
1.464592103700006935e-03
6.458283546049511806e-04
-1.345555344166704699e-03
1.249694846303745161e-03
3.820939810509229695e-04
-6.777266596158778916e-04
-7.054130828353061093e-04
-9.072643462529457416e-05
-4.265793437385893600e-04
1.956257330196236981e-03
-1.065986161945436548e-03
-6.383279984193476883e-04
5.236890005312662541e-04
-1.114278060055013439e-04
3.781407557240766960e-04
-7.838016472250787471e-04
6.729493046191360923e-05
-2.101369542809094560e-04
7.433400883224172999e-04
7.774494554937910577e-04
-6.337644311288196958e-05
-6.719934499907615193e-04
-6.437690818877653764e-06
1.682698925815490076e-03
-3.351335542474921853e-04
6.647848309920808890e-04
4.777936537263177187e-04
-1.504310221965143445e-04
1.637068812863249788e-03
-2.217515095102256888e-04
3.542422380033978069e-04
-6.476445351704381926e-04
3.296812380760618115e-04
8.640110297825117757e-04
-8.147555588212895773e-05
1.037385817217196735e-03
-8.689564646941050200e-05
1.331964178901813925e-04
2.699879547976162032e-04
3.005507061770129303e-04
-7.091661177268468322e-04
6.005353346176947951e-04
8.538131712201152673e-04
2.595011163016846468e-05
7.518715903530185166e-04
-5.753061917980504614e-04
-5.989010598692658940e-04
-4.884003380406143260e-04
-1.077510955286656042e-03
7.457939609216560680e-04
-9.649796949766748736e-04
-1.933239593604279779e-04
1.025753250331092352e-03
4.209389712370245487e-04
-8.797559584694259740e-04
5.266089342568017195e-04
7.418351105775245011e-05
-1.659961113257918397e-03
7.570620281555241055e-04
5.022813589607676155e-04
-1.008308278445818563e-03
-2.359359910831191340e-04
-7.428762350299342697e-04
1.264680813694544375e-04
-6.273754436660115927e-04
2.617439494654185501e-04
-2.661542121177367325e-05
-1.948845063857949053e-06
-2.195262552740170653e-04
4.361975932254152271e-04
1.120047725376146185e-03
-1.227645117330520164e-04
2.450620855405997154e-04
2.338051876921336605e-03
-5.569482532008461755e-04
-2.329056444095538693e-04
3.662242763318311785e-04
3.074496033731986301e-04
-9.857968668181525673e-04
-2.863830757017096296e-04
1.356933366980255429e-04
4.261256280570033402e-04
-2.212650231671205419e-04
-8.806059937973233676e-05
5.511303177890962976e-04
-5.487177392717853880e-04
8.140503783783388340e-05
2.826165551490949536e-04
1.156903633779101715e-04
-6.925462944493242365e-04
6.836824355210797217e-04
1.647032600302969621e-05
-6.708492886687344786e-04
1.104811035200389374e-04
4.298994409878167640e-04
1.612694095012905332e-04
2.572611895623559946e-04
-1.895151649068749840e-04
-2.620101764293825174e-04
-8.493359735380059602e-04
7.893858340688367616e-04
-3.212017913963717379e-04
1.486435925628577619e-03
-9.882539786319512187e-04
-2.987766908947865315e-04
-7.024760219326922628e-04
3.581000002474827833e-04
-2.833298564536727631e-04
-3.820165049365992563e-04
-1.162204417927965904e-03
-1.311543955387768981e-03
-3.815771855303778134e-04
-3.073387475591554652e-04
3.586199764319357029e-04
-4.804325934654853970e-04
8.442742033654569624e-04
3.469985157926534888e-04
1.452683646667222127e-03
1.132421688460009913e-03
-9.010702860608745500e-04
-8.332962527930012388e-04
4.838112594359512985e-04
1.875412201238317182e-05
-4.657509842488502462e-04
-3.213174450104297648e-04
8.768841230464370553e-04
-1.529225346552922585e-04
1.965173777818553073e-04
2.192022517413159098e-04
6.020010006327802305e-05
-2.355920664139294675e-04
-8.579506735973674563e-04
-2.799041120504663807e-04
6.173400591873127877e-04
7.001635865301905843e-04
8.892178629338205178e-04
-3.312809733716730711e-04
-2.236845791219224905e-04
-3.032767315238577119e-04
1.127602501040638350e-03
1.532045288423869098e-03
-1.278063923320668692e-03
5.197750297029818172e-04
-3.514212387547341722e-04
3.480713859613216409e-04
1.998258791850616480e-03
-5.261567709897069277e-04
-1.344997818264647891e-04
-9.496365286004560631e-04
-2.563107255814781917e-04
-1.152544177051247499e-03
-2.616445903244489415e-04
4.664642759650231159e-04
4.481047771879016046e-04
8.242511464899444354e-04
3.472167118508125800e-04
-8.986944517691748159e-04
-3.477600632914018140e-04
5.523405160648238096e-04
-1.039502266545454419e-03
3.415647759655357344e-04
-1.139388063298238472e-03
9.066855760665223484e-04
-4.322565210093884131e-04
6.199428554501242115e-04
5.231463818290107059e-05
-6.706744719270139703e-04
-1.241979507627122888e-03
-2.181596677891589273e-04
8.035060780466659735e-04
-7.777124895374778937e-04
1.436747437703780059e-03
-5.905401692445879291e-04
-4.584059608328191235e-04
5.995083076394422481e-04
-5.549057501419579503e-04
4.476390890844423524e-04
-1.556135376341888582e-03
-2.533669335306303275e-05
-1.026857942342838904e-03
-9.159559843487596019e-04
-3.388430143123853915e-04
1.016593730953053607e-03
-1.551619827793669073e-04
-1.145584937368331014e-03
-2.290498056257508387e-04
2.660727332188056677e-04
-2.619801181552114540e-04
4.102256675084651788e-04
9.789512847294037229e-05
-4.380884235168324412e-04
-1.294458469223207231e-03
1.283640804678947507e-04
4.963947801687709944e-04
-4.062240808783944279e-04
8.538423441235751775e-04
9.029314986675324433e-04
4.191125005831877704e-05
1.250433295112427781e-03
-8.127458306754147639e-04
-2.908979082103086387e-04
1.056236189663088866e-04
9.384266902439014407e-04
3.002007763210323937e-04
1.481875837346839772e-03
-2.904791797994385298e-04
-3.730292160678582488e-04
2.451914950616405713e-04
-6.499992227430067193e-04
3.726059248932707228e-04
-2.359379117538320484e-04
2.816748046449788346e-04
-1.093162326133966791e-03
2.267431252817741930e-04
-9.664622947802539894e-04
-5.057517260508491387e-04
-1.272360274403503929e-04
3.975033243262713028e-04
-1.218807186314420843e-03
2.143820736444545974e-04
9.559692483122592989e-04
9.446236512179680177e-04
-2.790820127158446961e-05
3.778395539147814323e-04
-3.710837354117604847e-04
4.092075656672744695e-05
-2.128369726330550898e-04
-1.422024845658688126e-04
-1.042746819462121580e-04
1.121383251064202516e-03
-1.042876234615182189e-03
9.620084032157316190e-04
-5.161766825407638429e-04
-7.362588861121181945e-04
1.936591257178836101e-05
-1.058618021083511992e-03
-5.924873438764741108e-04
1.783140802259129362e-04
-8.374633658603473224e-04
1.881135989282056481e-04
4.888757069193305251e-04
-1.860997837556923533e-04
9.362357516595031643e-05
1.479396491717077655e-03
-3.922174577550972981e-05
-9.452688668873355463e-04
-4.177180330310305213e-04
1.696087050179692770e-05
1.137648127573795496e-04
-1.210009331802025696e-03
9.945601352767239505e-05
8.490161315219179944e-04
-6.087535970684583315e-04
-1.161205355395122110e-04
5.025226717941398864e-04
-1.551865578438951830e-03
-3.384407451358348350e-04
-4.752438243394508429e-04
8.676802066846313376e-04
8.557609475570204566e-05
-4.324403435027633429e-05
3.620230851949008300e-05
-4.751626323494670076e-04
-1.172901785904404472e-04
-2.990956405469602898e-04
1.234030996825775787e-04
3.008464540834366631e-04
-2.164583206573976817e-04
2.490166758413099612e-04
1.652058315807476501e-05
6.254857691185456992e-06
3.419298427095732781e-05
1.928602960729633399e-04
1.839742445586249354e-05
9.542294961237751064e-05
5.517665004145896239e-04
5.106294784805531046e-04
1.670083185294649953e-04
1.069992643453903953e-03
-1.920105860572414729e-04
6.561961132543226447e-04
-1.597986787051325721e-04
-4.666460835376326532e-05
1.016703036203959413e-03
-1.411710619207768658e-03
3.723342264542446687e-04
1.409001188181105250e-03
7.165898948789644479e-04
-1.028670496688199659e-03
1.182780181755001270e-03
-1.046865008410811666e-03
1.133153691374615786e-03
-7.012023532882576430e-04
4.047442648060732410e-04
-8.120505496811448456e-05
3.234774063976914526e-04
-1.019011088479940610e-03
2.172703736777634675e-04
5.741023223023781997e-04
-1.235196842526390813e-04
1.830493052827098692e-03
-5.735719626306888530e-04
3.166460283110606529e-04
-1.401355083470701233e-03
4.359709768943539183e-04
3.712089291862402532e-04
-2.966085469613473791e-04
-5.837579227581679055e-04
8.886299640655445642e-04
-7.812211417103394470e-04
4.971927435220874648e-04
9.040994851578567108e-06
5.118455435860581404e-04
-5.401190849165004096e-04
-9.563231457423570104e-04
3.519094982308771497e-04
-2.779175122462431194e-04
-6.055687153660973187e-04
-3.326083758009946230e-04
1.505880813393868883e-04
-2.182211424040479144e-04
1.490763961391507620e-03
-1.626494400445202798e-04
-2.568408532646150925e-04
8.608842599812736439e-05
-4.726362822457475725e-04
-5.070030090749413302e-04
-2.353842979643732758e-04
5.905455515733315421e-04
2.031424122117555207e-04
1.534718786767562686e-04
-6.897787952277361408e-04
1.623673133435380594e-04
1.419175331728064673e-03
1.205947137148591277e-03
-4.072220182692633250e-04
2.989492640918209624e-05
1.558619205884300893e-04
-1.670451256434652473e-04
-2.281247982716287171e-04
-1.897618951628194002e-04
-2.172641568854327443e-05
1.039625563684701124e-05
6.105228267864521883e-04
4.658115160784212657e-04
-8.979475376463940534e-04
5.391824346981366738e-04
8.507250159273166325e-04
6.811612859021667476e-04
5.832007521245184548e-04
2.107937620102010587e-04
5.183276649933045216e-04
