# autogen test
# 
# LAMMPS SNAP coefficients for W

1 1596
W 0.5 1
-5.306029918507582543e+00
2.568232871130548753e-02
2.218724298211447246e-02
5.194015626811741143e-02
-1.528756129433891421e-02
2.782523036558998686e-01
6.573850704683802115e-02
3.759335521278642147e-04
-6.513846338192591338e-03
1.271222535525615149e-01
1.002685194561412640e-01
5.176240929203707042e-02
9.900986203321195112e-02
2.547506266872224135e-03
-2.027263162552167194e-02
2.983760490457900219e-02
-6.817385449211980572e-03
6.773558435551878254e-02
8.993205739167614565e-02
9.577322019786966428e-03
3.628168598472115980e-02
9.758037004744923425e-04
9.944319068041562043e-03
-1.655255093038907966e-03
6.766868806226104816e-02
1.077780662894155528e-01
7.035858617736756582e-02
6.136430131463297549e-02
-2.767684005912908821e-02
3.612393410685823397e-02
5.052499129912285669e-02
6.718488241894318702e-03
-1.026764887129686873e-02
-2.046149580904969498e-02
2.388518852099707004e-02
1.011039766311891686e-01
2.944983254779267538e-03
1.145860632514334072e-02
5.584761528134293135e-02
6.777563577259762030e-03
3.039786393616411564e-02
2.075675101601643160e-02
1.254995673675922234e-02
5.297994105800611208e-04
7.318111534128124950e-03
4.058587763468517184e-02
-6.440350936503403539e-03
1.352366069538324346e-03
-9.078686775487688695e-05
-2.339664043330639404e-03
-2.544174616950833044e-03
-1.537592407241321997e-04
9.463231225198652161e-03
1.740479959928887752e-02
-5.684339448070833099e-03
7.612214807935618541e-03
-2.024073625296494094e-04
-1.353861385422540115e-04
-2.658353094588546649e-04
1.606640292478141640e-04
-4.366035855450789432e-05
4.252202569029831512e-05
-2.645756092258668779e-04
-1.477988036543582137e-04
-9.906232891517226854e-04
2.303910823304693568e-04
3.747715238597004446e-04
-1.281930078887899332e-04
-9.001126873754740896e-05
6.039266467992481305e-04
-1.499114338984692055e-03
-7.628078227335881832e-04
-2.870485701828733895e-04
6.499817954875646779e-05
4.042314818800929704e-04
8.638751381265096657e-06
-3.016555294685680129e-04
-6.861101672423217460e-04
1.391290957387211795e-05
-9.732681250312707165e-06
3.395412205574012887e-04
-1.830206415490972052e-04
-1.131531988259798938e-03
-5.556162345147945070e-04
-4.724868341077010292e-04
-1.832819885432722601e-04
4.907277223428179857e-04
-3.705024655327102383e-04
1.376423780627704016e-04
1.034880668849189533e-03
7.731368173470728414e-04
-9.113336810827526524e-04
-4.352245044882526110e-06
-6.009192855044274972e-04
-7.083054891993714438e-05
8.993363786691740166e-05
-8.698707939824171036e-05
-9.533604133154408662e-05
5.246826378225782298e-05
8.121578180515149660e-04
-7.256861594882353531e-04
3.541448772562451070e-04
-7.922161235401142202e-04
6.071785253533603082e-04
-1.968547636601120847e-04
1.830231870558841954e-04
1.040842898454808971e-04
8.405193025625676316e-04
-3.185904139878194458e-04
-2.440705453163282660e-04
5.030248045523816672e-04
-2.784256210132408363e-04
2.295380467828634144e-04
-7.481405054017653631e-04
4.042066188006358395e-05
-3.507481454521459434e-04
-9.121505003312189194e-05
9.448739625500796177e-04
5.821527256999907201e-04
-2.097146719017049061e-04
-2.543984289511010653e-04
8.558877580324658987e-05
-4.465773665895565931e-04
-2.038761514233341013e-04
-3.068122718543259456e-04
5.241256099565003070e-04
-4.457855930159041521e-04
-8.467582281787547805e-05
1.362488066126593157e-03
-7.373197069612851462e-04
1.615929440155247751e-04
-7.366364766119635045e-05
-2.819475668110001023e-04
1.610943128637970815e-03
9.430290754867262583e-05
-3.909135248777620788e-04
2.869887163129514022e-04
5.505613429433072457e-05
2.475545849155260975e-04
2.881690623290278017e-04
-6.468193093440935014e-04
2.966911028359781998e-04
5.221588326299975527e-05
3.838803083075781612e-04
-1.433229667325170440e-03
-3.888703836350326857e-04
1.260387281114478232e-03
2.653809445553383063e-05
1.070589551530197426e-03
6.679509186937735614e-04
-8.511004135423243331e-04
-7.474037366423112770e-04
-3.287466620904782948e-04
-1.249318838016977122e-03
-3.635107703689216974e-04
-3.384718611630970148e-04
-4.066042503876091639e-04
3.324516610243509712e-04
-3.351948719628381184e-04
4.553796887964119751e-05
-7.616596109821465832e-05
8.031552897480675297e-05
2.240598010604552234e-04
8.740789581625374059e-04
1.778132347788471813e-05
-1.038164895502918756e-05
-1.653529684267276837e-04
-3.077613186549462169e-04
6.955938985545214988e-05
1.173090991439717167e-04
3.691203646152064251e-04
-8.156895636728533504e-05
4.817038867225400048e-04
1.757512657248680855e-04
-4.195188451527910307e-04
3.808713287557876953e-04
-3.752000937360995699e-04
-3.601513296543822572e-04
-3.153131075402481449e-04
7.190733523773419373e-05
3.069176274497442637e-04
-6.292893657561179910e-04
-3.066002132246448890e-04
-1.405735887167714154e-04
-2.236531386243406660e-04
-7.729037487254428879e-04
-6.391028386068774159e-04
1.462544407302261717e-04
6.139058697607322249e-05
1.466037438548284063e-04
4.165857442085764612e-04
-2.331952588032640630e-04
-4.728856093959852083e-04
3.561139449569265336e-04
-5.583382458249843035e-04
1.865071126540549570e-04
4.175413789956158210e-04
2.020033818935415267e-04
5.960400130713198331e-06
-3.298559055653773968e-04
-2.278636321022339145e-04
-5.903501681569870438e-04
-8.489918753296785489e-06
-4.079170793007949798e-04
3.722058422150117799e-04
9.478458934063153203e-05
1.173246441488758984e-04
-1.530990282896607538e-04
6.267698898612964137e-04
1.898382717807551353e-04
-2.622848487484718338e-06
-6.245260974877312431e-04
1.985483218271604585e-04
1.381638749468794996e-04
2.801899615528516342e-04
-6.818234003232302070e-04
3.892016762705175479e-04
1.281540324920422936e-04
-6.553285153762853201e-04
-2.275215097936472166e-04
-1.212089373079302656e-03
7.560822061372508666e-04
2.607578500167033160e-04
-3.171150881256871290e-05
6.619197821914517624e-04
-5.271509743833470039e-04
4.578034325498720673e-04
1.870214153774540824e-04
3.742612771463376450e-04
1.005277906322159850e-03
-3.275173129199422385e-05
-6.737234648917016190e-04
3.915546848861734485e-04
-1.659796132805569442e-04
-3.026951837169408722e-04
-1.220892405454047512e-04
-1.297695507687688082e-03
-7.317854467554881686e-04
4.421574160597755961e-04
-2.341157418565444201e-04
-7.770754973783892982e-05
9.466093387341508120e-04
8.063269308138565523e-04
8.882063049840832353e-04
2.832520171919701828e-04
1.019040511936058379e-04
7.038216971307146826e-04
-2.673197794615212808e-04
-1.591783171543671401e-04
-1.093466937733041143e-03
-5.892376479414835038e-04
-2.800083130673338094e-05
4.929145988669756398e-05
1.050490658128935524e-03
7.807769001236192566e-04
1.102176760193307974e-04
-5.848493642712126106e-04
-2.842558999994638995e-05
-1.473755894588379869e-04
7.593994120878032371e-04
-1.330093996579064354e-03
8.652317998288515302e-04
-9.169033419190414196e-04
-3.267068843986790184e-05
-5.690840235350485589e-04
2.316271396380916543e-04
-4.684136626133780009e-04
6.305309156665358898e-04
-3.987552004781706581e-05
-5.971736986051168943e-04
3.133316417084346800e-04
3.341365953810544222e-04
-5.581586944900160645e-04
1.259592580365331447e-03
-2.394200864412772401e-04
-6.324579957884770729e-04
3.548926508620469462e-05
2.242505820164329962e-05
-2.956709666654827877e-04
-3.868484153652896555e-04
2.837468350332247261e-04
-4.965752819493393861e-04
2.318286747736136432e-04
3.759092320252768759e-04
3.633255075792472371e-05
1.356230125267014633e-04
1.605011832853297442e-04
2.876904430011845148e-04
-7.450433143905521409e-05
2.196708099109812061e-04
-1.130358675355359535e-04
-7.053561644366615263e-04
-7.394525302272194787e-04
6.119914992787548846e-05
-4.414958098517512801e-04
2.706265712131679596e-04
5.574436372276442633e-04
-3.082591185247586562e-04
-5.121505485054763437e-04
-3.155833350291415047e-04
-3.264547638927429540e-04
-4.259783629665975669e-04
1.975620531105992282e-04
-7.473037680144238104e-05
-8.168224722023037954e-05
-4.018300018215914277e-04
4.941192817631640194e-04
-4.132770992146479793e-04
-7.462123275996399106e-04
6.626918778979617661e-04
4.010941286101980449e-05
-2.460046454872686955e-04
-4.854067594751613297e-05
-3.797825437901725088e-04
8.494853262579641967e-04
-5.866722867882970998e-04
8.419683608440123443e-04
-4.576234835258792674e-04
1.463614351205313384e-04
2.217341824698199765e-04
9.811485627063079194e-05
-1.720255157880533749e-04
1.156839579160619258e-04
5.953841826186795274e-04
2.780141951018877009e-04
-1.538864319821715474e-04
-4.126650502369932699e-04
-3.391194193842419916e-04
1.961626022928442299e-04
-1.098144010024197301e-03
-9.585475319782003922e-05
1.744702107768150029e-04
1.330855911756630193e-04
2.282445037594139903e-05
-2.018303529027038964e-04
-5.680282970068385468e-04
3.564173285754963327e-04
-5.211844793034089767e-04
1.187208256656489174e-04
4.045048689221611947e-04
-2.630086057777623844e-04
1.466407043846365207e-04
4.347147845351135220e-04
4.990075903564698606e-04
4.994406473702683695e-04
-5.083679699197870844e-04
-2.367005830387213406e-04
-2.576987757054379239e-04
1.498360088101154586e-04
5.122561029457629129e-04
-2.762422295284365156e-04
-6.929208265808586365e-04
4.055525902441153526e-04
-1.132849347024941127e-03
-2.025522673936918999e-04
2.653757718523865159e-04
4.276470620208902345e-04
4.841108228286572588e-04
-4.230143435843058486e-04
8.560438589913194974e-04
1.302705300446781362e-04
4.965391044168040037e-05
7.064213309177783595e-04
5.565201860867805515e-04
-6.258024825057955818e-04
1.695153773328349732e-04
2.597944858225422838e-04
4.925985686438617774e-05
-2.919782904978548044e-04
-5.228198237534561772e-04
-7.069891896243940847e-04
1.036946383179584947e-04
-6.343878668173244442e-04
-6.381630768044048180e-04
5.618219067316180659e-04
3.860303066501128972e-04
-1.832091956917198143e-04
8.864311741647166358e-04
8.915072399246116866e-05
-2.483347034364423531e-04
2.265479382742880830e-04
2.564402367409754878e-04
-4.437463548917860057e-04
-4.114968126099542256e-04
-4.234232657249980777e-04
-1.950566827339064756e-04
-1.480826977715139943e-03
-9.732625700483283314e-04
-1.035024872761867824e-03
6.886430060165332052e-05
6.154910975167351582e-04
-7.074521562797096480e-05
-3.434538488620442610e-04
-5.614388051938643161e-04
-7.182686353466550492e-04
-7.080933900785284230e-05
1.758798226254800650e-04
-4.638753332873267595e-04
-3.244383758823436150e-04
1.112512690374946626e-03
4.383320984621210965e-04
-1.229226788311017088e-04
-1.292092140167926259e-04
2.691090606628509510e-04
3.655146489231805824e-05
-4.416437143560867891e-04
7.412962347726955456e-04
5.064460101994677039e-04
-6.816598086399528909e-04
2.214920359859621482e-04
-4.477590100564999512e-04
-7.566617064176587963e-04
-2.295880093649712531e-04
-8.342701041289384565e-04
3.375032190585408490e-05
1.335907431213081194e-03
-2.168863023832032851e-04
-5.085246238464077992e-04
-9.726223270735987001e-04
1.353243995068790454e-03
5.220088128423129017e-04
5.974923213846937376e-04
-7.487339494831845828e-04
-4.479811746718062810e-04
3.080005452574399532e-04
4.217781307249927197e-04
-1.165890256329085744e-04
-9.988104816115346563e-05
2.074475676177232582e-04
6.003657878222768730e-04
6.988614503531039327e-04
8.928797555732542052e-04
1.293786318469525385e-03
8.849000833839774450e-04
-8.851883616102128793e-04
-8.985363384291165088e-05
7.733052945221314655e-04
3.173188708043048309e-04
-6.595245067225688354e-04
5.990743450662597497e-04
2.206923583148418346e-04
-1.220817270756493198e-04
7.301567096910855552e-04
-1.613222503160923827e-04
3.766057770210591658e-04
1.444665218732547706e-05
4.659070213815119004e-04
-7.500450783244829323e-04
9.904243776866325684e-04
-2.163403883422527292e-04
-4.476740296914538415e-06
4.490881516782634759e-04
-7.689070882036986741e-04
-9.371753843958328164e-05
5.415437460096335321e-04
2.759030437858224656e-05
5.878520896394938888e-04
8.789807410920414299e-05
-6.914570960781371220e-04
-3.187410032740736559e-05
-3.486782937206238300e-04
-5.796256748848522481e-05
-4.712190334585012580e-04
-1.779093730552630255e-04
-4.138959470184799458e-05
-3.749459133755822895e-05
1.367942700669565691e-04
4.646939563329363079e-04
1.686530438880020375e-04
2.705806688768996426e-04
-1.389014666602912782e-04
-2.841706196148743673e-04
1.796968758612091030e-04
7.321117451797750069e-04
-6.256696717314444781e-04
-6.332072886005157700e-04
4.679857085679000185e-04
6.870851268757046434e-04
3.180256968842039267e-04
-1.125370140265047672e-04
-6.474903203752573793e-04
-1.195235791117027523e-04
2.174940740437932745e-04
-1.814660663198514122e-04
-3.393097861896051575e-04
-5.518505280184284566e-04
8.957445647477303187e-04
4.778484543860066680e-05
-3.779876299822579680e-04
-5.975672807869003697e-04
-7.389050524431816204e-04
-1.284600655050732515e-03
1.518184986334369314e-05
2.664217007885471221e-04
6.644741798802176764e-04
2.656957913434632884e-04
-1.393719053536002749e-03
2.469498633184248832e-04
6.229097449149609278e-04
2.650574882753273091e-04
8.468028890375231934e-04
3.962172164516387083e-04
2.100860845862987476e-04
-2.765183175867890722e-04
-9.499786455660000481e-04
4.296101527749075538e-04
-2.333412987761997995e-04
-5.534142011771412545e-04
-2.792912857826780463e-04
-9.344364324129564303e-05
4.256203834677989989e-04
2.096144300378389731e-04
-5.818423501749069244e-04
-5.368266019373998943e-04
1.262711022394176919e-03
2.672227555627495837e-04
-3.685703367335994764e-05
6.840108101420963984e-04
4.725658973776483587e-04
-1.169463809399085659e-04
5.779223851059068405e-05
4.835161509221433504e-04
-3.036769980402072929e-04
-7.771618300175175617e-04
6.138302082092241636e-04
-8.356903554791755449e-05
-1.169975191249914741e-03
2.660731508153704717e-04
1.129363394355589696e-04
-2.950402943691274836e-04
8.002661850179949550e-05
2.620402671250688688e-04
5.543519213059399774e-04
-9.195712837874296403e-04
-1.483034245844096554e-06
-7.429744414804849602e-04
2.010366019818547766e-04
1.600301567603386213e-04
-3.972595918742433682e-04
-3.482401084675379975e-04
1.046197265126872075e-03
2.437520141764633276e-04
9.694991900167477476e-04
3.652764892433325232e-05
5.041137755119678380e-04
3.467768034711879942e-04
-5.415052179979014824e-04
-4.979497076353301332e-04
-1.923130821098709316e-05
-2.191203151254715641e-04
-4.985557281003613877e-04
-1.907738971741816377e-04
-1.377895534706946546e-03
-6.540469557307277727e-04
-5.795076569166955670e-04
7.756143367180658556e-04
4.415125621931653092e-04
-1.751147538905139579e-04
-3.080112204560885676e-04
1.481465653328701854e-04
-2.265643280822948193e-04
-7.434329075036481360e-05
6.238662592987726050e-04
6.688073228856462752e-04
-4.609107147021793729e-05
-2.555332742502639995e-05
2.076614654464136866e-04
-2.014241663297744044e-04
-7.056288355365985957e-04
-3.179693052374621279e-04
1.032321717542743211e-03
1.484188155515500814e-04
4.324541057866246622e-04
-2.873078472918046350e-04
4.023591863923000060e-04
-4.605813153294119420e-04
4.483932975182279915e-04
-1.755803145338781057e-04
-1.428487246279343151e-04
6.394940636122946852e-04
1.783088491661765718e-04
-6.567856459297904568e-04
7.568724624375095769e-05
-8.843539772102990571e-04
-3.285681105838832530e-04
3.724836616804096329e-04
-4.305311534253691993e-04
9.449245700114933906e-04
-2.549191088234248706e-04
-2.644407817796776247e-04
-1.398589993276835126e-04
5.503277646210921140e-04
-3.991506233080279386e-04
1.211120712540959685e-05
5.729222485033602652e-04
-7.446954992449319869e-05
3.295792836724127455e-04
9.383040067259654270e-04
3.964440913944839687e-04
5.495709608334806888e-04
-9.807702355443962197e-04
4.279266561211219743e-04
5.259329671590124149e-05
5.754965237068943593e-04
1.530839714271253022e-04
-1.759375041837493410e-03
-5.269204099105801462e-04
-1.349646809207367102e-04
6.349119501276652042e-05
-1.144563542219594662e-04
1.411269078474475171e-04
4.036672609143522670e-04
-9.356455710322134078e-04
-1.641410205195941341e-04
-4.515312919197789015e-04
6.968550577636411147e-04
-5.668432808169681291e-04
-2.254757347822049891e-04
6.816702864483430158e-04
-9.174754700829484857e-05
1.393063818269211932e-04
6.708614176369414412e-04
1.885279048825005196e-04
1.499723559883850551e-03
1.282173300268403190e-03
-4.979836332592178696e-04
1.030764444975705574e-03
-4.398943034109897192e-04
-6.477111009001227087e-04
-8.942814627077274106e-04
5.694427423569161468e-04
7.212558322147720761e-05
-3.553080964546083729e-05
3.442774937572015584e-04
-1.240936553296850006e-04
-1.297705299910784701e-03
-6.048281339064325631e-04
3.006088361086263505e-04
-7.632244597191095237e-04
1.142007552459578523e-03
-4.765843598464565632e-04
8.958994526500703350e-04
8.511902873941414038e-04
1.236812216477518531e-04
-1.052963542798249783e-03
4.264743891663041997e-04
-6.206665861051525535e-04
-1.595520784205746792e-03
2.656963646005016440e-04
-3.715593525655662443e-04
2.137019792527701599e-04
3.081417349533120795e-04
3.692075321118623620e-04
9.416781748442794005e-04
-1.238006849556141627e-03
6.323441177131574340e-04
1.703443519542359452e-04
-1.420818819332134164e-03
-3.167351237194085335e-04
4.847255278941795735e-04
2.224808560194427732e-04
-1.092716790012125032e-03
6.538069611256421216e-04
1.361353123991531711e-03
-1.013120778670923669e-04
-6.354009047166415502e-05
-1.341108107814970637e-03
5.486258595682818543e-04
5.347896609619978399e-04
1.743910813374364922e-04
-1.545240006825484322e-04
-1.060622898835920187e-03
2.261614216917757147e-04
3.875601482025355939e-04
-8.390449599528011402e-05
-2.584652746552657137e-06
-6.572168333779031084e-04
2.500316854472521316e-04
4.046899500000878335e-04
-4.487064350589758748e-04
1.052969779453319902e-04
-8.511749370063994517e-05
6.092641093452874764e-04
5.046296273691579628e-04
-7.629229445545962929e-05
-1.716314462521427117e-04
-1.629821099590907617e-04
7.574330514629838956e-04
-1.178133393105391708e-04
6.320265649624877587e-04
6.610262352446051506e-04
9.491648100485156319e-04
-4.458909816774622487e-04
1.553163243822142946e-05
6.368212681830640607e-04
-3.715507405987368561e-04
-4.891062376271867020e-04
1.082349961510693358e-03
-1.529991203575417397e-04
4.771593757121246095e-04
7.022378627323020263e-04
-2.739761620173277704e-04
1.470531096470743685e-04
-3.336504456411020425e-04
1.188560727431335834e-03
9.218669037447789092e-04
1.277668366630559712e-03
-2.728075106578625318e-04
-3.351761661917113978e-04
1.582249164486217597e-03
-4.573573820151640552e-04
-3.726754797156415513e-05
-4.170375663229563970e-04
-9.818522986926165024e-04
4.129903495056284874e-05
8.552596618420208905e-04
4.146557739763066493e-04
-5.583438032970995104e-04
6.044974498683629624e-05
-1.210618242808363072e-04
4.585370442098977506e-04
1.056574391562294102e-03
-3.844206106663548947e-04
4.333607322837125476e-04
2.281557431661924442e-04
5.685076267315340715e-04
1.613677700770957207e-04
7.995902972319133238e-04
6.029959787842942244e-04
1.535894959586698943e-04
-4.064690070044137734e-04
3.787831938585486209e-04
8.888069715057652807e-05
1.927771812748051855e-04
-4.831161395575073289e-04
-1.492826894980156061e-04
5.567499577922129916e-04
8.045616148487732102e-04
-6.503165309344095682e-04
-5.031367243316449585e-04
1.068509091480376264e-03
-1.730010600866439862e-04
3.452301370074551041e-04
1.563832373538031261e-03
4.396404806384858108e-04
-6.656368552701030523e-04
5.603512498639887139e-04
-3.165935226587814847e-04
-9.894898975260923730e-04
-3.307763455399774012e-04
2.907811518493941087e-04
-1.941832391243712719e-04
-4.066574064213032344e-04
4.119700216113725776e-04
-8.230546485845041758e-04
6.166831008982711065e-04
-5.042893431191863797e-04
1.735412435315189040e-03
5.184160522514188541e-04
-1.867516926218583872e-04
3.316232538281156639e-04
2.820875659402083098e-04
3.814406850805565001e-04
3.345838142211363195e-04
-4.483750604088124084e-05
-1.456478333853489541e-04
-1.051684340955781399e-03
-9.588216829668188418e-04
-3.466397439348333723e-04
1.144190474586190883e-03
1.506004429333749836e-04
1.586516857656927900e-04
-7.542398481451830460e-05
3.815387735824507607e-04
1.878497615015458180e-04
-8.593197291695569727e-04
-2.144131676263597009e-04
-7.857765783037302812e-04
3.969844560142928068e-04
-9.648699340390618417e-04
3.034253042378492853e-04
-5.352111888304692552e-05
-1.379651465480544376e-04
-2.604722817023964721e-04
-3.341596745070133908e-04
1.072335151500503249e-04
-2.221682872573546401e-04
-1.862405542883002415e-04
-5.621201997337466234e-04
-1.082242407741415471e-03
1.681918344989247855e-04
-1.351675210781208667e-04
-8.846231165589336920e-04
-2.530891161756765708e-04
-5.468993459975587251e-04
-1.210408534898569884e-04
1.758615687624692802e-04
-1.198867933033400919e-03
2.445773475988388180e-04
-2.472949798056496540e-04
-1.160129609029033346e-04
1.446899988550348756e-03
1.152471586354929852e-03
2.980308034009250691e-04
-7.076451609993110155e-04
-1.526502940793880627e-04
7.474755603092665896e-04
-6.798174143587579037e-04
1.175353193784124076e-04
-1.305435034450402545e-05
3.917249761273759560e-04
6.469523045893845392e-04
-4.029660610612474658e-04
1.133619698716888889e-04
-3.997479960130585351e-04
-4.530979109878786816e-04
-3.873981246101780313e-04
1.115750751623139801e-03
9.202554303497696318e-04
-5.424754815847844470e-05
2.450596088793122575e-04
2.028026364668691179e-04
1.331864199600376469e-04
5.129156062148528027e-04
9.533642471840943211e-04
-1.419378625759790125e-03
-4.568489717772177510e-05
9.322529340389994158e-04
-6.422532335563067461e-04
-2.647944660390793973e-04
5.611798095522363113e-04
-1.007587592767537069e-04
2.311381151303832087e-04
-1.109605776940920751e-04
-1.628860689353971896e-03
1.526866158009034826e-04
2.641962343824566560e-04
-3.361973714127322686e-04
-5.701820189235132252e-05
6.638934840701738458e-04
1.277530902473758784e-04
1.501246147671085130e-03
1.292233826237080055e-06
5.966462217398670748e-04
-3.489352841069464435e-04
-1.461115827108018495e-04
9.337008447034545171e-04
9.815629556474042062e-05
2.478340850244915698e-04
1.017631812759405962e-03
-4.718657794774893050e-04
4.587884246359636656e-04
-4.867689114371169268e-05
-6.294952086900346437e-04
1.057230555123191487e-03
8.063025307088926910e-04
1.525904539475033675e-04
1.144960719519980043e-03
-7.151855227789784362e-04
-1.707923609559741738e-03
-4.496620469010375568e-04
-7.065048488149309374e-04
4.944256279151330261e-04
-1.619551041477471250e-04
-7.173317882991703319e-05
9.557663595565436473e-04
1.090770651726205820e-04
1.521555598469877127e-03
1.026952533869706719e-03
4.771966139338112219e-04
-8.804257078892290065e-04
1.170543054959524796e-03
-1.315218623963669521e-03
-2.894454738286403772e-04
-6.733685462321966622e-04
4.664244060564499712e-04
5.827891664735453505e-04
-2.000477244908036034e-04
-1.637163623020696413e-04
5.328689536818870774e-05
6.597560052812583443e-04
1.776720456471622407e-04
1.051219181934509713e-03
7.180984756809231668e-04
6.333867846558436873e-05
-2.958240455910935416e-04
-1.190268792902076647e-03
9.545796385275064728e-04
-9.522506806055237611e-05
2.402384911947502786e-04
-6.592407378059909548e-04
-1.534643313650760994e-03
1.472120342544615441e-03
2.831097497168149181e-04
9.576463147300710377e-04
-2.339392970930398777e-04
9.723843327510638170e-06
-5.708196743297420809e-04
8.090183605090295283e-04
-3.034551397342874555e-04
1.804929434124830415e-04
-1.208754221366967740e-05
1.741945468466844641e-04
-8.233973145942983293e-04
4.171334519057694028e-04
-1.829821431766668835e-04
-7.601998162542582260e-04
1.442318217952379611e-04
-4.410252329910824141e-05
-3.215316442049447141e-04
-2.264312785855017278e-04
4.586863084964446229e-04
-7.557349888986643295e-05
1.731979887707910028e-03
-7.445995277098285030e-05
-1.181630288902240077e-04
-2.195256253208217011e-03
-3.089790871619519969e-04
1.183970938783223369e-03
4.676894234841875780e-04
-1.754338251571459391e-04
-8.848440101376760453e-05
5.656361854259333866e-05
-1.276967823322598845e-03
1.985686789063582664e-03
-3.543563095723823299e-04
1.418971659116076542e-04
1.015352644685654868e-03
7.720891931249021381e-04
-2.409920134081540758e-04
-5.250552361330681431e-04
-2.139917147086842133e-03
-2.130530269423164009e-04
-6.798432368181790697e-04
-1.489072122703536489e-03
-5.988295034912686924e-04
4.086007087021163177e-04
7.146138524884905084e-04
1.109945717497813318e-03
-5.475360491368781030e-04
8.720106011669704737e-04
6.317791907879627498e-04
1.334885794416910357e-03
5.126830553026749259e-05
-6.614517705469758011e-04
-4.954444129321521170e-05
-5.722719902284831512e-04
8.371669245784733805e-05
1.042681610582132598e-04
9.768775175730461807e-04
1.140288206604136729e-03
-6.356277945817960214e-04
-8.616632554572065290e-04
-6.033166500122210318e-04
4.397458206578632378e-04
8.868210661904277984e-04
3.589959732477990577e-04
8.585549633056519143e-04
-1.103579172993870679e-03
1.627775390845748486e-03
-2.344963853725249062e-04
-7.437447471062331203e-05
-3.286402860634671285e-04
6.854216384021514239e-04
1.003187625326855186e-03
9.451615414313884649e-05
-9.241903305413106577e-04
3.301977803091863078e-04
-4.390080746997945902e-04
7.146392996056938644e-04
-2.258671615122825633e-04
-5.644402866544849084e-04
-1.656301845303161232e-03
4.827133388621592100e-04
3.002095093916481235e-04
-3.880163455030213545e-04
4.962276449243008166e-05
-5.016646192323633837e-04
-6.220482288466064238e-04
5.069424883085481368e-04
6.439630955984048440e-04
7.667983625002822460e-04
1.796433067877955538e-04
7.341771677819831053e-04
8.188207189253803248e-04
8.756669436960867574e-04
3.314092408329645848e-04
2.882548615404034124e-04
2.232455973427483799e-04
-1.688988844087959676e-03
-5.981868927822329160e-04
-1.870610841193967545e-03
4.092308691316321259e-04
-9.039505096433860225e-04
-4.694699775319586730e-05
-7.587311018808741902e-04
2.714746974566487059e-04
-7.243738013229606212e-04
1.274233894202270222e-03
-5.382584751273165142e-04
9.643775053716763506e-04
-2.884418199999222237e-05
3.659530616125323751e-04
-8.723235605913747697e-05
-1.669969498470674936e-04
-5.896169173240958621e-04
9.364936628904065681e-04
-1.800341876649346222e-04
1.052047409575300940e-03
-1.342484876646039523e-03
-6.549734572212872986e-04
-5.168837380495365161e-04
3.613946912947126793e-04
8.409108984084414425e-04
-7.127522512767401740e-04
-4.359508602684432447e-05
1.118620270852715981e-03
2.239036717670628350e-04
-1.547403468084661130e-04
3.948130104780748313e-04
-8.903504670113429392e-04
-4.020491361036886754e-04
6.158938665234847546e-04
6.475213474677262186e-04
-3.636525014737423131e-04
1.034356500709112195e-04
-3.817331455371556631e-04
-9.096803426001380966e-04
-8.458718072777760867e-04
-6.329964942728719081e-04
3.323828908094714251e-04
-4.331912135989021088e-04
-1.084205851550303963e-04
1.342533846309948041e-03
-1.002143915172074885e-03
-1.218555830741541494e-04
1.259814210914214855e-03
-8.668265114447641553e-04
4.380155465951632689e-04
5.673977037313932296e-04
2.617118339810134008e-04
9.097766675346055524e-04
-5.063178768642724332e-04
-7.823172544265386864e-04
1.522229420921688235e-04
8.751869658005683101e-05
-3.475444126632135284e-04
-4.798872117637649113e-04
9.125219651672185133e-04
2.804062771156405864e-05
1.842518637228965849e-04
1.296530771358403314e-04
6.848380917382067713e-04
-1.850085723814861628e-04
2.764444922222494350e-04
-2.911033273729526748e-05
-7.805548760038593303e-04
5.023298177135727786e-04
-4.719232602424622519e-04
7.463084785782566385e-05
-2.077806437109045324e-04
7.806106722668276776e-05
-3.977700869872840563e-04
-2.532304343319426103e-05
-5.169042683302756385e-04
-9.084482148887349396e-05
-3.030178513108658118e-04
-8.469087537408610160e-05
-4.031903173167686799e-05
-3.695120883138228976e-04
-1.140273117685589596e-03
-6.419507777871319735e-04
-7.709553327332484317e-04
-7.796731589836344584e-04
-2.385415315525079747e-04
4.904904132493183386e-04
-8.266632368186913353e-05
-4.576880221811900845e-04
1.124670610508092137e-03
2.787307483583474957e-04
2.167681574326382104e-04
-4.210490272821152064e-04
-7.266582654022965288e-04
-5.533737478284012166e-04
-1.250581574123480974e-04
1.689341815522989003e-03
-6.260781463082902088e-04
5.051257952679285906e-04
2.182098171851365323e-04
-1.731795575955554520e-04
-5.740464986965008553e-05
3.960197636924256003e-04
-1.372769299047544352e-03
-1.352729265480701656e-03
2.612896089584003053e-04
-5.103244470287728735e-04
-8.404453713751351739e-04
-5.123343126664361492e-05
2.950551137194842551e-04
9.312930489675560596e-04
-4.450861542457761728e-04
-2.615224474921819080e-04
4.375176292422139498e-04
-1.152845527580473854e-04
1.235413701287827598e-03
5.951108015456624571e-04
-1.580876471760448787e-03
-5.339542469509799601e-04
-7.270813428024043828e-04
4.160470679708355127e-05
5.293724364722869830e-04
-7.897250493944122718e-05
-1.067546139451457272e-03
-1.294432078670872486e-05
9.370102921917357070e-04
4.021877959715140999e-04
1.080130346984929098e-04
-2.545826205011819535e-04
7.388321534096836142e-05
4.973479960344164919e-04
-1.694011485838971796e-04
5.935159055665119397e-04
2.896673128307975924e-05
-2.549138349576853522e-04
-2.276457533963754303e-04
-1.144056502086978613e-03
-2.541883833212229480e-05
5.743194725562205012e-04
2.812431891267125859e-04
-6.134146224997721669e-04
5.762262141381094748e-04
-8.007258769551128992e-05
-4.292950901250160677e-04
5.392453573931127626e-04
2.612220228144155861e-04
-1.879582968042380715e-03
4.242940623690224768e-05
-7.817928869784485731e-05
7.488352932587942783e-05
2.859413209135699746e-04
8.876087223010955792e-04
-8.753676092171787078e-05
-6.144099812264396240e-04
1.319654260167745386e-03
2.488812895412699860e-05
-5.023601004649396254e-04
-2.475229733843281837e-04
-3.749699373813568967e-04
4.591497902161028981e-05
-1.707717522624827402e-03
-3.751377196680289426e-04
2.451044229354077276e-04
-3.072307218131852566e-04
7.585193953438747498e-04
-1.012134804481605664e-04
1.338204209844022926e-05
-4.384865120131986875e-04
9.929091353023535124e-05
5.546744562251424175e-04
-1.271164028924083806e-04
-1.723374123227280441e-04
-3.046701504507567911e-06
-3.252078104363123980e-04
-1.438102449158837207e-03
-9.370577285178905824e-04
4.757134202481230886e-04
-4.661523596957262258e-04
-3.724186867891030300e-04
-1.142257243303523146e-04
2.335255970256606235e-04
1.142005627927349847e-03
1.080482645140876932e-03
1.795951134575300776e-04
3.118725298847574217e-04
-8.611175466729225356e-04
3.330546707011640406e-04
-8.450966968964300366e-04
4.504101827960890758e-04
9.125311112439813202e-04
-6.058518582710289242e-04
-7.330032914649785378e-04
-7.473104869783288090e-04
-6.760579574701043766e-04
7.671466800196029279e-04
7.110574222263084604e-04
6.740285265475179539e-04
-6.662936453701360064e-05
7.285666030061173056e-04
-3.179406651976004615e-04
2.118259865753709169e-04
6.828475828871072772e-04
-3.202732976985733001e-04
-3.557423310165284069e-04
2.068017413559805444e-03
-5.677274293923049571e-06
1.073692183450974632e-04
4.060628740082990597e-04
6.325340666691200119e-04
4.243679867987829436e-05
4.006731394760884384e-04
-1.319941297526372936e-03
6.582140531084393689e-04
-6.104626776711569126e-04
7.436361734301436118e-04
-2.417862622034205888e-04
3.916761821994892015e-05
-5.539905506553462720e-04
-6.165147780633349790e-04
6.632804746403913676e-04
-3.056160604856621426e-04
3.703937766484503608e-04
9.488256047402459812e-04
9.133975788189083135e-04
3.400897582154882408e-04
6.898384888362513352e-04
-9.688368365868454176e-04
-3.488930931913704413e-04
-1.488668749576133542e-04
-8.181581376876510305e-04
-1.201926625719171001e-03
8.461172050950523408e-04
-9.291666508080589611e-04
2.456678510890380356e-04
9.389794981135281770e-05
9.946455001260611720e-04
3.963460043260429177e-05
-3.195808814797509263e-04
-5.679339032316771266e-04
-1.025865354329269204e-03
-2.988773792286750653e-04
-8.279253845077368199e-04
-9.371717711665151563e-05
7.087371246431196925e-04
6.089200432618328005e-04
-1.003353622186068739e-03
-4.855688645953515814e-05
4.776585996902803981e-04
-1.248546041447765043e-03
-8.767417444929761659e-04
1.198221976248842364e-03
-7.222962171097915547e-07
-3.095696422197958338e-04
-5.642658842537394501e-04
7.682261367760997777e-04
9.777254487073870366e-04
-5.231878013833077398e-04
5.074414364330764957e-04
-2.350161678687737600e-04
-1.320602050030307735e-03
1.585182236314048058e-03
-1.119647354095816560e-03
9.987788162065624857e-04
-1.664575486999198299e-03
3.362358504431832917e-05
8.620446707881234403e-05
-8.990192826747798842e-04
1.919058241331302560e-03
1.699480200616321256e-03
5.484451541164175967e-04
-1.404500616999658112e-03
-5.255293898777539446e-04
-4.331282655032715669e-04
3.652165496950261184e-04
-1.780198642912166030e-04
-9.975028760555080219e-04
-5.137325235682983424e-04
1.575926115283564279e-04
1.160720818532345920e-03
6.172022958810864136e-04
-1.620330888408385607e-03
1.333204235630328994e-03
4.693914688738696811e-04
-1.761393709938551184e-04
-2.398998897113006337e-04
-4.105448207200612393e-04
6.305571021675936269e-04
2.953275515973828006e-04
1.001950697356431078e-04
1.154402933039278499e-04
1.149673469419352492e-04
4.242595799760104868e-04
-1.111002972025816648e-03
-5.916728004930209186e-05
-3.945031518498594286e-05
-5.261783900654911673e-04
8.174413365126604247e-04
-4.266732006730863014e-04
1.471381877873397415e-04
-4.177598642409482521e-04
1.931298397329643979e-04
8.335726498460968364e-04
-3.028900583016506660e-05
2.057923486753081873e-04
4.412893883779547789e-04
5.737247148829063012e-04
-3.294345295354090966e-04
-7.427182266300737159e-04
3.672008777055998582e-04
1.045611426654330465e-03
4.224068429267862669e-04
-8.430785920180847636e-04
3.095670803957310466e-05
5.533037085904150745e-04
-3.528907570848018775e-04
4.001437571223816561e-04
-2.478951811178553436e-04
-1.255712814690076876e-03
-1.452780001030442420e-04
-6.477903515268884117e-04
6.646834304680044551e-04
-7.370678785471761934e-04
7.275015555697796066e-04
6.176739476210438154e-04
-4.566257180296171003e-04
2.949003219545617643e-04
-4.958724489026886876e-05
-8.341827802032125184e-04
3.636229930252132965e-04
1.138495448957469727e-03
5.132026698690924163e-04
-1.477022691339753221e-04
-5.515954851887094066e-04
-3.244597081691123590e-04
1.925242219586582285e-04
-6.366219627660272499e-04
5.605284206949165361e-04
-9.696926979891435597e-05
-1.140594964572601354e-04
5.228146915092417128e-04
-1.492136308881265264e-05
3.870822170276363322e-05
-1.000601572405200330e-03
-9.173919505940753374e-05
-2.476736844243028891e-04
9.118306472484615085e-04
-4.766039980749834769e-04
-4.169267517710023552e-04
-1.924848700204683839e-04
3.250660731081112746e-05
9.686516916411006266e-05
-6.559994317829903219e-05
-1.043688828851155488e-04
-2.437084624049532270e-04
-3.033874036175497699e-04
5.813482389142067552e-04
-1.858747414499092442e-04
-1.256055863173996317e-03
-4.826189489958931868e-04
1.482900178507547877e-04
-2.371688077523831590e-04
-2.952610251009071970e-04
-4.306155021981515770e-04
-1.280856799179372232e-04
-7.711205870309632577e-04
-1.648216284152290330e-03
5.665047077691536242e-04
-1.524502198795957188e-03
-8.052133028637192824e-04
1.476239881334925029e-03
-5.575551190483176963e-04
-4.133028218330378153e-04
-2.326507414773016128e-04
-1.897790804115106751e-04
7.020505810778434642e-04
2.874580497133068604e-04
1.411785171425539273e-04
-5.738673670232355742e-05
1.789515547192280188e-03
-3.109803282885129994e-04
-2.026886029913578004e-03
-5.434270323098401058e-04
6.404726034608044353e-06
2.549283573282180360e-04
-3.482265549283586185e-04
-1.597712843953102383e-04
-3.056445011768725074e-04
-6.706176997581772721e-04
8.166750666372663394e-04
1.319139485754031605e-03
-5.244598736959375524e-04
1.384446447229072412e-04
2.324740885792418797e-04
2.491192825580917903e-04
-5.888831458386084485e-04
-7.540543680062161995e-04
1.228321573178684087e-03
4.857393900787056163e-04
-8.596588569326201476e-04
-4.344184290153185507e-04
1.120801818701864594e-03
-3.215607108961870009e-04
7.391230907724667502e-04
-3.947256422689362360e-04
2.691781444536351601e-04
3.612045906501604609e-04
-8.656648205524309183e-05
-3.600588099167485907e-04
5.534657376991145234e-04
1.150140964961360535e-04
-1.736107860037835570e-04
-1.188703216397245981e-03
-3.296530397818147337e-04
3.432305506203506165e-04
-1.323274238099449163e-03
2.580265836818971528e-04
1.516922350983691738e-03
-2.655684331794409283e-04
1.621149717176608145e-03
1.411411452016154977e-03
1.268220864767586990e-03
-5.175497273754091051e-04
1.234905718760908981e-03
5.086550196233623439e-05
-1.160330406799447208e-03
-6.154140355327761573e-04
6.984607725755599813e-04
-3.843401597183065564e-04
-5.068361020590016414e-04
3.291527647964077180e-04
2.351403184158107828e-04
-2.047691979868564464e-04
-7.718944006747871511e-04
1.252227791021306037e-04
-1.184765562207949633e-03
8.708960121442890648e-04
4.653563152294632951e-04
7.791427571027548672e-04
1.045150079510748822e-04
-1.924401838280043317e-03
-1.265498663070081580e-03
1.634521006755582963e-04
-1.129510096658645408e-04
1.010788297850110555e-03
-1.575956658587893957e-03
-1.102016592470470620e-03
-7.140373903012515074e-06
2.138265617495739904e-04
5.285612395475255704e-04
3.622675369724426861e-04
4.536481496480383908e-04
9.275974494101417531e-04
3.900375073770925762e-04
5.536060592275593786e-04
-8.075498219916223000e-04
-1.911836311652577100e-03
-1.216678877516982833e-04
6.845099038441361744e-04
-4.903877838033146846e-04
1.396625976687038400e-03
1.780027148531733569e-03
1.264352179669658654e-04
3.708287333353452696e-04
3.462894617888149281e-04
1.460074328901413490e-04
5.273286223262290458e-04
-1.256914232906403183e-04
5.073292979383464598e-04
-8.654740096920055274e-04
7.274488390123217546e-04
-1.081328312166403863e-04
-3.561267521280573299e-04
3.030029526480246716e-04
-1.100663327611305396e-04
1.873780594566630704e-04
1.570494648663794089e-03
3.354999085650000983e-04
3.131598382552323997e-04
-2.328197885777182020e-04
-6.308574138985604662e-04
-9.396153023229360897e-05
5.359267479741143319e-04
-9.829049652552285504e-05
6.697006264404360254e-05
2.600595041578211881e-05
1.407042375201818457e-03
1.841398106864552964e-04
-8.185273748217225878e-04
-2.864591854601867345e-04
3.668887884481336875e-05
5.013217524506806411e-04
-5.190450087781232902e-04
2.533121443394815053e-04
-8.041709315407583698e-04
-5.318494638610433631e-04
4.579004828218648628e-04
1.235118002606559501e-04
-3.236932370243908160e-05
-1.009580354975558869e-03
1.682404895330354209e-04
6.594314479396670844e-05
3.796872729342364353e-04
2.736020408241786328e-04
-1.453935596295548641e-04
-2.428221710408325258e-04
9.152363692842577312e-04
4.017739818753333892e-05
-6.899403718931451830e-04
1.202881038585804085e-03
3.079234045320746534e-04
4.860421115572339428e-04
-3.996372191862018991e-04
-1.229179751194125732e-03
-1.786609468264401007e-05
2.072391987390289898e-04
6.963698653731810592e-04
-8.509451021390052939e-05
5.639834932960412738e-05
9.642132558463296151e-05
8.984970215312894739e-05
1.650111065259297427e-04
-3.041027226278531686e-04
3.910777678944267390e-04
1.135273038364397038e-04
2.619433555175339597e-05
-3.381412490299450218e-04
2.646120284633127141e-04
2.586283162369996448e-04
-3.029475438408881470e-04
-7.910755420090862921e-04
-5.612997693054766566e-04
-9.442485873954592750e-04
-1.432306384881460576e-04
-1.149061633438926361e-03
-3.219063877399990208e-04
2.310777402217324304e-04
-2.028657412894541807e-04
6.631840068902450326e-04
3.624825593380906724e-05
-1.260674210417461055e-03
3.267858599299926204e-04
4.043681950926583928e-04
-8.674661570099114795e-04
2.345187397772423331e-04
-1.547466443172174847e-04
1.043856858347259713e-03
-8.816397015626256271e-04
-2.193645888410649606e-05
-4.365384350306270278e-05
-1.566732180253449253e-04
-1.172008342004730516e-03
1.285167848317881256e-03
-1.033417248918411940e-03
-2.935429472188607366e-04
-1.681040662964349372e-05
-8.636253360822890865e-04
4.194860837597411151e-04
1.947341618254761245e-04
-6.125402957358583962e-04
-4.286917475954748168e-04
-1.925732312177951282e-04
8.132484167334265792e-05
-8.149253060989834893e-04
-5.812125801948692582e-04
-5.807205925623487542e-04
6.962926876623496374e-04
2.747482068166692110e-04
-1.794508341663433653e-04
-1.320546644750463005e-03
-1.641806432138478858e-03
6.999729622814647835e-04
-5.065001623258189164e-04
2.854427992347543424e-04
3.113623231371281442e-04
-3.151645922567602293e-04
-1.277441806281292365e-04
6.267704086907285215e-04
-4.662734675925509651e-06
1.936675671099097199e-04
1.806620408611280925e-04
-5.982976921961081791e-04
8.967911634976598280e-05
-8.497721823645361730e-04
-2.811337206031839283e-04
-1.468010748690093544e-04
2.816462865617835052e-04
-4.512170735297229055e-04
-3.072895879319060999e-04
6.932953024335438341e-04
8.070399770781986053e-05
9.789884328748603860e-04
1.013291097387387148e-03
6.414398213110922655e-05
-4.222844764950473419e-04
5.684018559452362737e-05
-8.281294646245583222e-05
-1.472488879828844858e-04
-3.110404619624438879e-04
-1.596213169041703879e-05
9.521742611159054494e-05
2.546293522446186502e-04
2.067893570620273264e-04
5.799711680744915878e-04
7.010992763405084769e-05
-1.824683699868406839e-03
2.788296875748224593e-04
3.189690240711506733e-04
