# autogen test
#
# LAMMPS SNAP coefficients for W

1 56
W 0.5 1
-5.306025530000000323e+00
2.582686730000000042e-02
2.224885169999999898e-02
5.191964770000000173e-02
-1.527058899999999934e-02
2.782358819999999899e-01
6.578117449999999755e-02
3.420633249999999832e-04
-6.368109670000000194e-03
1.270785170000000019e-01
1.002905810000000036e-01
5.178924470000000058e-02
9.899491570000000518e-02
2.598167939999999898e-03
-2.032368869999999841e-02
2.979540060000000073e-02
-6.880889840000000389e-03
6.777101520000000656e-02
8.995079749999999874e-02
9.523088040000000573e-03
3.626871909999999921e-02
9.428549780000000180e-04
9.936827139999999947e-03
-1.649808169999999975e-03
6.760595070000000040e-02
1.077690979999999937e-01
7.032314550000000331e-02
6.132904799999999712e-02
-2.768473559999999958e-02
3.604513250000000030e-02
5.049026799999999787e-02
6.772695260000000279e-03
-1.034095179999999954e-02
-2.036858110000000152e-02
2.389291149999999905e-02
1.011902060000000048e-01
2.915364719999999875e-03
1.145991239999999932e-02
5.583986679999999869e-02
6.680854160000000187e-03
3.038678640000000084e-02
2.076932919999999877e-02
1.257161029999999922e-02
6.619236830000000066e-04
7.361354219999999629e-03
4.050818030000000181e-02
-6.397916200000000088e-03
1.318517709999999935e-03
-1.593335919999999933e-04
-2.341614379999999891e-03
-2.517530559999999959e-03
-8.119641829999999806e-05
9.444672169999999631e-03
1.731032689999999902e-02
-5.656183210000000419e-03
7.662906320000000167e-03
